Language model created by QuickLM on Mon Jun 18 12:35:19 EDT 2018
Copyright (c) 1996-2010 Carnegie Mellon University and Alexander I. Rudnicky

The model is in standard ARPA format, designed by Doug Paul while he was at MITRE.

The code that was used to produce this language model is available in Open Source.
Please visit http://www.speech.cs.cmu.edu/tools/ for more information

The (fixed) discount mass is 0.5. The backoffs are computed using the ratio method.
This model based on a corpus of 548 sentences and 283 words

\data\
ngram 1=283
ngram 2=800
ngram 3=808

\1-grams:
-0.9556 </s> -0.3010
-0.9556 <s> -0.1708
-2.2631 A -0.2981
-3.6944 ABOARD -0.2501
-3.6944 ABOUT -0.2501
-3.6944 ABOVE -0.2501
-3.6944 ACROSS -0.2501
-3.6944 ACTIVATE -0.2997
-3.2173 ACTUATE -0.2480
-3.6944 AFRICAN -0.2501
-3.6944 AFTER -0.2501
-3.3934 AGAIN -0.2501
-3.6944 AHEAD -0.2501
-3.3934 AIRSPEED -0.3007
-2.7913 ALERT -0.2501
-3.6944 ALL -0.2501
-3.6944 ALONGSIDE -0.2501
-3.3934 AN -0.2499
-3.6944 AND -0.2501
-3.2173 ANTI -0.3002
-3.6944 ANTI-CLOCKWISE -0.2501
-3.6944 ANTICLOCKWISE -0.2501
-3.6944 AROUND -0.2501
-2.5483 ASTEROID -0.2501
-3.6944 AT -0.2501
-3.6944 ATOP -0.2501
-3.6944 BACK -0.2501
-3.6944 BACKWARD -0.2501
-3.6944 BACKWARDS -0.2501
-3.0924 BASE -0.2501
-3.6944 BE -0.2501
-2.7913 BEAM -0.2437
-3.6944 BEFORE -0.2501
-3.6944 BEHIND -0.2501
-3.6944 BELOW -0.2501
-3.6944 BENEATH -0.2501
-3.6944 BESIDE -0.2501
-3.6944 BESIDES -0.2501
-3.6944 BETWEEN -0.2501
-3.6944 BOOST -0.2501
-3.2173 BOT -0.2501
-3.6944 BY -0.2501
-2.9955 CALCULATE -0.2387
-3.6944 CANCEL -0.3003
-3.6944 CHARGE -0.2501
-2.6944 CLOCKWISE -0.2501
-3.6944 CLOSE -0.2501
-2.6530 CLOSEST -0.2434
-3.6944 CODE -0.2501
-3.6944 COME -0.3009
-2.9955 COMMS -0.2407
-2.9955 COMMUNICATIONS -0.2407
-3.2173 COMPUTE -0.2387
-3.6944 COMPUTER -0.2501
-2.3722 COOLANT -0.2425
-3.6944 COOLING -0.2501
-3.3934 CORE -0.2501
-3.2173 COUNTER -0.3002
-3.6944 COUNTER-CLOCKWISE -0.2501
-3.6944 COUNTERCLOCKWISE -0.2501
-2.2631 COURSE -0.2469
-2.6944 CUT -0.2458
-3.3934 DAMAGE -0.2498
-3.3934 DEACTIVATE -0.2495
-3.3934 DECREASE -0.2387
-3.6944 DEENERGIZE -0.2501
-2.7913 DEGREES -0.2460
-3.2173 DEPLOY -0.2387
-2.7402 DERELICT -0.2501
-3.6944 DESCRIBE -0.2501
-3.6944 DESTRUCT -0.2501
-3.6944 DETAIL -0.2501
-3.6944 DETAILS -0.2501
-3.6944 DID -0.3009
-3.6944 DISABLE -0.2501
-3.3934 DISENGAGE -0.2495
-2.6944 DISTANCE -0.2425
-3.0924 DO -0.2498
-2.9163 DOCKING -0.2495
-2.7402 DOWN -0.2378
-2.4903 DRIVE -0.2360
-3.6944 DURING -0.2501
-3.6944 EIGHT -0.2501
-3.6944 EIGHTEEN -0.2501
-3.2173 EIGHTY -0.2487
-3.3934 EJECT -0.2387
-3.6944 ELEVEN -0.2501
-3.6944 ENEMY -0.2501
-3.2173 ENERGIZE -0.2480
-3.6944 ENERGY -0.2501
-3.2173 ENGAGE -0.2480
-3.2173 ENGINEERING -0.2471
-3.6944 ENGINES -0.2501
-3.3934 ENOUGH -0.2497
-3.6944 ENTER -0.3007
-3.6944 EUROPEAN -0.2501
-3.6944 EVERYTHING -0.2501
-3.6944 EXCEPT -0.2501
-3.2173 EXTERIOR -0.2996
-3.6944 FACTOR -0.2501
-3.3934 FAR -0.2501
-3.3934 FIFTEEN -0.2487
-3.2173 FIFTY -0.2487
-3.2173 FIGURE -0.2387
-3.2173 FIVE -0.2487
-2.1893 FOR -0.2378
-3.3934 FORTY -0.2487
-3.6944 FORWARD -0.2501
-3.6944 FOUR -0.2501
-3.6944 FOURTEEN -0.2501
-3.6944 FROM -0.2501
-3.0924 FUEL -0.2497
-2.4157 FULL -0.2430
-2.9955 GATE -0.2501
-3.6944 HALF -0.2501
-3.0924 HAVE -0.2497
-2.9955 HEAD -0.2982
-3.2173 HOLE -0.2501
-3.2173 HOW -0.2498
-3.6944 HUH -0.2501
-3.6944 HULL -0.2501
-2.9163 HUNDRED -0.2487
-2.6530 IMPULSE -0.2485
-2.7402 IN -0.2474
-2.9163 INCREASE -0.2321
-3.6944 INSIDE -0.2501
-3.2173 IS -0.2387
-3.6944 IT -0.2501
-3.2173 LAUNCH -0.2387
-2.7402 LAY -0.2492
-3.3934 LEAVE -0.3002
-3.0924 LEFT -0.2501
-3.6944 LEVEL -0.2501
-2.9955 LIFE -0.3006
-2.4903 LIGHTS -0.2469
-3.0924 LONG -0.2494
-3.6944 LOUDER -0.2501
-3.0924 LOWER -0.2376
-3.6944 MAGNETS -0.2501
-3.2173 MAIN -0.2498
-2.9163 MANEUVERING -0.2437
-3.6944 MANUEVERING -0.2501
-2.9955 MAX -0.2437
-2.7913 MAXIMUM -0.2437
-3.6944 ME -0.3009
-3.6944 MINIMUM -0.2501
-2.9955 MINING -0.2495
-3.6944 MUCH -0.3007
-3.3934 NAVIGATE -0.2425
-3.2173 NAVIGATION -0.2471
-2.6530 NEARBY -0.2434
-2.0816 NEAREST -0.2404
-2.5805 NEBULA -0.2501
-3.6944 NINE -0.2501
-3.6944 NINETEEN -0.2501
-2.9955 NINETY -0.2487
-3.3934 OF -0.2499
-2.6530 OFF -0.2359
-2.5183 ON -0.2344
-2.7913 ONE -0.2492
-3.6944 ONTO -0.2501
-3.6944 OR -0.2501
-2.9955 ORBIT -0.2501
-2.9163 OUT -0.2367
-3.6944 OUTSIDE -0.2501
-3.6944 PATH -0.2501
-2.5483 PERCENT -0.2501
-3.2173 PHASER -0.2437
-3.2173 PHASERS -0.2501
-2.8493 PITCH -0.2480
-2.4392 PLANET -0.2501
-2.7402 PLOT -0.2474
-3.6944 POLARITY -0.2501
-3.6944 PORT -0.2501
-2.0610 POWER -0.2425
-3.6944 QUARTER -0.2501
-3.6944 QUARTERS -0.2501
-3.6944 QUICKLY -0.2501
-3.6944 QUIETER -0.2501
-3.6944 RADIATION -0.2501
-3.0924 RAISE -0.2376
-3.3934 RAMMING -0.3004
-2.8493 RANGE -0.2475
-3.6944 RAPIDLY -0.2501
-2.7913 RED -0.2493
-3.3934 REPEAT -0.2500
-3.2173 REPORT -0.2501
-3.0924 REVERSE -0.2383
-3.0924 RIGHT -0.2501
-3.2173 ROBOT -0.2501
-2.9163 ROLL -0.2477
-3.6944 ROTATE -0.2501
-3.6944 ROUTE -0.2501
-3.3934 SAY -0.2499
-2.3327 SCAN -0.2387
-3.2173 SCANNER -0.2501
-3.6944 SCANNERS -0.2501
-3.2173 SCIENCE -0.2471
-2.5183 SCREEN -0.2501
-2.3722 SELECT -0.2387
-2.6530 SELECTED -0.2953
-3.6944 SELECTION -0.2501
-3.6944 SELF -0.2501
-3.2173 SENSOR -0.2437
-3.2173 SENSORS -0.2501
-3.6944 SEQUENCE -0.2501
-2.1381 SET -0.2283
-3.6944 SEVEN -0.2501
-3.6944 SEVENTEEN -0.2501
-3.2173 SEVENTY -0.2487
-3.6944 SHIELD -0.2501
-2.6944 SHIELDS -0.2343
-2.5805 SHIP -0.2501
-3.0924 SHORT -0.2494
-2.9163 SHUT -0.2481
-3.6944 SHUTDOWN -0.2501
-3.6944 SIX -0.2501
-3.6944 SIXTEEN -0.2501
-3.2173 SIXTY -0.2487
-3.6944 SLOWLY -0.2501
-3.6944 SOLAR -0.2501
-3.6944 SPACE -0.2501
-3.2173 SPEED -0.2500
-3.0924 STANDARD -0.2496
-3.0924 STAR -0.2497
-3.6944 STARBOARD -0.2501
-3.6944 START -0.2501
-3.6944 STATION -0.2501
-3.3934 STATUS -0.2498
-3.2173 STOP -0.2493
-3.3934 SUFFICIENT -0.2497
-2.9955 SUPPORT -0.2437
-3.3934 SWALLOW -0.2501
-3.6944 SWIFTLY -0.2501
-2.9163 SYSTEM -0.2501
-2.8493 TARGET -0.2501
-3.6944 TELL -0.3009
-3.3934 TEN -0.2487
-3.6944 THAT -0.2501
-1.6375 THE -0.2283
-3.6944 THEM -0.2501
-3.6944 THEN -0.2501
-3.6944 THIRD -0.2501
-3.6944 THIRDS -0.2501
-3.6944 THIRTEEN -0.2501
-3.2173 THIRTY -0.2487
-3.6944 THOUSAND -0.2501
-3.3934 THREE -0.2500
-3.2173 THROTTLE -0.2425
-3.6944 THROUGH -0.2501
-3.6944 THROUGHOUT -0.2501
-3.6944 THRUSTER -0.2501
-3.3934 THRUSTERS -0.2501
-1.8136 TO -0.2260
-3.6944 TORPEDO -0.2501
-3.6944 TOWARD -0.2501
-3.3934 TOWARDS -0.2501
-2.7913 TRACTOR -0.2493
-2.2173 TURN -0.2426
-3.6944 TWELVE -0.2501
-3.0924 TWENTY -0.2484
-3.3934 TWO -0.2500
-3.6944 UNDER -0.2501
-3.3934 UNLADEN -0.3009
-3.6944 UNTIL -0.2501
-2.7913 UP -0.2387
-3.0924 VELOCITY -0.2499
-3.2173 VIEW -0.2471
-2.7402 VOLUME -0.2425
-2.5183 WARP -0.2478
-3.6944 WAVELENGTH -0.2501
-2.7913 WAYPOINT -0.2501
-3.2173 WE -0.3007
-3.6944 WEAPON -0.2997
-3.3934 WEAPONS -0.2486
-2.9163 WHAT -0.2497
-3.6944 WILL -0.2501
-3.6944 WITH -0.2501
-3.2173 WORM -0.3008
-3.6944 YAW -0.2501
-3.6944 YOU -0.3009
-3.0924 ZERO -0.2501
-2.8493 ZOOM -0.2474

\2-grams:
-3.0398 <s> ABOARD 0.0000
-3.0398 <s> ABOVE 0.0000
-3.0398 <s> ACROSS 0.0000
-3.0398 <s> ACTIVATE 0.0000
-2.5627 <s> ACTUATE 0.0000
-3.0398 <s> AFRICAN 0.0000
-3.0398 <s> AFTER 0.0000
-3.0398 <s> AIRSPEED 0.0000
-3.0398 <s> ALERT 0.0000
-3.0398 <s> ALL 0.0000
-3.0398 <s> ALONGSIDE 0.0000
-3.0398 <s> AN -0.1761
-3.0398 <s> AND 0.0000
-3.0398 <s> ANTI-CLOCKWISE 0.0000
-3.0398 <s> ANTICLOCKWISE 0.0000
-3.0398 <s> AROUND 0.0000
-3.0398 <s> ASTEROID 0.0000
-3.0398 <s> AT 0.0000
-3.0398 <s> ATOP 0.0000
-3.0398 <s> BASE 0.0000
-3.0398 <s> BE 0.0000
-3.0398 <s> BEAM -0.0969
-3.0398 <s> BEFORE 0.0000
-3.0398 <s> BEHIND 0.0000
-3.0398 <s> BELOW 0.0000
-3.0398 <s> BENEATH 0.0000
-3.0398 <s> BESIDE 0.0000
-3.0398 <s> BESIDES 0.0000
-3.0398 <s> BETWEEN 0.0000
-3.0398 <s> BOOST 0.0000
-3.0398 <s> BOT 0.0000
-3.0398 <s> BY 0.0000
-2.3408 <s> CALCULATE 0.0000
-3.0398 <s> CANCEL 0.0000
-3.0398 <s> CHARGE 0.0000
-3.0398 <s> CLOCKWISE 0.0000
-3.0398 <s> CLOSE 0.0000
-3.0398 <s> CLOSEST -0.2808
-3.0398 <s> CODE 0.0000
-3.0398 <s> COME 0.0000
-2.5627 <s> COMMS -0.1461
-2.5627 <s> COMMUNICATIONS -0.1461
-2.5627 <s> COMPUTE 0.0000
-3.0398 <s> COMPUTER 0.0000
-2.3408 <s> COOLANT 0.0000
-3.0398 <s> COOLING 0.0000
-3.0398 <s> CORE 0.0000
-3.0398 <s> COUNTER-CLOCKWISE 0.0000
-3.0398 <s> COUNTERCLOCKWISE 0.0000
-3.0398 <s> COURSE -0.2929
-2.0398 <s> CUT 0.0000
-2.7388 <s> DAMAGE 0.0000
-2.7388 <s> DEACTIVATE 0.0000
-2.7388 <s> DECREASE 0.0000
-3.0398 <s> DEENERGIZE 0.0000
-2.1367 <s> DEGREES 0.0000
-2.5627 <s> DEPLOY 0.0000
-3.0398 <s> DERELICT 0.0000
-3.0398 <s> DESCRIBE 0.0000
-3.0398 <s> DESTRUCT 0.0000
-3.0398 <s> DETAIL 0.0000
-3.0398 <s> DETAILS 0.0000
-3.0398 <s> DISABLE 0.0000
-2.7388 <s> DISENGAGE 0.0000
-3.0398 <s> DISTANCE -0.2553
-2.5627 <s> DO 0.0000
-3.0398 <s> DOCKING -0.2632
-3.0398 <s> DOWN -0.1597
-3.0398 <s> DRIVE -0.1383
-3.0398 <s> DURING 0.0000
-3.0398 <s> EIGHT 0.0000
-3.0398 <s> EIGHTEEN 0.0000
-2.7388 <s> EIGHTY 0.0000
-2.7388 <s> EJECT 0.0000
-3.0398 <s> ELEVEN 0.0000
-3.0398 <s> ENEMY 0.0000
-2.5627 <s> ENERGIZE 0.0000
-3.0398 <s> ENERGY 0.0000
-2.5627 <s> ENGAGE 0.0000
-2.5627 <s> ENGINEERING 0.0000
-3.0398 <s> ENOUGH -0.1761
-3.0398 <s> ENTER 0.0000
-3.0398 <s> EUROPEAN 0.0000
-3.0398 <s> EVERYTHING 0.0000
-3.0398 <s> EXCEPT 0.0000
-3.0398 <s> FACTOR 0.0000
-3.0398 <s> FAR 0.0000
-2.7388 <s> FIFTEEN 0.0000
-2.7388 <s> FIFTY 0.0000
-2.5627 <s> FIGURE 0.0000
-2.7388 <s> FIVE 0.0000
-3.0398 <s> FOR -0.2942
-2.7388 <s> FORTY 0.0000
-3.0398 <s> FOUR 0.0000
-3.0398 <s> FOURTEEN 0.0000
-3.0398 <s> FROM 0.0000
-3.0398 <s> FUEL -0.0969
-1.7611 <s> FULL 0.0000
-3.0398 <s> GATE 0.0000
-3.0398 <s> HAVE -0.1761
-2.3408 <s> HEAD 0.0000
-2.5627 <s> HOW 0.0000
-3.0398 <s> HUH 0.0000
-3.0398 <s> HULL 0.0000
-3.0398 <s> HUNDRED -0.0669
-3.0398 <s> IMPULSE -0.1891
-3.0398 <s> IN -0.2762
-2.2617 <s> INCREASE 0.0000
-3.0398 <s> INSIDE 0.0000
-3.0398 <s> IT 0.0000
-2.5627 <s> LAUNCH 0.0000
-2.0856 <s> LAY 0.0000
-2.7388 <s> LEAVE 0.0000
-3.0398 <s> LEFT 0.0000
-3.0398 <s> LEVEL 0.0000
-3.0398 <s> LIFE 0.0000
-2.5627 <s> LIGHTS -0.2583
-2.4378 <s> LONG 0.0000
-3.0398 <s> LOUDER 0.0000
-2.4378 <s> LOWER 0.0000
-3.0398 <s> MAGNETS 0.0000
-2.5627 <s> MAIN 0.0000
-3.0398 <s> MANEUVERING -0.1249
-3.0398 <s> MANUEVERING 0.0000
-2.3408 <s> MAX 0.0000
-2.1947 <s> MAXIMUM 0.0000
-3.0398 <s> MINING -0.2553
-2.7388 <s> NAVIGATE 0.0000
-2.5627 <s> NAVIGATION 0.0000
-3.0398 <s> NEARBY -0.2808
-3.0398 <s> NEAREST -0.2957
-3.0398 <s> NEBULA 0.0000
-3.0398 <s> NINE 0.0000
-3.0398 <s> NINETEEN 0.0000
-2.7388 <s> NINETY 0.0000
-3.0398 <s> OF -0.1761
-3.0398 <s> OFF -0.2374
-3.0398 <s> ON -0.2553
-2.3408 <s> ONE 0.0000
-3.0398 <s> ONTO 0.0000
-3.0398 <s> OR 0.0000
-3.0398 <s> ORBIT 0.0000
-3.0398 <s> OUT -0.1761
-3.0398 <s> OUTSIDE 0.0000
-3.0398 <s> PATH 0.0000
-3.0398 <s> PERCENT 0.0000
-3.0398 <s> PHASER -0.2218
-3.0398 <s> PHASERS 0.0000
-2.1947 <s> PITCH -0.0000
-3.0398 <s> PLANET 0.0000
-2.0856 <s> PLOT 0.0000
-3.0398 <s> PORT 0.0000
-2.1947 <s> POWER 0.0000
-3.0398 <s> QUICKLY 0.0000
-3.0398 <s> QUIETER 0.0000
-3.0398 <s> RADIATION 0.0000
-2.4378 <s> RAISE 0.0000
-2.7388 <s> RAMMING 0.0000
-3.0398 <s> RANGE -0.1963
-3.0398 <s> RAPIDLY 0.0000
-2.7388 <s> RED 0.0000
-2.7388 <s> REPEAT 0.0000
-3.0398 <s> REPORT 0.0000
-2.5627 <s> REVERSE -0.0969
-3.0398 <s> RIGHT 0.0000
-3.0398 <s> ROBOT 0.0000
-2.2617 <s> ROLL 0.0000
-3.0398 <s> ROTATE 0.0000
-3.0398 <s> ROUTE 0.0000
-3.0398 <s> SAY -0.1761
-1.7176 <s> SCAN 0.0000
-3.0398 <s> SCANNER 0.0000
-3.0398 <s> SCANNERS 0.0000
-2.5627 <s> SCIENCE 0.0000
-3.0398 <s> SCREEN 0.0000
-1.7176 <s> SELECT 0.0000
-2.3408 <s> SELECTED -0.0378
-3.0398 <s> SELF 0.0000
-3.0398 <s> SENSOR -0.2218
-3.0398 <s> SEQUENCE 0.0000
-1.4835 <s> SET 0.0000
-3.0398 <s> SEVEN 0.0000
-3.0398 <s> SEVENTEEN 0.0000
-2.7388 <s> SEVENTY 0.0000
-3.0398 <s> SHIELD 0.0000
-2.5627 <s> SHIELDS -0.1139
-3.0398 <s> SHIP 0.0000
-2.4378 <s> SHORT 0.0000
-2.2617 <s> SHUT 0.0000
-3.0398 <s> SHUTDOWN 0.0000
-3.0398 <s> SIX 0.0000
-3.0398 <s> SIXTEEN 0.0000
-2.7388 <s> SIXTY 0.0000
-3.0398 <s> SLOWLY 0.0000
-3.0398 <s> SOLAR 0.0000
-3.0398 <s> SPACE 0.0000
-2.7388 <s> STANDARD 0.0000
-3.0398 <s> STAR -0.2430
-3.0398 <s> STARBOARD 0.0000
-3.0398 <s> START 0.0000
-3.0398 <s> STATION 0.0000
-2.7388 <s> STATUS 0.0000
-2.7388 <s> STOP 0.0000
-3.0398 <s> SUFFICIENT -0.1761
-3.0398 <s> SWIFTLY 0.0000
-3.0398 <s> SYSTEM 0.0000
-3.0398 <s> TARGET 0.0000
-3.0398 <s> TELL 0.0000
-2.7388 <s> TEN 0.0000
-2.3408 <s> THE -0.2149
-3.0398 <s> THEM 0.0000
-3.0398 <s> THEN 0.0000
-3.0398 <s> THIRTEEN 0.0000
-2.7388 <s> THIRTY 0.0000
-3.0398 <s> THOUSAND 0.0000
-2.7388 <s> THREE 0.0000
-3.0398 <s> THROTTLE -0.1249
-3.0398 <s> THROUGH 0.0000
-3.0398 <s> THROUGHOUT 0.0000
-3.0398 <s> THRUSTER 0.0000
-3.0398 <s> THRUSTERS 0.0000
-3.0398 <s> TO -0.1836
-3.0398 <s> TORPEDO 0.0000
-3.0398 <s> TOWARD 0.0000
-3.0398 <s> TOWARDS 0.0000
-3.0398 <s> TRACTOR -0.2730
-1.5627 <s> TURN 0.0000
-3.0398 <s> TWELVE 0.0000
-2.5627 <s> TWENTY 0.0000
-2.7388 <s> TWO 0.0000
-3.0398 <s> UNDER 0.0000
-3.0398 <s> UNLADEN 0.0000
-3.0398 <s> UNTIL 0.0000
-3.0398 <s> UP -0.0969
-3.0398 <s> VIEW -0.2218
-3.0398 <s> WARP -0.2711
-3.0398 <s> WAVELENGTH 0.0000
-3.0398 <s> WAYPOINT 0.0000
-3.0398 <s> WEAPON 0.0000
-2.7388 <s> WEAPONS 0.0000
-2.2617 <s> WHAT 0.0000
-3.0398 <s> WILL 0.0000
-3.0398 <s> WITH 0.0000
-3.0398 <s> YAW 0.0000
-3.0398 <s> ZERO 0.0000
-2.1947 <s> ZOOM -0.0000
-0.3174 A COURSE -0.0158
-1.7324 A HUNDRED -0.0669
-0.3010 ABOARD </s> -0.3010
-0.3010 ABOUT </s> -0.3010
-0.3010 ABOVE </s> -0.3010
-0.3010 ACROSS </s> -0.3010
-0.3010 ACTIVATE WARP -0.1461
-0.7782 ACTUATE </s> -0.3010
-0.7782 ACTUATE DOCKING -0.0669
-0.7782 ACTUATE WARP -0.1461
-0.3010 AFRICAN </s> -0.3010
-0.3010 AFTER </s> -0.3010
-0.3010 AGAIN </s> -0.3010
-0.3010 AHEAD </s> -0.3010
-0.3010 AIRSPEED VELOCITY 0.0000
-0.3010 ALERT </s> -0.3010
-0.3010 ALL </s> -0.3010
-0.3010 ALONGSIDE </s> -0.3010
-0.6021 AN </s> -0.3010
-0.6021 AN UNLADEN 0.0000
-0.3010 AND </s> -0.3010
-0.3010 ANTI CLOCKWISE 0.0000
-0.3010 ANTI-CLOCKWISE </s> -0.3010
-0.3010 ANTICLOCKWISE </s> -0.3010
-0.3010 AROUND </s> -0.3010
-0.3010 ASTEROID </s> -0.3010
-0.3010 AT </s> -0.3010
-0.3010 ATOP </s> -0.3010
-0.3010 BACK </s> -0.3010
-0.3010 BACKWARD </s> -0.3010
-0.3010 BACKWARDS </s> -0.3010
-0.3010 BASE </s> -0.3010
-0.3010 BE </s> -0.3010
-0.4260 BEAM </s> -0.3010
-1.2041 BEAM COOLANT -0.0580
-1.2041 BEAM POWER -0.0386
-0.3010 BEFORE </s> -0.3010
-0.3010 BEHIND </s> -0.3010
-0.3010 BELOW </s> -0.3010
-0.3010 BENEATH </s> -0.3010
-0.3010 BESIDE </s> -0.3010
-0.3010 BESIDES </s> -0.3010
-0.3010 BETWEEN </s> -0.3010
-0.3010 BOOST </s> -0.3010
-0.3010 BOT </s> -0.3010
-0.3010 BY </s> -0.3010
-1.0000 CALCULATE </s> -0.3010
-0.3979 CALCULATE THE -0.2835
-0.3010 CANCEL RED -0.0512
-0.3010 CHARGE </s> -0.3010
-0.3010 CLOCKWISE </s> -0.3010
-0.3010 CLOSE </s> -0.3010
-1.3424 CLOSEST </s> -0.3010
-1.0414 CLOSEST ASTEROID 0.0000
-1.0414 CLOSEST DERELICT 0.0000
-1.0414 CLOSEST NEBULA 0.0000
-1.0414 CLOSEST PLANET 0.0000
-1.0414 CLOSEST SHIP 0.0000
-0.3010 CODE </s> -0.3010
-0.3010 COME AGAIN 0.0000
-1.0000 COMMS </s> -0.3010
-1.0000 COMMS COOLANT -0.0580
-1.0000 COMMS ON -0.1856
-1.0000 COMMS POWER -0.0386
-1.0000 COMMS SCREEN 0.0000
-1.0000 COMMUNICATIONS </s> -0.3010
-1.0000 COMMUNICATIONS COOLANT -0.0580
-1.0000 COMMUNICATIONS ON -0.1856
-1.0000 COMMUNICATIONS POWER -0.0386
-1.0000 COMMUNICATIONS SCREEN 0.0000
-0.7782 COMPUTE </s> -0.3010
-0.4771 COMPUTE THE -0.2835
-0.3010 COMPUTER </s> -0.3010
-1.1461 COOLANT </s> -0.3010
-0.3680 COOLANT TO -0.1320
-0.3010 COOLING </s> -0.3010
-0.3010 CORE </s> -0.3010
-0.3010 COUNTER CLOCKWISE 0.0000
-0.3010 COUNTER-CLOCKWISE </s> -0.3010
-0.3010 COUNTERCLOCKWISE </s> -0.3010
-1.7324 COURSE </s> -0.3010
-0.3174 COURSE FOR -0.0134
-1.3010 CUT </s> -0.3010
-0.3468 CUT POWER -0.0386
-0.6021 DAMAGE </s> -0.3010
-0.6021 DAMAGE REPORT 0.0000
-0.6021 DEACTIVATE </s> -0.3010
-0.6021 DEACTIVATE DOCKING -0.0669
-0.6021 DECREASE </s> -0.3010
-0.6021 DECREASE THE -0.2835
-0.3010 DEENERGIZE </s> -0.3010
-1.2041 DEGREES </s> -0.3010
-1.2041 DEGREES ANTI 0.0000
-1.2041 DEGREES CLOCKWISE 0.0000
-1.2041 DEGREES COUNTER 0.0000
-1.2041 DEGREES DOWN -0.1597
-1.2041 DEGREES LEFT 0.0000
-1.2041 DEGREES RIGHT 0.0000
-1.2041 DEGREES UP -0.0969
-0.7782 DEPLOY </s> -0.3010
-0.4771 DEPLOY THE -0.2933
-0.3010 DERELICT </s> -0.3010
-0.3010 DESCRIBE </s> -0.3010
-0.3010 DESTRUCT </s> -0.3010
-0.3010 DETAIL </s> -0.3010
-0.3010 DETAILS </s> -0.3010
-0.3010 DID YOU 0.0000
-0.3010 DISABLE </s> -0.3010
-0.6021 DISENGAGE </s> -0.3010
-0.6021 DISENGAGE DOCKING -0.0669
-1.0000 DISTANCE </s> -0.3010
-0.3979 DISTANCE TO -0.1606
-0.9031 DO </s> -0.3010
-0.4260 DO WE 0.0000
-1.0792 DOCKING </s> -0.3010
-0.3802 DOCKING SYSTEM 0.0000
-0.5563 DOWN </s> -0.3010
-1.2553 DOWN RED -0.0512
-0.7782 DOWN THE -0.2694
-0.5051 DRIVE </s> -0.3010
-1.2041 DRIVE COOLANT -0.0580
-1.2041 DRIVE POWER -0.0386
-1.2041 DRIVE TO -0.1836
-0.3010 DURING </s> -0.3010
-0.3010 EIGHT </s> -0.3010
-0.3010 EIGHTEEN </s> -0.3010
-0.4771 EIGHTY </s> -0.3010
-0.7782 EIGHTY PERCENT 0.0000
-0.6021 EJECT </s> -0.3010
-0.6021 EJECT THE -0.2991
-0.3010 ELEVEN </s> -0.3010
-0.3010 ENEMY </s> -0.3010
-0.7782 ENERGIZE </s> -0.3010
-0.7782 ENERGIZE DOCKING -0.0669
-0.7782 ENERGIZE WARP -0.1461
-0.3010 ENERGY </s> -0.3010
-0.7782 ENGAGE </s> -0.3010
-0.7782 ENGAGE DOCKING -0.0669
-0.7782 ENGAGE WARP -0.1461
-0.7782 ENGINEERING </s> -0.3010
-0.7782 ENGINEERING ON -0.1856
-0.7782 ENGINEERING SCREEN 0.0000
-0.3010 ENGINES </s> -0.3010
-0.6021 ENOUGH </s> -0.3010
-0.6021 ENOUGH FUEL -0.0969
-0.3010 ENTER STANDARD -0.0969
-0.3010 EUROPEAN </s> -0.3010
-0.3010 EVERYTHING </s> -0.3010
-0.3010 EXCEPT </s> -0.3010
-0.3010 EXTERIOR LIGHTS -0.0746
-0.3010 FACTOR </s> -0.3010
-0.3010 FAR </s> -0.3010
-0.6021 FIFTEEN </s> -0.3010
-0.6021 FIFTEEN PERCENT 0.0000
-0.4771 FIFTY </s> -0.3010
-0.7782 FIFTY PERCENT 0.0000
-0.7782 FIGURE </s> -0.3010
-0.4771 FIGURE THE -0.2835
-0.7782 FIVE </s> -0.3010
-0.4771 FIVE PERCENT 0.0000
-1.8062 FOR </s> -0.3010
-0.3590 FOR THE -0.1984
-1.3291 FOR WAYPOINT 0.0000
-0.6021 FORTY </s> -0.3010
-0.6021 FORTY PERCENT 0.0000
-0.3010 FORWARD </s> -0.3010
-0.3010 FOUR </s> -0.3010
-0.3010 FOURTEEN </s> -0.3010
-0.3010 FROM </s> -0.3010
-0.4260 FUEL </s> -0.3010
-0.9031 FUEL DO -0.0969
-1.5798 FULL </s> -0.3010
-1.2788 FULL IMPULSE 0.0000
-0.5798 FULL POWER 0.0000
-1.5798 FULL REVERSE -0.2430
-1.2788 FULL SPEED 0.0000
-1.5798 FULL STOP -0.1249
-1.5798 FULL THROTTLE -0.1249
-1.5798 FULL VELOCITY -0.0969
-0.3010 GATE </s> -0.3010
-0.3010 HALF </s> -0.3010
-0.6021 HAVE </s> -0.3010
-0.9031 HAVE ENOUGH -0.1761
-0.9031 HAVE SUFFICIENT -0.1761
-0.3010 HEAD FOR -0.0512
-0.3010 HOLE </s> -0.3010
-0.7782 HOW </s> -0.3010
-0.7782 HOW FAR 0.0000
-0.7782 HOW MUCH 0.0000
-0.3010 HUH </s> -0.3010
-0.3010 HULL </s> -0.3010
-0.3802 HUNDRED </s> -0.3010
-1.0792 HUNDRED PERCENT 0.0000
-0.6435 IMPULSE </s> -0.3010
-0.5643 IMPULSE DRIVE 0.0000
-1.2553 IN </s> -0.3010
-0.3522 IN A -0.0158
-1.0792 INCREASE </s> -0.3010
-0.7782 INCREASE COOLANT -0.0580
-0.7782 INCREASE POWER -0.0386
-1.0792 INCREASE THE -0.2835
-0.3010 INSIDE </s> -0.3010
-0.7782 IS </s> -0.3010
-0.4771 IS THE -0.2816
-0.3010 IT </s> -0.3010
-0.7782 LAUNCH </s> -0.3010
-0.4771 LAUNCH THE -0.2933
-1.2553 LAY </s> -0.3010
-0.3522 LAY IN -0.0458
-0.6021 LEAVE ORBIT 0.0000
-0.6021 LEAVE STANDARD -0.0969
-0.3010 LEFT </s> -0.3010
-0.3010 LEVEL </s> -0.3010
-0.3010 LIFE SUPPORT 0.0000
-0.3912 LIGHTS </s> -0.3010
-1.5051 LIGHTS OFF -0.2374
-1.5051 LIGHTS ON -0.2553
-1.5051 LIGHTS OUT -0.1761
-0.9031 LONG </s> -0.3010
-0.4260 LONG RANGE 0.0000
-0.3010 LOUDER </s> -0.3010
-0.9031 LOWER </s> -0.3010
-0.9031 LOWER SHIELDS -0.1761
-0.6021 LOWER THE -0.2835
-0.3010 MAGNETS </s> -0.3010
-0.7782 MAIN </s> -0.3010
-0.4771 MAIN VIEW -0.1249
-0.4771 MANEUVERING </s> -0.3010
-1.0792 MANEUVERING COOLANT -0.0580
-1.0792 MANEUVERING POWER -0.0386
-0.3010 MANUEVERING </s> -0.3010
-1.0000 MAX </s> -0.3010
-0.6990 MAX COOLANT 0.0000
-0.6990 MAX POWER 0.0000
-0.7270 MAXIMUM </s> -0.3010
-0.9031 MAXIMUM COOLANT 0.0000
-0.7270 MAXIMUM POWER 0.0000
-0.3010 ME ABOUT 0.0000
-0.3010 MINIMUM </s> -0.3010
-1.0000 MINING </s> -0.3010
-0.6990 MINING BOT 0.0000
-0.6990 MINING ROBOT 0.0000
-0.3010 MUCH FUEL -0.2430
-0.6021 NAVIGATE </s> -0.3010
-0.6021 NAVIGATE TO -0.2835
-0.7782 NAVIGATION </s> -0.3010
-0.7782 NAVIGATION ON -0.1856
-0.7782 NAVIGATION SCREEN 0.0000
-1.3424 NEARBY </s> -0.3010
-1.0414 NEARBY ASTEROID 0.0000
-1.0414 NEARBY DERELICT 0.0000
-1.0414 NEARBY NEBULA 0.0000
-1.0414 NEARBY PLANET 0.0000
-1.0414 NEARBY SHIP 0.0000
-1.9138 NEAREST </s> -0.3010
-1.1357 NEAREST ASTEROID 0.0000
-1.6128 NEAREST DERELICT 0.0000
-1.1357 NEAREST NEBULA 0.0000
-0.9596 NEAREST PLANET 0.0000
-1.2148 NEAREST SHIP 0.0000
-1.4367 NEAREST STAR -0.0969
-1.4367 NEAREST WARP -0.2553
-1.4367 NEAREST WAYPOINT 0.0000
-1.4367 NEAREST WORM 0.0000
-0.3010 NEBULA </s> -0.3010
-0.3010 NINE </s> -0.3010
-0.3010 NINETEEN </s> -0.3010
-0.3979 NINETY </s> -0.3010
-1.0000 NINETY PERCENT 0.0000
-0.6021 OF </s> -0.3010
-0.6021 OF AN -0.1761
-0.8653 OFF </s> -0.3010
-1.3424 OFF EXTERIOR 0.0000
-1.3424 OFF LIGHTS -0.0746
-1.0414 OFF RED -0.0512
-0.7404 OFF THE -0.2816
-1.0000 ON </s> -0.3010
-1.4771 ON EXTERIOR 0.0000
-1.4771 ON LIGHTS -0.0746
-1.4771 ON RED -0.0512
-0.6320 ON SCREEN 0.0000
-1.1761 ON THE -0.2816
-1.2041 ONE </s> -0.3010
-1.2041 ONE HALF 0.0000
-0.6021 ONE HUNDRED 0.0000
-1.2041 ONE QUARTER 0.0000
-1.2041 ONE THIRD 0.0000
-0.3010 ONTO </s> -0.3010
-0.3010 OR </s> -0.3010
-0.3010 ORBIT </s> -0.3010
-0.6021 OUT </s> -0.3010
-1.0792 OUT EXTERIOR 0.0000
-1.0792 OUT LIGHTS -0.0746
-1.0792 OUT THE -0.2875
-0.3010 OUTSIDE </s> -0.3010
-0.3010 PATH </s> -0.3010
-0.3010 PERCENT </s> -0.3010
-0.7782 PHASER </s> -0.3010
-0.7782 PHASER COOLANT -0.0580
-0.7782 PHASER POWER -0.0386
-0.3010 PHASERS </s> -0.3010
-1.1461 PITCH </s> -0.3010
-1.1461 PITCH BACK 0.0000
-1.1461 PITCH BACKWARD 0.0000
-1.1461 PITCH BACKWARDS 0.0000
-1.1461 PITCH DOWN -0.1597
-1.1461 PITCH FORWARD 0.0000
-1.1461 PITCH UP -0.0969
-0.3010 PLANET </s> -0.3010
-1.2553 PLOT </s> -0.3010
-0.3522 PLOT A -0.0158
-0.3010 POLARITY </s> -0.3010
-0.3010 PORT </s> -0.3010
-1.3324 POWER </s> -0.3010
-0.3434 POWER TO -0.0486
-0.3010 QUARTER </s> -0.3010
-0.3010 QUARTERS </s> -0.3010
-0.3010 QUICKLY </s> -0.3010
-0.3010 QUIETER </s> -0.3010
-0.3010 RADIATION </s> -0.3010
-0.9031 RAISE </s> -0.3010
-0.9031 RAISE SHIELDS -0.1761
-0.6021 RAISE THE -0.2835
-0.6021 RAMMING SPEED -0.1249
-0.6021 RAMMING VELOCITY -0.0969
-0.6690 RANGE </s> -0.3010
-0.8451 RANGE SCAN -0.2717
-0.8451 RANGE SCANNER 0.0000
-0.3010 RAPIDLY </s> -0.3010
-1.2041 RED </s> -0.3010
-0.3590 RED ALERT 0.0000
-0.6021 REPEAT </s> -0.3010
-0.6021 REPEAT THAT 0.0000
-0.3010 REPORT </s> -0.3010
-0.9031 REVERSE </s> -0.3010
-0.9031 REVERSE ENGINES 0.0000
-0.9031 REVERSE THE -0.2991
-0.9031 REVERSE THRUSTERS 0.0000
-0.3010 RIGHT </s> -0.3010
-0.3010 ROBOT </s> -0.3010
-1.0792 ROLL </s> -0.3010
-1.0792 ROLL ANTI 0.0000
-1.0792 ROLL CLOCKWISE 0.0000
-1.0792 ROLL COUNTER 0.0000
-1.0792 ROLL LEFT 0.0000
-1.0792 ROLL RIGHT 0.0000
-0.3010 ROTATE </s> -0.3010
-0.3010 ROUTE </s> -0.3010
-0.6021 SAY </s> -0.3010
-0.6021 SAY AGAIN 0.0000
-1.1856 SCAN </s> -0.3010
-0.3617 SCAN THE -0.1418
-0.3010 SCANNER </s> -0.3010
-0.3010 SCANNERS </s> -0.3010
-0.7782 SCIENCE </s> -0.3010
-0.7782 SCIENCE ON -0.1856
-0.7782 SCIENCE SCREEN 0.0000
-0.3010 SCREEN </s> -0.3010
-1.6232 SELECT </s> -0.3010
-0.3222 SELECT THE -0.1418
-1.3424 SELECTED ASTEROID 0.0000
-1.3424 SELECTED GATE 0.0000
-1.0414 SELECTED PLANET 0.0000
-1.3424 SELECTED SHIP 0.0000
-0.6435 SELECTED TARGET 0.0000
-1.3424 SELECTED WAYPOINT 0.0000
-0.3010 SELECTION </s> -0.3010
-0.3010 SELF </s> -0.3010
-0.7782 SENSOR </s> -0.3010
-0.7782 SENSOR COOLANT -0.0580
-0.7782 SENSOR POWER -0.0386
-0.3010 SENSORS </s> -0.3010
-0.3010 SEQUENCE </s> -0.3010
-1.8573 SET </s> -0.3010
-0.8573 SET A -0.0158
-1.5563 SET COMMS -0.2041
-1.5563 SET COMMUNICATIONS -0.2041
-1.3802 SET IMPULSE -0.1627
-1.5563 SET LIFE 0.0000
-1.5563 SET MANEUVERING -0.2218
-1.5563 SET PHASER -0.1249
-1.5563 SET SENSOR -0.1249
-1.3802 SET SHIELDS -0.2304
-1.8573 SET THE -0.2835
-1.8573 SET THROTTLE -0.2218
-1.5563 SET TRACTOR -0.0512
-1.3802 SET WARP -0.1461
-0.3010 SEVEN </s> -0.3010
-0.3010 SEVENTEEN </s> -0.3010
-0.4771 SEVENTY </s> -0.3010
-0.7782 SEVENTY PERCENT 0.0000
-0.3010 SHIELD </s> -0.3010
-0.6021 SHIELDS </s> -0.3010
-1.3010 SHIELDS COOLANT -0.0580
-1.3010 SHIELDS DOWN -0.1597
-1.3010 SHIELDS POWER -0.0386
-1.3010 SHIELDS TO -0.1836
-1.3010 SHIELDS UP -0.0969
-0.3010 SHIP </s> -0.3010
-0.9031 SHORT </s> -0.3010
-0.4260 SHORT RANGE 0.0000
-1.0792 SHUT </s> -0.3010
-0.7782 SHUT DOWN -0.1919
-0.6021 SHUT OFF -0.1627
-0.3010 SHUTDOWN </s> -0.3010
-0.3010 SIX </s> -0.3010
-0.3010 SIXTEEN </s> -0.3010
-0.4771 SIXTY </s> -0.3010
-0.7782 SIXTY PERCENT 0.0000
-0.3010 SLOWLY </s> -0.3010
-0.3010 SOLAR </s> -0.3010
-0.3010 SPACE </s> -0.3010
-0.4771 SPEED </s> -0.3010
-0.7782 SPEED AHEAD 0.0000
-0.9031 STANDARD </s> -0.3010
-0.4260 STANDARD ORBIT 0.0000
-0.9031 STAR </s> -0.3010
-0.4260 STAR BASE 0.0000
-0.3010 STARBOARD </s> -0.3010
-0.3010 START </s> -0.3010
-0.3010 STATION </s> -0.3010
-0.6021 STATUS </s> -0.3010
-0.6021 STATUS REPORT 0.0000
-0.4771 STOP </s> -0.3010
-0.7782 STOP RED -0.0512
-0.6021 SUFFICIENT </s> -0.3010
-0.6021 SUFFICIENT FUEL -0.0969
-0.5229 SUPPORT </s> -0.3010
-1.0000 SUPPORT COOLANT -0.0580
-1.0000 SUPPORT POWER -0.0386
-0.3010 SWALLOW </s> -0.3010
-0.3010 SWIFTLY </s> -0.3010
-0.3010 SYSTEM </s> -0.3010
-0.3010 TARGET </s> -0.3010
-0.3010 TELL ME 0.0000
-0.6021 TEN </s> -0.3010
-0.6021 TEN PERCENT 0.0000
-0.3010 THAT </s> -0.3010
-2.3579 THE </s> -0.3010
-2.3579 THE AIRSPEED 0.0000
-2.0569 THE ASTEROID 0.0000
-1.3579 THE CLOSEST -0.0378
-2.0569 THE DERELICT 0.0000
-1.4037 THE DISTANCE 0.0000
-1.5128 THE LIGHTS -0.0746
-1.7559 THE MINING -0.0792
-1.3579 THE NEARBY -0.0378
-0.7559 THE NEAREST -0.0105
-2.0569 THE NEBULA 0.0000
-2.0569 THE PLANET 0.0000
-2.3579 THE POLARITY 0.0000
-1.5798 THE SELECTED -0.1047
-2.3579 THE SELECTION 0.0000
-2.0569 THE SHIP 0.0000
-2.3579 THE TARGET 0.0000
-1.8808 THE TRACTOR -0.0512
-1.4037 THE VOLUME 0.0000
-2.3579 THE WARP -0.2863
-0.3010 THEM </s> -0.3010
-0.3010 THEN </s> -0.3010
-0.3010 THIRD </s> -0.3010
-0.3010 THIRDS </s> -0.3010
-0.3010 THIRTEEN </s> -0.3010
-0.4771 THIRTY </s> -0.3010
-0.7782 THIRTY PERCENT 0.0000
-0.3010 THOUSAND </s> -0.3010
-0.6021 THREE </s> -0.3010
-0.6021 THREE QUARTERS 0.0000
-0.4771 THROTTLE </s> -0.3010
-0.7782 THROTTLE TO -0.1836
-0.3010 THROUGH </s> -0.3010
-0.3010 THROUGHOUT </s> -0.3010
-0.3010 THRUSTER </s> -0.3010
-0.3010 THRUSTERS </s> -0.3010
-0.6255 TO </s> -0.3010
-2.1818 TO A -0.2929
-2.1818 TO EIGHTY -0.1249
-1.4829 TO IMPULSE 0.0000
-1.8808 TO LIFE 0.0000
-1.7047 TO MANEUVERING -0.1249
-2.1818 TO MAXIMUM -0.2109
-2.1818 TO MINIMUM 0.0000
-1.8808 TO NINETY -0.0792
-1.8808 TO ONE -0.1761
-1.8808 TO PHASERS 0.0000
-1.7047 TO SENSORS 0.0000
-2.1818 TO SEVENTY -0.1249
-1.8808 TO SHIELDS -0.1761
-2.1818 TO SIXTY -0.1249
-1.4037 TO THE -0.2032
-1.8808 TO TRACTOR -0.0512
-1.7047 TO WARP -0.1027
-1.8808 TO ZERO 0.0000
-0.3010 TORPEDO </s> -0.3010
-0.3010 TOWARD </s> -0.3010
-0.3010 TOWARDS </s> -0.3010
-1.2041 TRACTOR </s> -0.3010
-0.3590 TRACTOR BEAM 0.0000
-1.7782 TURN </s> -0.3010
-1.7782 TURN ANTI 0.0000
-1.7782 TURN CLOCKWISE 0.0000
-1.7782 TURN COUNTER 0.0000
-1.3010 TURN DOWN -0.0458
-1.7782 TURN LEFT 0.0000
-1.0000 TURN OFF 0.0000
-1.0000 TURN ON -0.1663
-1.1761 TURN OUT 0.0000
-1.7782 TURN RIGHT 0.0000
-1.7782 TURN TOWARDS 0.0000
-1.1761 TURN UP 0.0000
-0.3010 TWELVE </s> -0.3010
-0.6021 TWENTY </s> -0.3010
-0.9031 TWENTY FIVE -0.1249
-0.9031 TWENTY PERCENT 0.0000
-0.6021 TWO </s> -0.3010
-0.6021 TWO THIRDS 0.0000
-0.3010 UNDER </s> -0.3010
-0.3010 UNLADEN SWALLOW 0.0000
-0.3010 UNTIL </s> -0.3010
-0.4260 UP </s> -0.3010
-0.9031 UP THE -0.2694
-0.4260 VELOCITY </s> -0.3010
-0.9031 VELOCITY OF -0.1761
-0.7782 VIEW </s> -0.3010
-0.7782 VIEW ON -0.1856
-0.7782 VIEW SCREEN 0.0000
-0.6532 VOLUME </s> -0.3010
-0.5563 VOLUME TO -0.1761
-1.1761 WARP </s> -0.3010
-1.4771 WARP CORE 0.0000
-0.5229 WARP DRIVE 0.0000
-1.0000 WARP GATE 0.0000
-0.3010 WAVELENGTH </s> -0.3010
-0.3010 WAYPOINT </s> -0.3010
-0.3010 WE HAVE 0.0000
-0.3010 WEAPON SCREEN 0.0000
-0.6021 WEAPONS </s> -0.3010
-0.6021 WEAPONS ON -0.1856
-0.7782 WHAT </s> -0.3010
-1.0792 WHAT DID 0.0000
-0.6021 WHAT IS 0.0000
-0.3010 WILL </s> -0.3010
-0.3010 WITH </s> -0.3010
-0.3010 WORM HOLE 0.0000
-0.3010 YAW </s> -0.3010
-0.3010 YOU SAY -0.1761
-0.3010 ZERO </s> -0.3010
-1.1461 ZOOM </s> -0.3010
-1.1461 ZOOM FIFTY -0.1249
-1.1461 ZOOM NINETY -0.0792
-1.1461 ZOOM ONE -0.1761
-1.1461 ZOOM THIRTY -0.1249
-1.1461 ZOOM TWENTY -0.1761
-1.1461 ZOOM ZERO 0.0000

\3-grams:
-0.3010 <s> ABOARD </s>
-0.3010 <s> ABOVE </s>
-0.3010 <s> ACROSS </s>
-0.3010 <s> ACTIVATE WARP
-0.7782 <s> ACTUATE </s>
-0.7782 <s> ACTUATE DOCKING
-0.7782 <s> ACTUATE WARP
-0.3010 <s> AFRICAN </s>
-0.3010 <s> AFTER </s>
-0.3010 <s> AIRSPEED VELOCITY
-0.3010 <s> ALERT </s>
-0.3010 <s> ALL </s>
-0.3010 <s> ALONGSIDE </s>
-0.3010 <s> AN </s>
-0.3010 <s> AND </s>
-0.3010 <s> ANTI-CLOCKWISE </s>
-0.3010 <s> ANTICLOCKWISE </s>
-0.3010 <s> AROUND </s>
-0.3010 <s> ASTEROID </s>
-0.3010 <s> AT </s>
-0.3010 <s> ATOP </s>
-0.3010 <s> BASE </s>
-0.3010 <s> BE </s>
-0.3010 <s> BEAM </s>
-0.3010 <s> BEFORE </s>
-0.3010 <s> BEHIND </s>
-0.3010 <s> BELOW </s>
-0.3010 <s> BENEATH </s>
-0.3010 <s> BESIDE </s>
-0.3010 <s> BESIDES </s>
-0.3010 <s> BETWEEN </s>
-0.3010 <s> BOOST </s>
-0.3010 <s> BOT </s>
-0.3010 <s> BY </s>
-1.0000 <s> CALCULATE </s>
-0.3979 <s> CALCULATE THE
-0.3010 <s> CANCEL RED
-0.3010 <s> CHARGE </s>
-0.3010 <s> CLOCKWISE </s>
-0.3010 <s> CLOSE </s>
-0.3010 <s> CLOSEST </s>
-0.3010 <s> CODE </s>
-0.3010 <s> COME AGAIN
-0.7782 <s> COMMS </s>
-0.7782 <s> COMMS ON
-0.7782 <s> COMMS SCREEN
-0.7782 <s> COMMUNICATIONS </s>
-0.7782 <s> COMMUNICATIONS ON
-0.7782 <s> COMMUNICATIONS SCREEN
-0.7782 <s> COMPUTE </s>
-0.4771 <s> COMPUTE THE
-0.3010 <s> COMPUTER </s>
-1.0000 <s> COOLANT </s>
-0.3979 <s> COOLANT TO
-0.3010 <s> COOLING </s>
-0.3010 <s> CORE </s>
-0.3010 <s> COUNTER-CLOCKWISE </s>
-0.3010 <s> COUNTERCLOCKWISE </s>
-0.3010 <s> COURSE </s>
-1.3010 <s> CUT </s>
-0.3468 <s> CUT POWER
-0.6021 <s> DAMAGE </s>
-0.6021 <s> DAMAGE REPORT
-0.6021 <s> DEACTIVATE </s>
-0.6021 <s> DEACTIVATE DOCKING
-0.6021 <s> DECREASE </s>
-0.6021 <s> DECREASE THE
-0.3010 <s> DEENERGIZE </s>
-1.2041 <s> DEGREES </s>
-1.2041 <s> DEGREES ANTI
-1.2041 <s> DEGREES CLOCKWISE
-1.2041 <s> DEGREES COUNTER
-1.2041 <s> DEGREES DOWN
-1.2041 <s> DEGREES LEFT
-1.2041 <s> DEGREES RIGHT
-1.2041 <s> DEGREES UP
-0.7782 <s> DEPLOY </s>
-0.4771 <s> DEPLOY THE
-0.3010 <s> DERELICT </s>
-0.3010 <s> DESCRIBE </s>
-0.3010 <s> DESTRUCT </s>
-0.3010 <s> DETAIL </s>
-0.3010 <s> DETAILS </s>
-0.3010 <s> DISABLE </s>
-0.6021 <s> DISENGAGE </s>
-0.6021 <s> DISENGAGE DOCKING
-0.3010 <s> DISTANCE </s>
-0.7782 <s> DO </s>
-0.4771 <s> DO WE
-0.3010 <s> DOCKING </s>
-0.3010 <s> DOWN </s>
-0.3010 <s> DRIVE </s>
-0.3010 <s> DURING </s>
-0.3010 <s> EIGHT </s>
-0.3010 <s> EIGHTEEN </s>
-0.6021 <s> EIGHTY </s>
-0.6021 <s> EIGHTY PERCENT
-0.6021 <s> EJECT </s>
-0.6021 <s> EJECT THE
-0.3010 <s> ELEVEN </s>
-0.3010 <s> ENEMY </s>
-0.7782 <s> ENERGIZE </s>
-0.7782 <s> ENERGIZE DOCKING
-0.7782 <s> ENERGIZE WARP
-0.3010 <s> ENERGY </s>
-0.7782 <s> ENGAGE </s>
-0.7782 <s> ENGAGE DOCKING
-0.7782 <s> ENGAGE WARP
-0.7782 <s> ENGINEERING </s>
-0.7782 <s> ENGINEERING ON
-0.7782 <s> ENGINEERING SCREEN
-0.3010 <s> ENOUGH </s>
-0.3010 <s> ENTER STANDARD
-0.3010 <s> EUROPEAN </s>
-0.3010 <s> EVERYTHING </s>
-0.3010 <s> EXCEPT </s>
-0.3010 <s> FACTOR </s>
-0.3010 <s> FAR </s>
-0.6021 <s> FIFTEEN </s>
-0.6021 <s> FIFTEEN PERCENT
-0.6021 <s> FIFTY </s>
-0.6021 <s> FIFTY PERCENT
-0.7782 <s> FIGURE </s>
-0.4771 <s> FIGURE THE
-0.6021 <s> FIVE </s>
-0.6021 <s> FIVE PERCENT
-0.3010 <s> FOR </s>
-0.6021 <s> FORTY </s>
-0.6021 <s> FORTY PERCENT
-0.3010 <s> FOUR </s>
-0.3010 <s> FOURTEEN </s>
-0.3010 <s> FROM </s>
-0.3010 <s> FUEL </s>
-1.5798 <s> FULL </s>
-1.2788 <s> FULL IMPULSE
-0.5798 <s> FULL POWER
-1.5798 <s> FULL REVERSE
-1.2788 <s> FULL SPEED
-1.5798 <s> FULL STOP
-1.5798 <s> FULL THROTTLE
-1.5798 <s> FULL VELOCITY
-0.3010 <s> GATE </s>
-0.3010 <s> HAVE </s>
-0.3010 <s> HEAD FOR
-0.7782 <s> HOW </s>
-0.7782 <s> HOW FAR
-0.7782 <s> HOW MUCH
-0.3010 <s> HUH </s>
-0.3010 <s> HULL </s>
-0.3010 <s> HUNDRED </s>
-0.3010 <s> IMPULSE </s>
-0.3010 <s> IN </s>
-1.0792 <s> INCREASE </s>
-0.7782 <s> INCREASE COOLANT
-0.7782 <s> INCREASE POWER
-1.0792 <s> INCREASE THE
-0.3010 <s> INSIDE </s>
-0.3010 <s> IT </s>
-0.7782 <s> LAUNCH </s>
-0.4771 <s> LAUNCH THE
-1.2553 <s> LAY </s>
-0.3522 <s> LAY IN
-0.6021 <s> LEAVE ORBIT
-0.6021 <s> LEAVE STANDARD
-0.3010 <s> LEFT </s>
-0.3010 <s> LEVEL </s>
-0.3010 <s> LIFE SUPPORT
-0.7782 <s> LIGHTS OFF
-0.7782 <s> LIGHTS ON
-0.7782 <s> LIGHTS OUT
-0.9031 <s> LONG </s>
-0.4260 <s> LONG RANGE
-0.3010 <s> LOUDER </s>
-0.9031 <s> LOWER </s>
-0.9031 <s> LOWER SHIELDS
-0.6021 <s> LOWER THE
-0.3010 <s> MAGNETS </s>
-0.7782 <s> MAIN </s>
-0.4771 <s> MAIN VIEW
-0.3010 <s> MANEUVERING </s>
-0.3010 <s> MANUEVERING </s>
-1.0000 <s> MAX </s>
-0.6990 <s> MAX COOLANT
-0.6990 <s> MAX POWER
-0.8451 <s> MAXIMUM </s>
-0.8451 <s> MAXIMUM COOLANT
-0.6690 <s> MAXIMUM POWER
-0.3010 <s> MINING </s>
-0.6021 <s> NAVIGATE </s>
-0.6021 <s> NAVIGATE TO
-0.7782 <s> NAVIGATION </s>
-0.7782 <s> NAVIGATION ON
-0.7782 <s> NAVIGATION SCREEN
-0.3010 <s> NEARBY </s>
-0.3010 <s> NEAREST </s>
-0.3010 <s> NEBULA </s>
-0.3010 <s> NINE </s>
-0.3010 <s> NINETEEN </s>
-0.6021 <s> NINETY </s>
-0.6021 <s> NINETY PERCENT
-0.3010 <s> OF </s>
-0.3010 <s> OFF </s>
-0.3010 <s> ON </s>
-1.0000 <s> ONE </s>
-1.0000 <s> ONE HALF
-1.0000 <s> ONE HUNDRED
-1.0000 <s> ONE QUARTER
-1.0000 <s> ONE THIRD
-0.3010 <s> ONTO </s>
-0.3010 <s> OR </s>
-0.3010 <s> ORBIT </s>
-0.3010 <s> OUT </s>
-0.3010 <s> OUTSIDE </s>
-0.3010 <s> PATH </s>
-0.3010 <s> PERCENT </s>
-0.3010 <s> PHASER </s>
-0.3010 <s> PHASERS </s>
-1.1461 <s> PITCH </s>
-1.1461 <s> PITCH BACK
-1.1461 <s> PITCH BACKWARD
-1.1461 <s> PITCH BACKWARDS
-1.1461 <s> PITCH DOWN
-1.1461 <s> PITCH FORWARD
-1.1461 <s> PITCH UP
-0.3010 <s> PLANET </s>
-1.2553 <s> PLOT </s>
-0.3522 <s> PLOT A
-0.3010 <s> PORT </s>
-1.1461 <s> POWER </s>
-0.3680 <s> POWER TO
-0.3010 <s> QUICKLY </s>
-0.3010 <s> QUIETER </s>
-0.3010 <s> RADIATION </s>
-0.9031 <s> RAISE </s>
-0.9031 <s> RAISE SHIELDS
-0.6021 <s> RAISE THE
-0.6021 <s> RAMMING SPEED
-0.6021 <s> RAMMING VELOCITY
-0.3010 <s> RANGE </s>
-0.3010 <s> RAPIDLY </s>
-0.6021 <s> RED </s>
-0.6021 <s> RED ALERT
-0.6021 <s> REPEAT </s>
-0.6021 <s> REPEAT THAT
-0.3010 <s> REPORT </s>
-0.7782 <s> REVERSE ENGINES
-0.7782 <s> REVERSE THE
-0.7782 <s> REVERSE THRUSTERS
-0.3010 <s> RIGHT </s>
-0.3010 <s> ROBOT </s>
-1.0792 <s> ROLL </s>
-1.0792 <s> ROLL ANTI
-1.0792 <s> ROLL CLOCKWISE
-1.0792 <s> ROLL COUNTER
-1.0792 <s> ROLL LEFT
-1.0792 <s> ROLL RIGHT
-0.3010 <s> ROTATE </s>
-0.3010 <s> ROUTE </s>
-0.3010 <s> SAY AGAIN
-1.6232 <s> SCAN </s>
-0.3222 <s> SCAN THE
-0.3010 <s> SCANNER </s>
-0.3010 <s> SCANNERS </s>
-0.7782 <s> SCIENCE </s>
-0.7782 <s> SCIENCE ON
-0.7782 <s> SCIENCE SCREEN
-0.3010 <s> SCREEN </s>
-1.6232 <s> SELECT </s>
-0.3222 <s> SELECT THE
-1.0000 <s> SELECTED ASTEROID
-1.0000 <s> SELECTED GATE
-1.0000 <s> SELECTED PLANET
-1.0000 <s> SELECTED SHIP
-1.0000 <s> SELECTED TARGET
-0.3010 <s> SELF </s>
-0.3010 <s> SENSOR </s>
-0.3010 <s> SEQUENCE </s>
-1.8573 <s> SET </s>
-0.8573 <s> SET A
-1.5563 <s> SET COMMS
-1.5563 <s> SET COMMUNICATIONS
-1.3802 <s> SET IMPULSE
-1.5563 <s> SET LIFE
-1.5563 <s> SET MANEUVERING
-1.5563 <s> SET PHASER
-1.5563 <s> SET SENSOR
-1.3802 <s> SET SHIELDS
-1.8573 <s> SET THE
-1.8573 <s> SET THROTTLE
-1.5563 <s> SET TRACTOR
-1.3802 <s> SET WARP
-0.3010 <s> SEVEN </s>
-0.3010 <s> SEVENTEEN </s>
-0.6021 <s> SEVENTY </s>
-0.6021 <s> SEVENTY PERCENT
-0.3010 <s> SHIELD </s>
-0.7782 <s> SHIELDS </s>
-0.7782 <s> SHIELDS DOWN
-0.7782 <s> SHIELDS UP
-0.3010 <s> SHIP </s>
-0.9031 <s> SHORT </s>
-0.4260 <s> SHORT RANGE
-1.0792 <s> SHUT </s>
-0.7782 <s> SHUT DOWN
-0.6021 <s> SHUT OFF
-0.3010 <s> SHUTDOWN </s>
-0.3010 <s> SIX </s>
-0.3010 <s> SIXTEEN </s>
-0.6021 <s> SIXTY </s>
-0.6021 <s> SIXTY PERCENT
-0.3010 <s> SLOWLY </s>
-0.3010 <s> SOLAR </s>
-0.3010 <s> SPACE </s>
-0.6021 <s> STANDARD </s>
-0.6021 <s> STANDARD ORBIT
-0.3010 <s> STAR </s>
-0.3010 <s> STARBOARD </s>
-0.3010 <s> START </s>
-0.3010 <s> STATION </s>
-0.6021 <s> STATUS </s>
-0.6021 <s> STATUS REPORT
-0.6021 <s> STOP </s>
-0.6021 <s> STOP RED
-0.3010 <s> SUFFICIENT </s>
-0.3010 <s> SWIFTLY </s>
-0.3010 <s> SYSTEM </s>
-0.3010 <s> TARGET </s>
-0.3010 <s> TELL ME
-0.6021 <s> TEN </s>
-0.6021 <s> TEN PERCENT
-1.0000 <s> THE </s>
-0.3979 <s> THE NEAREST
-0.3010 <s> THEM </s>
-0.3010 <s> THEN </s>
-0.3010 <s> THIRTEEN </s>
-0.6021 <s> THIRTY </s>
-0.6021 <s> THIRTY PERCENT
-0.3010 <s> THOUSAND </s>
-0.6021 <s> THREE </s>
-0.6021 <s> THREE QUARTERS
-0.3010 <s> THROTTLE </s>
-0.3010 <s> THROUGH </s>
-0.3010 <s> THROUGHOUT </s>
-0.3010 <s> THRUSTER </s>
-0.3010 <s> THRUSTERS </s>
-0.3010 <s> TO </s>
-0.3010 <s> TORPEDO </s>
-0.3010 <s> TOWARD </s>
-0.3010 <s> TOWARDS </s>
-0.3010 <s> TRACTOR </s>
-1.7782 <s> TURN </s>
-1.7782 <s> TURN ANTI
-1.7782 <s> TURN CLOCKWISE
-1.7782 <s> TURN COUNTER
-1.3010 <s> TURN DOWN
-1.7782 <s> TURN LEFT
-1.0000 <s> TURN OFF
-1.0000 <s> TURN ON
-1.1761 <s> TURN OUT
-1.7782 <s> TURN RIGHT
-1.7782 <s> TURN TOWARDS
-1.1761 <s> TURN UP
-0.3010 <s> TWELVE </s>
-0.7782 <s> TWENTY </s>
-0.7782 <s> TWENTY FIVE
-0.7782 <s> TWENTY PERCENT
-0.6021 <s> TWO </s>
-0.6021 <s> TWO THIRDS
-0.3010 <s> UNDER </s>
-0.3010 <s> UNLADEN SWALLOW
-0.3010 <s> UNTIL </s>
-0.3010 <s> UP </s>
-0.3010 <s> VIEW </s>
-0.3010 <s> WARP </s>
-0.3010 <s> WAVELENGTH </s>
-0.3010 <s> WAYPOINT </s>
-0.3010 <s> WEAPON SCREEN
-0.6021 <s> WEAPONS </s>
-0.6021 <s> WEAPONS ON
-0.7782 <s> WHAT </s>
-1.0792 <s> WHAT DID
-0.6021 <s> WHAT IS
-0.3010 <s> WILL </s>
-0.3010 <s> WITH </s>
-0.3010 <s> YAW </s>
-0.3010 <s> ZERO </s>
-1.1461 <s> ZOOM </s>
-1.1461 <s> ZOOM FIFTY
-1.1461 <s> ZOOM NINETY
-1.1461 <s> ZOOM ONE
-1.1461 <s> ZOOM THIRTY
-1.1461 <s> ZOOM TWENTY
-1.1461 <s> ZOOM ZERO
-0.3010 A COURSE FOR
-0.3010 A HUNDRED </s>
-0.3010 ACTIVATE WARP DRIVE
-0.3010 ACTUATE DOCKING SYSTEM
-0.3010 ACTUATE WARP DRIVE
-0.6021 AIRSPEED VELOCITY </s>
-0.6021 AIRSPEED VELOCITY OF
-0.3010 AN UNLADEN SWALLOW
-0.3010 ANTI CLOCKWISE </s>
-0.3010 BEAM COOLANT TO
-0.3010 BEAM POWER TO
-0.3010 CALCULATE THE DISTANCE
-0.3010 CANCEL RED ALERT
-0.3010 CLOSEST ASTEROID </s>
-0.3010 CLOSEST DERELICT </s>
-0.3010 CLOSEST NEBULA </s>
-0.3010 CLOSEST PLANET </s>
-0.3010 CLOSEST SHIP </s>
-0.3010 COME AGAIN </s>
-0.3010 COMMS COOLANT TO
-0.3010 COMMS ON SCREEN
-0.3010 COMMS POWER TO
-0.3010 COMMS SCREEN </s>
-0.3010 COMMUNICATIONS COOLANT TO
-0.3010 COMMUNICATIONS ON SCREEN
-0.3010 COMMUNICATIONS POWER TO
-0.3010 COMMUNICATIONS SCREEN </s>
-0.3010 COMPUTE THE DISTANCE
-0.4771 COOLANT TO </s>
-1.5563 COOLANT TO A
-1.5563 COOLANT TO MANEUVERING
-1.5563 COOLANT TO NINETY
-1.5563 COOLANT TO ONE
-1.5563 COOLANT TO SENSORS
-1.5563 COOLANT TO ZERO
-0.3010 COUNTER CLOCKWISE </s>
-0.3543 COURSE FOR THE
-1.2389 COURSE FOR WAYPOINT
-0.3010 CUT POWER TO
-0.3010 DAMAGE REPORT </s>
-0.3010 DEACTIVATE DOCKING SYSTEM
-0.3010 DECREASE THE VOLUME
-0.3010 DEGREES ANTI CLOCKWISE
-0.3010 DEGREES CLOCKWISE </s>
-0.3010 DEGREES COUNTER CLOCKWISE
-0.3010 DEGREES DOWN </s>
-0.3010 DEGREES LEFT </s>
-0.3010 DEGREES RIGHT </s>
-0.3010 DEGREES UP </s>
-0.3010 DEPLOY THE MINING
-0.3010 DID YOU SAY
-0.3010 DISENGAGE DOCKING SYSTEM
-0.7270 DISTANCE TO </s>
-0.5051 DISTANCE TO THE
-0.3010 DO WE HAVE
-0.3010 DOCKING SYSTEM </s>
-0.3010 DOWN RED ALERT
-0.4771 DOWN THE LIGHTS
-0.7782 DOWN THE VOLUME
-0.3010 DRIVE COOLANT TO
-0.3010 DRIVE POWER TO
-0.3010 DRIVE TO </s>
-0.3010 EIGHTY PERCENT </s>
-0.3010 EJECT THE WARP
-0.3010 ENERGIZE DOCKING SYSTEM
-0.3010 ENERGIZE WARP DRIVE
-0.3010 ENGAGE DOCKING SYSTEM
-0.3010 ENGAGE WARP DRIVE
-0.3010 ENGINEERING ON SCREEN
-0.3010 ENGINEERING SCREEN </s>
-0.3010 ENOUGH FUEL </s>
-0.3010 ENTER STANDARD ORBIT
-0.3010 EXTERIOR LIGHTS </s>
-0.3010 FIFTEEN PERCENT </s>
-0.3010 FIFTY PERCENT </s>
-0.3010 FIGURE THE DISTANCE
-0.3010 FIVE PERCENT </s>
-0.3865 FOR THE NEAREST
-1.2711 FOR THE SELECTED
-1.7482 FOR THE SELECTION
-1.7482 FOR THE TARGET
-0.3010 FOR WAYPOINT </s>
-0.3010 FORTY PERCENT </s>
-0.3010 FUEL DO WE
-0.6021 FULL IMPULSE </s>
-0.6021 FULL IMPULSE DRIVE
-1.3010 FULL POWER </s>
-0.3468 FULL POWER TO
-0.3010 FULL REVERSE </s>
-0.6021 FULL SPEED </s>
-0.6021 FULL SPEED AHEAD
-0.3010 FULL STOP </s>
-0.3010 FULL THROTTLE </s>
-0.3010 FULL VELOCITY </s>
-0.3010 HAVE ENOUGH FUEL
-0.3010 HAVE SUFFICIENT FUEL
-0.3010 HEAD FOR THE
-0.3010 HOW FAR </s>
-0.3010 HOW MUCH FUEL
-0.3010 HUNDRED PERCENT </s>
-0.6021 IMPULSE DRIVE </s>
-1.0792 IMPULSE DRIVE COOLANT
-1.0792 IMPULSE DRIVE POWER
-1.0792 IMPULSE DRIVE TO
-0.3010 IN A COURSE
-0.3010 INCREASE COOLANT TO
-0.3010 INCREASE POWER TO
-0.3010 INCREASE THE VOLUME
-0.6021 IS THE AIRSPEED
-0.6021 IS THE DISTANCE
-0.3010 LAUNCH THE MINING
-0.3010 LAY IN A
-0.3010 LEAVE ORBIT </s>
-0.3010 LEAVE STANDARD ORBIT
-0.5229 LIFE SUPPORT </s>
-1.0000 LIFE SUPPORT COOLANT
-1.0000 LIFE SUPPORT POWER
-0.3010 LIGHTS OFF </s>
-0.3010 LIGHTS ON </s>
-0.3010 LIGHTS OUT </s>
-0.7782 LONG RANGE </s>
-0.7782 LONG RANGE SCAN
-0.7782 LONG RANGE SCANNER
-0.3010 LOWER SHIELDS </s>
-0.3010 LOWER THE VOLUME
-0.6021 MAIN VIEW ON
-0.6021 MAIN VIEW SCREEN
-0.3010 MANEUVERING COOLANT TO
-0.3010 MANEUVERING POWER TO
-0.6021 MAX COOLANT </s>
-0.6021 MAX COOLANT TO
-0.6021 MAX POWER </s>
-0.6021 MAX POWER TO
-0.6021 MAXIMUM COOLANT </s>
-0.6021 MAXIMUM COOLANT TO
-0.7782 MAXIMUM POWER </s>
-0.4771 MAXIMUM POWER TO
-0.3010 ME ABOUT </s>
-0.3010 MINING BOT </s>
-0.3010 MINING ROBOT </s>
-0.3010 MUCH FUEL DO
-0.3010 NAVIGATE TO THE
-0.3010 NAVIGATION ON SCREEN
-0.3010 NAVIGATION SCREEN </s>
-0.3010 NEARBY ASTEROID </s>
-0.3010 NEARBY DERELICT </s>
-0.3010 NEARBY NEBULA </s>
-0.3010 NEARBY PLANET </s>
-0.3010 NEARBY SHIP </s>
-0.3010 NEAREST ASTEROID </s>
-0.3010 NEAREST DERELICT </s>
-0.3010 NEAREST NEBULA </s>
-0.3010 NEAREST PLANET </s>
-0.3010 NEAREST SHIP </s>
-0.3010 NEAREST STAR BASE
-0.3010 NEAREST WARP GATE
-0.3010 NEAREST WAYPOINT </s>
-0.3010 NEAREST WORM HOLE
-0.3010 NINETY PERCENT </s>
-0.3010 OF AN UNLADEN
-0.3010 OFF EXTERIOR LIGHTS
-0.3010 OFF LIGHTS </s>
-0.3010 OFF RED ALERT
-0.6021 OFF THE LIGHTS
-0.6021 OFF THE TRACTOR
-0.3010 ON EXTERIOR LIGHTS
-0.3010 ON LIGHTS </s>
-0.3010 ON RED ALERT
-0.3010 ON SCREEN </s>
-0.6021 ON THE LIGHTS
-0.6021 ON THE TRACTOR
-0.3010 ONE HALF </s>
-0.4260 ONE HUNDRED </s>
-0.9031 ONE HUNDRED PERCENT
-0.3010 ONE QUARTER </s>
-0.3010 ONE THIRD </s>
-0.3010 OUT EXTERIOR LIGHTS
-0.3010 OUT LIGHTS </s>
-0.3010 OUT THE LIGHTS
-0.3010 PHASER COOLANT TO
-0.3010 PHASER POWER TO
-0.3010 PITCH BACK </s>
-0.3010 PITCH BACKWARD </s>
-0.3010 PITCH BACKWARDS </s>
-0.3010 PITCH DOWN </s>
-0.3010 PITCH FORWARD </s>
-0.3010 PITCH UP </s>
-0.3010 PLOT A COURSE
-0.7782 POWER TO </s>
-1.8921 POWER TO EIGHTY
-1.1931 POWER TO IMPULSE
-1.5911 POWER TO LIFE
-1.5911 POWER TO MANEUVERING
-1.8921 POWER TO NINETY
-1.8921 POWER TO ONE
-1.5911 POWER TO PHASERS
-1.5911 POWER TO SENSORS
-1.8921 POWER TO SEVENTY
-1.5911 POWER TO SHIELDS
-1.8921 POWER TO SIXTY
-1.5911 POWER TO TRACTOR
-1.4150 POWER TO WARP
-1.8921 POWER TO ZERO
-0.3010 RAISE SHIELDS </s>
-0.3010 RAISE THE VOLUME
-0.3010 RAMMING SPEED </s>
-0.3010 RAMMING VELOCITY </s>
-0.3010 RANGE SCAN </s>
-0.3010 RANGE SCANNER </s>
-0.3010 RED ALERT </s>
-0.3010 REPEAT THAT </s>
-0.3010 REVERSE ENGINES </s>
-0.3010 REVERSE THE POLARITY
-0.3010 REVERSE THRUSTERS </s>
-0.3010 ROLL ANTI CLOCKWISE
-0.3010 ROLL CLOCKWISE </s>
-0.3010 ROLL COUNTER CLOCKWISE
-0.3010 ROLL LEFT </s>
-0.3010 ROLL RIGHT </s>
-0.3010 SAY AGAIN </s>
-1.6021 SCAN THE ASTEROID
-0.9031 SCAN THE CLOSEST
-1.6021 SCAN THE DERELICT
-0.9031 SCAN THE NEARBY
-0.9031 SCAN THE NEAREST
-1.6021 SCAN THE NEBULA
-1.6021 SCAN THE PLANET
-1.6021 SCAN THE SHIP
-0.3010 SCIENCE ON SCREEN
-0.3010 SCIENCE SCREEN </s>
-1.6021 SELECT THE ASTEROID
-0.9031 SELECT THE CLOSEST
-1.6021 SELECT THE DERELICT
-0.9031 SELECT THE NEARBY
-0.9031 SELECT THE NEAREST
-1.6021 SELECT THE NEBULA
-1.6021 SELECT THE PLANET
-1.6021 SELECT THE SHIP
-0.3010 SELECTED ASTEROID </s>
-0.3010 SELECTED GATE </s>
-0.3010 SELECTED PLANET </s>
-0.3010 SELECTED SHIP </s>
-0.3010 SELECTED TARGET </s>
-0.3010 SELECTED WAYPOINT </s>
-0.3010 SENSOR COOLANT TO
-0.3010 SENSOR POWER TO
-0.3010 SET A COURSE
-0.6021 SET COMMS COOLANT
-0.6021 SET COMMS POWER
-0.6021 SET COMMUNICATIONS COOLANT
-0.6021 SET COMMUNICATIONS POWER
-0.3010 SET IMPULSE DRIVE
-0.3010 SET LIFE SUPPORT
-0.6021 SET MANEUVERING COOLANT
-0.6021 SET MANEUVERING POWER
-0.6021 SET PHASER COOLANT
-0.6021 SET PHASER POWER
-0.6021 SET SENSOR COOLANT
-0.6021 SET SENSOR POWER
-0.7782 SET SHIELDS COOLANT
-0.7782 SET SHIELDS POWER
-0.7782 SET SHIELDS TO
-0.3010 SET THE VOLUME
-0.3010 SET THROTTLE TO
-0.3010 SET TRACTOR BEAM
-0.3010 SET WARP DRIVE
-0.3010 SEVENTY PERCENT </s>
-0.3010 SHIELDS COOLANT TO
-0.3010 SHIELDS DOWN </s>
-0.3010 SHIELDS POWER TO
-0.3010 SHIELDS TO </s>
-0.3010 SHIELDS UP </s>
-0.7782 SHORT RANGE </s>
-0.7782 SHORT RANGE SCAN
-0.7782 SHORT RANGE SCANNER
-0.6021 SHUT DOWN RED
-0.6021 SHUT DOWN THE
-0.7782 SHUT OFF RED
-0.4771 SHUT OFF THE
-0.3010 SIXTY PERCENT </s>
-0.3010 SPEED AHEAD </s>
-0.3010 STANDARD ORBIT </s>
-0.3010 STAR BASE </s>
-0.3010 STATUS REPORT </s>
-0.3010 STOP RED ALERT
-0.3010 SUFFICIENT FUEL </s>
-0.3010 SUPPORT COOLANT TO
-0.3010 SUPPORT POWER TO
-0.3010 TELL ME ABOUT
-0.3010 TEN PERCENT </s>
-0.3010 THE AIRSPEED VELOCITY
-0.3010 THE ASTEROID </s>
-1.0000 THE CLOSEST ASTEROID
-1.0000 THE CLOSEST DERELICT
-1.0000 THE CLOSEST NEBULA
-1.0000 THE CLOSEST PLANET
-1.0000 THE CLOSEST SHIP
-0.3010 THE DERELICT </s>
-1.2553 THE DISTANCE </s>
-0.3522 THE DISTANCE TO
-0.3010 THE LIGHTS </s>
-0.6021 THE MINING BOT
-0.6021 THE MINING ROBOT
-1.0000 THE NEARBY ASTEROID
-1.0000 THE NEARBY DERELICT
-1.0000 THE NEARBY NEBULA
-1.0000 THE NEARBY PLANET
-1.0000 THE NEARBY SHIP
-1.1249 THE NEAREST ASTEROID
-1.6021 THE NEAREST DERELICT
-1.1249 THE NEAREST NEBULA
-0.9488 THE NEAREST PLANET
-1.2041 THE NEAREST SHIP
-1.4260 THE NEAREST STAR
-1.4260 THE NEAREST WARP
-1.4260 THE NEAREST WAYPOINT
-1.4260 THE NEAREST WORM
-0.3010 THE NEBULA </s>
-0.3010 THE PLANET </s>
-0.3010 THE POLARITY </s>
-1.0792 THE SELECTED PLANET
-0.4771 THE SELECTED TARGET
-1.0792 THE SELECTED WAYPOINT
-0.3010 THE SELECTION </s>
-0.3010 THE SHIP </s>
-0.3010 THE TARGET </s>
-0.3010 THE TRACTOR BEAM
-0.6532 THE VOLUME </s>
-0.5563 THE VOLUME TO
-0.3010 THE WARP CORE
-0.3010 THIRTY PERCENT </s>
-0.3010 THREE QUARTERS </s>
-0.3010 THROTTLE TO </s>
-0.3010 TO A HUNDRED
-0.3010 TO EIGHTY </s>
-0.5229 TO IMPULSE </s>
-0.6990 TO IMPULSE DRIVE
-0.3010 TO LIFE SUPPORT
-0.3010 TO MANEUVERING </s>
-0.3010 TO MAXIMUM </s>
-0.3010 TO MINIMUM </s>
-0.3010 TO NINETY </s>
-0.3010 TO ONE HUNDRED
-0.3010 TO PHASERS </s>
-0.3010 TO SENSORS </s>
-0.3010 TO SEVENTY </s>
-0.3010 TO SHIELDS </s>
-0.3010 TO SIXTY </s>
-0.6021 TO THE NEAREST
-0.6021 TO THE SELECTED
-0.3010 TO TRACTOR BEAM
-0.7782 TO WARP </s>
-0.4771 TO WARP DRIVE
-0.3010 TO ZERO </s>
-0.4472 TRACTOR BEAM </s>
-1.1461 TRACTOR BEAM COOLANT
-1.1461 TRACTOR BEAM POWER
-0.3010 TURN ANTI CLOCKWISE
-0.3010 TURN CLOCKWISE </s>
-0.3010 TURN COUNTER CLOCKWISE
-0.7782 TURN DOWN </s>
-0.4771 TURN DOWN THE
-0.3010 TURN LEFT </s>
-1.0792 TURN OFF </s>
-1.0792 TURN OFF EXTERIOR
-1.0792 TURN OFF LIGHTS
-1.0792 TURN OFF RED
-0.7782 TURN OFF THE
-1.0792 TURN ON </s>
-1.0792 TURN ON EXTERIOR
-1.0792 TURN ON LIGHTS
-1.0792 TURN ON RED
-0.7782 TURN ON THE
-0.9031 TURN OUT </s>
-0.9031 TURN OUT EXTERIOR
-0.9031 TURN OUT LIGHTS
-0.9031 TURN OUT THE
-0.3010 TURN RIGHT </s>
-0.3010 TURN TOWARDS </s>
-0.6021 TURN UP </s>
-0.6021 TURN UP THE
-0.3010 TWENTY FIVE PERCENT
-0.3010 TWENTY PERCENT </s>
-0.3010 TWO THIRDS </s>
-0.3010 UNLADEN SWALLOW </s>
-0.6021 UP THE LIGHTS
-0.6021 UP THE VOLUME
-0.3010 VELOCITY OF AN
-0.3010 VIEW ON SCREEN
-0.3010 VIEW SCREEN </s>
-0.5229 VOLUME TO </s>
-1.0000 VOLUME TO MAXIMUM
-1.0000 VOLUME TO MINIMUM
-0.3010 WARP CORE </s>
-0.4771 WARP DRIVE </s>
-1.2553 WARP DRIVE COOLANT
-1.2553 WARP DRIVE POWER
-1.2553 WARP DRIVE TO
-0.3010 WARP GATE </s>
-0.7782 WE HAVE </s>
-0.7782 WE HAVE ENOUGH
-0.7782 WE HAVE SUFFICIENT
-0.3010 WEAPON SCREEN </s>
-0.3010 WEAPONS ON SCREEN
-0.3010 WHAT DID YOU
-0.7782 WHAT IS </s>
-0.4771 WHAT IS THE
-0.3010 WORM HOLE </s>
-0.3010 YOU SAY </s>
-0.3010 ZOOM FIFTY </s>
-0.3010 ZOOM NINETY </s>
-0.3010 ZOOM ONE HUNDRED
-0.3010 ZOOM THIRTY </s>
-0.3010 ZOOM TWENTY </s>
-0.3010 ZOOM ZERO </s>

\end\
