Language model created by QuickLM on Sun Apr 17 22:02:23 EDT 2016
Copyright (c) 1996-2010 Carnegie Mellon University and Alexander I. Rudnicky

The model is in standard ARPA format, designed by Doug Paul while he was at MITRE.

The code that was used to produce this language model is available in Open Source.
Please visit http://www.speech.cs.cmu.edu/tools/ for more information

The (fixed) discount mass is 0.5. The backoffs are computed using the ratio method.
This model based on a corpus of 456 sentences and 246 words

\data\
ngram 1=246
ngram 2=674
ngram 3=645

\1-grams:
-0.9365 </s> -0.3010
-0.9365 <s> -0.1731
-2.3167 A -0.2983
-3.5955 ABOARD -0.2476
-3.5955 ABOUT -0.2476
-3.5955 ABOVE -0.2476
-3.5955 ACROSS -0.2476
-3.5955 ACTIVATE -0.2994
-3.1184 ACTUATE -0.2450
-3.5955 AFTER -0.2476
-3.5955 AHEAD -0.2476
-2.9934 ALERT -0.2476
-3.5955 ALL -0.2476
-3.5955 ALONGSIDE -0.2476
-3.5955 AN -0.2476
-3.5955 AND -0.2476
-3.1184 ANTI -0.2999
-3.5955 ANTI-CLOCKWISE -0.2476
-3.5955 ANTICLOCKWISE -0.2476
-3.5955 AROUND -0.2476
-2.4816 ASTEROID -0.2476
-3.5955 AT -0.2476
-3.5955 ATOP -0.2476
-3.5955 BACK -0.2476
-3.5955 BACKWARD -0.2476
-3.5955 BACKWARDS -0.2476
-2.9934 BASE -0.2476
-2.8965 BEAM -0.2401
-3.5955 BEFORE -0.2476
-3.5955 BEHIND -0.2476
-3.5955 BELOW -0.2476
-3.5955 BENEATH -0.2476
-3.5955 BESIDE -0.2476
-3.5955 BESIDES -0.2476
-3.5955 BETWEEN -0.2476
-3.5955 BOOST -0.2476
-3.1184 BOT -0.2476
-3.5955 BY -0.2476
-3.1184 CALCULATE -0.2378
-3.5955 CANCEL -0.3006
-3.5955 CHARGE -0.2476
-2.5955 CLOCKWISE -0.2476
-3.5955 CLOSE -0.2476
-2.5541 CLOSEST -0.2399
-3.5955 CODE -0.2476
-2.8965 COMMS -0.2371
-2.8965 COMMUNICATIONS -0.2371
-3.1184 COMPUTE -0.2378
-3.5955 COMPUTER -0.2476
-2.2945 COOLANT -0.2396
-3.5955 COOLING -0.2476
-3.2945 CORE -0.2476
-3.1184 COUNTER -0.2999
-3.5955 COUNTER-CLOCKWISE -0.2476
-3.5955 COUNTERCLOCKWISE -0.2476
-2.3167 COURSE -0.2452
-2.6413 CUT -0.2426
-3.2945 DAMAGE -0.2472
-3.2945 DEACTIVATE -0.2469
-3.5955 DECREASE -0.2476
-3.5955 DEENERGIZE -0.2476
-2.6924 DEGREES -0.2434
-3.1184 DEPLOY -0.2378
-2.6413 DERELICT -0.2476
-3.5955 DESCRIBE -0.2476
-3.5955 DESTRUCT -0.2476
-3.5955 DETAIL -0.2476
-3.5955 DETAILS -0.2476
-3.5955 DISABLE -0.2476
-3.2945 DISENGAGE -0.2469
-2.7504 DISTANCE -0.2396
-2.8173 DOCKING -0.2469
-2.8965 DOWN -0.2476
-2.3914 DRIVE -0.2319
-3.5955 DURING -0.2476
-3.5955 EIGHT -0.2476
-3.5955 EIGHTEEN -0.2476
-3.1184 EIGHTY -0.2459
-3.2945 EJECT -0.2378
-3.5955 ELEVEN -0.2476
-3.5955 ENEMY -0.2476
-3.1184 ENERGIZE -0.2450
-3.5955 ENERGY -0.2476
-3.1184 ENGAGE -0.2450
-3.1184 ENGINEERING -0.2447
-3.5955 ENGINES -0.2476
-3.5955 ENTER -0.3006
-3.5955 EVERYTHING -0.2476
-3.5955 EXCEPT -0.2476
-3.5955 FACTOR -0.2476
-3.2945 FIFTEEN -0.2459
-3.1184 FIFTY -0.2459
-3.1184 FIGURE -0.2378
-3.1184 FIVE -0.2459
-2.3167 FOR -0.2378
-3.2945 FORTY -0.2459
-3.5955 FORWARD -0.2476
-3.5955 FOUR -0.2476
-3.5955 FOURTEEN -0.2476
-3.5955 FROM -0.2476
-3.5955 FUEL -0.2476
-2.3402 FULL -0.2393
-2.9934 GATE -0.2476
-3.5955 HALF -0.2476
-3.1184 HOLE -0.2476
-3.5955 HULL -0.2476
-2.8173 HUNDRED -0.2459
-2.5541 IMPULSE -0.2456
-2.7504 IN -0.2452
-2.8965 INCREASE -0.2401
-3.5955 INSIDE -0.2476
-3.5955 IT -0.2476
-3.1184 LAUNCH -0.2378
-2.7504 LAY -0.2467
-3.2945 LEAVE -0.3000
-2.9934 LEFT -0.2476
-3.5955 LEVEL -0.2476
-2.9934 LONG -0.2467
-3.2945 LOWER -0.2464
-3.5955 MAGNETS -0.2476
-3.1184 MAIN -0.2472
-2.8173 MANEUVERING -0.2401
-3.5955 MANUEVERING -0.2476
-2.8965 MAX -0.2401
-2.7504 MAXIMUM -0.2401
-3.5955 ME -0.3009
-2.8965 MINING -0.2469
-3.5955 NAVIGATE -0.2476
-3.1184 NAVIGATION -0.2447
-2.5541 NEARBY -0.2399
-2.0392 NEAREST -0.2371
-2.4816 NEBULA -0.2476
-3.5955 NINE -0.2476
-3.5955 NINETEEN -0.2476
-2.8965 NINETY -0.2459
-3.5955 OF -0.2476
-3.5955 OFF -0.2476
-2.6924 ON -0.2457
-2.6924 ONE -0.2465
-3.5955 ONTO -0.2476
-3.5955 OR -0.2476
-2.8965 ORBIT -0.2476
-3.5955 OUT -0.2476
-3.5955 OUTSIDE -0.2476
-3.5955 PATH -0.2476
-2.4494 PERCENT -0.2476
-3.1184 PHASER -0.2401
-3.1184 PHASERS -0.2476
-2.7504 PITCH -0.2459
-2.4194 PLANET -0.2476
-2.7504 PLOT -0.2452
-3.5955 POLARITY -0.2476
-3.5955 PORT -0.2476
-1.9934 POWER -0.2396
-3.5955 QUARTER -0.2476
-3.5955 QUARTERS -0.2476
-3.5955 QUICKLY -0.2476
-3.5955 RADIATION -0.2476
-3.2945 RAISE -0.2464
-3.2945 RAMMING -0.3005
-2.7504 RANGE -0.2444
-3.5955 RAPIDLY -0.2476
-2.9934 RED -0.2471
-3.1184 REPORT -0.2476
-2.9934 REVERSE -0.2374
-2.9934 RIGHT -0.2476
-3.1184 ROBOT -0.2476
-2.8173 ROLL -0.2446
-3.5955 ROTATE -0.2476
-3.5955 ROUTE -0.2476
-2.2338 SCAN -0.2378
-3.1184 SCANNER -0.2476
-3.5955 SCANNERS -0.2476
-3.1184 SCIENCE -0.2447
-2.4194 SCREEN -0.2476
-2.2733 SELECT -0.2378
-3.5955 SELF -0.2476
-3.1184 SENSOR -0.2401
-3.1184 SENSORS -0.2476
-3.5955 SEQUENCE -0.2476
-2.1331 SET -0.2369
-3.5955 SEVEN -0.2476
-3.5955 SEVENTEEN -0.2476
-3.1184 SEVENTY -0.2459
-3.5955 SHIELD -0.2476
-2.5955 SHIELDS -0.2306
-2.5541 SHIP -0.2476
-2.9934 SHORT -0.2467
-3.5955 SHUT -0.2476
-3.5955 SHUTDOWN -0.2476
-3.5955 SIX -0.2476
-3.5955 SIXTEEN -0.2476
-3.1184 SIXTY -0.2459
-3.5955 SLOWLY -0.2476
-3.5955 SOLAR -0.2476
-3.5955 SPACE -0.2476
-3.1184 SPEED -0.2475
-2.9934 STANDARD -0.2470
-2.9934 STAR -0.2471
-3.5955 STARBOARD -0.2476
-3.5955 START -0.2476
-3.5955 STATION -0.2476
-3.2945 STATUS -0.2472
-3.1184 STOP -0.2471
-3.5955 SWIFTLY -0.2476
-2.8173 SYSTEM -0.2476
-3.5955 TARGET -0.2476
-3.5955 TELL -0.3009
-3.2945 TEN -0.2459
-1.7034 THE -0.2289
-3.5955 THEM -0.2476
-3.5955 THEN -0.2476
-3.5955 THIRD -0.2476
-3.5955 THIRDS -0.2476
-3.5955 THIRTEEN -0.2476
-3.1184 THIRTY -0.2459
-3.5955 THOUSAND -0.2476
-3.2945 THREE -0.2475
-3.1184 THROTTLE -0.2396
-3.5955 THROUGH -0.2476
-3.5955 THROUGHOUT -0.2476
-3.5955 THRUSTER -0.2476
-3.2945 THRUSTERS -0.2476
-1.7893 TO -0.2251
-3.5955 TORPEDO -0.2476
-3.5955 TOWARD -0.2476
-3.2945 TOWARDS -0.2476
-2.8965 TRACTOR -0.2470
-2.6413 TURN -0.2431
-3.5955 TWELVE -0.2476
-2.9934 TWENTY -0.2455
-3.2945 TWO -0.2475
-3.5955 UNDER -0.2476
-3.5955 UNTIL -0.2476
-2.8965 UP -0.2476
-3.2945 VELOCITY -0.2476
-3.1184 VIEW -0.2447
-2.4194 WARP -0.2449
-3.5955 WAVELENGTH -0.2476
-3.5955 WEAPON -0.2994
-3.2945 WEAPONS -0.2466
-3.5955 WITH -0.2476
-3.1184 WORM -0.3007
-3.5955 YAW -0.2476
-2.9934 ZERO -0.2476
-2.7504 ZOOM -0.2442

\2-grams:
-2.9600 <s> ABOARD 0.0000
-2.9600 <s> ABOVE 0.0000
-2.9600 <s> ACROSS 0.0000
-2.9600 <s> ACTIVATE 0.0000
-2.4829 <s> ACTUATE 0.0000
-2.9600 <s> AFTER 0.0000
-2.9600 <s> ALERT 0.0000
-2.9600 <s> ALL 0.0000
-2.9600 <s> ALONGSIDE 0.0000
-2.9600 <s> AN 0.0000
-2.9600 <s> AND 0.0000
-2.9600 <s> ANTI-CLOCKWISE 0.0000
-2.9600 <s> ANTICLOCKWISE 0.0000
-2.9600 <s> AROUND 0.0000
-2.9600 <s> ASTEROID 0.0000
-2.9600 <s> AT 0.0000
-2.9600 <s> ATOP 0.0000
-2.9600 <s> BASE 0.0000
-2.9600 <s> BEAM -0.1461
-2.9600 <s> BEFORE 0.0000
-2.9600 <s> BEHIND 0.0000
-2.9600 <s> BELOW 0.0000
-2.9600 <s> BENEATH 0.0000
-2.9600 <s> BESIDE 0.0000
-2.9600 <s> BESIDES 0.0000
-2.9600 <s> BETWEEN 0.0000
-2.9600 <s> BOOST 0.0000
-2.9600 <s> BOT 0.0000
-2.9600 <s> BY 0.0000
-2.4829 <s> CALCULATE 0.0000
-2.9600 <s> CANCEL 0.0000
-2.9600 <s> CHARGE 0.0000
-2.9600 <s> CLOCKWISE 0.0000
-2.9600 <s> CLOSE 0.0000
-2.9600 <s> CLOSEST -0.2808
-2.9600 <s> CODE 0.0000
-2.4829 <s> COMMS -0.1461
-2.4829 <s> COMMUNICATIONS -0.1461
-2.4829 <s> COMPUTE 0.0000
-2.9600 <s> COMPUTER 0.0000
-2.2610 <s> COOLANT 0.0000
-2.9600 <s> COOLING 0.0000
-2.9600 <s> CORE 0.0000
-2.9600 <s> COUNTER-CLOCKWISE 0.0000
-2.9600 <s> COUNTERCLOCKWISE 0.0000
-2.9600 <s> COURSE -0.2894
-2.0058 <s> CUT 0.0000
-2.6590 <s> DAMAGE 0.0000
-2.6590 <s> DEACTIVATE 0.0000
-2.9600 <s> DECREASE 0.0000
-2.9600 <s> DEENERGIZE 0.0000
-2.0569 <s> DEGREES 0.0000
-2.4829 <s> DEPLOY 0.0000
-2.9600 <s> DERELICT 0.0000
-2.9600 <s> DESCRIBE 0.0000
-2.9600 <s> DESTRUCT 0.0000
-2.9600 <s> DETAIL 0.0000
-2.9600 <s> DETAILS 0.0000
-2.9600 <s> DISABLE 0.0000
-2.6590 <s> DISENGAGE 0.0000
-2.9600 <s> DISTANCE -0.2688
-2.9600 <s> DOCKING -0.2632
-2.9600 <s> DOWN 0.0000
-2.9600 <s> DRIVE -0.1383
-2.9600 <s> DURING 0.0000
-2.9600 <s> EIGHT 0.0000
-2.9600 <s> EIGHTEEN 0.0000
-2.6590 <s> EIGHTY 0.0000
-2.6590 <s> EJECT 0.0000
-2.9600 <s> ELEVEN 0.0000
-2.9600 <s> ENEMY 0.0000
-2.4829 <s> ENERGIZE 0.0000
-2.9600 <s> ENERGY 0.0000
-2.4829 <s> ENGAGE 0.0000
-2.4829 <s> ENGINEERING 0.0000
-2.9600 <s> ENTER 0.0000
-2.9600 <s> EVERYTHING 0.0000
-2.9600 <s> EXCEPT 0.0000
-2.9600 <s> FACTOR 0.0000
-2.6590 <s> FIFTEEN 0.0000
-2.6590 <s> FIFTY 0.0000
-2.4829 <s> FIGURE 0.0000
-2.6590 <s> FIVE 0.0000
-2.9600 <s> FOR -0.2894
-2.6590 <s> FORTY 0.0000
-2.9600 <s> FOUR 0.0000
-2.9600 <s> FOURTEEN 0.0000
-2.9600 <s> FROM 0.0000
-2.9600 <s> FUEL 0.0000
-1.7047 <s> FULL 0.0000
-2.9600 <s> GATE 0.0000
-2.9600 <s> HULL 0.0000
-2.9600 <s> HUNDRED -0.0669
-2.9600 <s> IMPULSE -0.1891
-2.9600 <s> IN -0.2688
-2.2610 <s> INCREASE 0.0000
-2.9600 <s> INSIDE 0.0000
-2.9600 <s> IT 0.0000
-2.4829 <s> LAUNCH 0.0000
-2.1149 <s> LAY 0.0000
-2.6590 <s> LEAVE 0.0000
-2.9600 <s> LEFT 0.0000
-2.9600 <s> LEVEL 0.0000
-2.3579 <s> LONG 0.0000
-2.6590 <s> LOWER 0.0000
-2.9600 <s> MAGNETS 0.0000
-2.4829 <s> MAIN 0.0000
-2.9600 <s> MANEUVERING -0.1249
-2.9600 <s> MANUEVERING 0.0000
-2.2610 <s> MAX 0.0000
-2.1149 <s> MAXIMUM 0.0000
-2.9600 <s> MINING -0.2553
-2.9600 <s> NAVIGATE 0.0000
-2.4829 <s> NAVIGATION 0.0000
-2.9600 <s> NEARBY -0.2808
-2.9600 <s> NEAREST -0.2950
-2.9600 <s> NEBULA 0.0000
-2.9600 <s> NINE 0.0000
-2.9600 <s> NINETEEN 0.0000
-2.6590 <s> NINETY 0.0000
-2.9600 <s> OF 0.0000
-2.9600 <s> OFF 0.0000
-2.9600 <s> ON -0.2730
-2.2610 <s> ONE 0.0000
-2.9600 <s> ONTO 0.0000
-2.9600 <s> OR 0.0000
-2.9600 <s> ORBIT 0.0000
-2.9600 <s> OUT 0.0000
-2.9600 <s> OUTSIDE 0.0000
-2.9600 <s> PATH 0.0000
-2.9600 <s> PERCENT 0.0000
-2.9600 <s> PHASER -0.2218
-2.9600 <s> PHASERS 0.0000
-2.1149 <s> PITCH -0.0000
-2.9600 <s> PLANET 0.0000
-2.1149 <s> PLOT 0.0000
-2.9600 <s> PORT 0.0000
-2.1149 <s> POWER 0.0000
-2.9600 <s> QUICKLY 0.0000
-2.9600 <s> RADIATION 0.0000
-2.6590 <s> RAISE 0.0000
-2.6590 <s> RAMMING 0.0000
-2.9600 <s> RANGE -0.1963
-2.9600 <s> RAPIDLY 0.0000
-2.6590 <s> RED 0.0000
-2.9600 <s> REPORT 0.0000
-2.4829 <s> REVERSE -0.0969
-2.9600 <s> RIGHT 0.0000
-2.9600 <s> ROBOT 0.0000
-2.1818 <s> ROLL 0.0000
-2.9600 <s> ROTATE 0.0000
-2.9600 <s> ROUTE 0.0000
-1.6378 <s> SCAN 0.0000
-2.9600 <s> SCANNER 0.0000
-2.9600 <s> SCANNERS 0.0000
-2.4829 <s> SCIENCE 0.0000
-2.9600 <s> SCREEN 0.0000
-1.6378 <s> SELECT 0.0000
-2.9600 <s> SELF 0.0000
-2.9600 <s> SENSOR -0.2218
-2.9600 <s> SEQUENCE 0.0000
-1.4976 <s> SET 0.0000
-2.9600 <s> SEVEN 0.0000
-2.9600 <s> SEVENTEEN 0.0000
-2.6590 <s> SEVENTY 0.0000
-2.9600 <s> SHIELD 0.0000
-2.4829 <s> SHIELDS -0.1139
-2.9600 <s> SHIP 0.0000
-2.3579 <s> SHORT 0.0000
-2.9600 <s> SHUT 0.0000
-2.9600 <s> SHUTDOWN 0.0000
-2.9600 <s> SIX 0.0000
-2.9600 <s> SIXTEEN 0.0000
-2.6590 <s> SIXTY 0.0000
-2.9600 <s> SLOWLY 0.0000
-2.9600 <s> SOLAR 0.0000
-2.9600 <s> SPACE 0.0000
-2.6590 <s> STANDARD 0.0000
-2.9600 <s> STAR -0.2430
-2.9600 <s> STARBOARD 0.0000
-2.9600 <s> START 0.0000
-2.9600 <s> STATION 0.0000
-2.6590 <s> STATUS 0.0000
-2.6590 <s> STOP 0.0000
-2.9600 <s> SWIFTLY 0.0000
-2.9600 <s> SYSTEM 0.0000
-2.9600 <s> TARGET 0.0000
-2.9600 <s> TELL 0.0000
-2.6590 <s> TEN 0.0000
-2.2610 <s> THE -0.1871
-2.9600 <s> THEM 0.0000
-2.9600 <s> THEN 0.0000
-2.9600 <s> THIRTEEN 0.0000
-2.6590 <s> THIRTY 0.0000
-2.9600 <s> THOUSAND 0.0000
-2.6590 <s> THREE 0.0000
-2.9600 <s> THROTTLE -0.1249
-2.9600 <s> THROUGH 0.0000
-2.9600 <s> THROUGHOUT 0.0000
-2.9600 <s> THRUSTER 0.0000
-2.9600 <s> THRUSTERS 0.0000
-2.9600 <s> TO -0.1806
-2.9600 <s> TORPEDO 0.0000
-2.9600 <s> TOWARD 0.0000
-2.9600 <s> TOWARDS 0.0000
-2.9600 <s> TRACTOR -0.2553
-2.0058 <s> TURN 0.0000
-2.9600 <s> TWELVE 0.0000
-2.4829 <s> TWENTY 0.0000
-2.6590 <s> TWO 0.0000
-2.9600 <s> UNDER 0.0000
-2.9600 <s> UNTIL 0.0000
-2.9600 <s> UP 0.0000
-2.9600 <s> VIEW -0.2218
-2.9600 <s> WARP -0.2711
-2.9600 <s> WAVELENGTH 0.0000
-2.9600 <s> WEAPON 0.0000
-2.6590 <s> WEAPONS 0.0000
-2.9600 <s> WITH 0.0000
-2.9600 <s> YAW 0.0000
-2.9600 <s> ZERO 0.0000
-2.1149 <s> ZOOM -0.0000
-0.3245 A COURSE -0.0223
-1.5798 A HUNDRED -0.0669
-0.3010 ABOARD </s> -0.3010
-0.3010 ABOUT </s> -0.3010
-0.3010 ABOVE </s> -0.3010
-0.3010 ACROSS </s> -0.3010
-0.3010 ACTIVATE WARP -0.1461
-0.7782 ACTUATE </s> -0.3010
-0.7782 ACTUATE DOCKING -0.0669
-0.7782 ACTUATE WARP -0.1461
-0.3010 AFTER </s> -0.3010
-0.3010 AHEAD </s> -0.3010
-0.3010 ALERT </s> -0.3010
-0.3010 ALL </s> -0.3010
-0.3010 ALONGSIDE </s> -0.3010
-0.3010 AN </s> -0.3010
-0.3010 AND </s> -0.3010
-0.3010 ANTI CLOCKWISE 0.0000
-0.3010 ANTI-CLOCKWISE </s> -0.3010
-0.3010 ANTICLOCKWISE </s> -0.3010
-0.3010 AROUND </s> -0.3010
-0.3010 ASTEROID </s> -0.3010
-0.3010 AT </s> -0.3010
-0.3010 ATOP </s> -0.3010
-0.3010 BACK </s> -0.3010
-0.3010 BACKWARD </s> -0.3010
-0.3010 BACKWARDS </s> -0.3010
-0.3010 BASE </s> -0.3010
-0.5229 BEAM </s> -0.3010
-1.0000 BEAM COOLANT -0.0607
-1.0000 BEAM POWER -0.0414
-0.3010 BEFORE </s> -0.3010
-0.3010 BEHIND </s> -0.3010
-0.3010 BELOW </s> -0.3010
-0.3010 BENEATH </s> -0.3010
-0.3010 BESIDE </s> -0.3010
-0.3010 BESIDES </s> -0.3010
-0.3010 BETWEEN </s> -0.3010
-0.3010 BOOST </s> -0.3010
-0.3010 BOT </s> -0.3010
-0.3010 BY </s> -0.3010
-0.7782 CALCULATE </s> -0.3010
-0.4771 CALCULATE THE -0.2840
-0.3010 CANCEL RED -0.0969
-0.3010 CHARGE </s> -0.3010
-0.3010 CLOCKWISE </s> -0.3010
-0.3010 CLOSE </s> -0.3010
-1.3424 CLOSEST </s> -0.3010
-1.0414 CLOSEST ASTEROID 0.0000
-1.0414 CLOSEST DERELICT 0.0000
-1.0414 CLOSEST NEBULA 0.0000
-1.0414 CLOSEST PLANET 0.0000
-1.0414 CLOSEST SHIP 0.0000
-0.3010 CODE </s> -0.3010
-1.0000 COMMS </s> -0.3010
-1.0000 COMMS COOLANT -0.0607
-1.0000 COMMS ON -0.0512
-1.0000 COMMS POWER -0.0414
-1.0000 COMMS SCREEN 0.0000
-1.0000 COMMUNICATIONS </s> -0.3010
-1.0000 COMMUNICATIONS COOLANT -0.0607
-1.0000 COMMUNICATIONS ON -0.0512
-1.0000 COMMUNICATIONS POWER -0.0414
-1.0000 COMMUNICATIONS SCREEN 0.0000
-0.7782 COMPUTE </s> -0.3010
-0.4771 COMPUTE THE -0.2840
-0.3010 COMPUTER </s> -0.3010
-1.1249 COOLANT </s> -0.3010
-0.3716 COOLANT TO -0.1181
-0.3010 COOLING </s> -0.3010
-0.3010 CORE </s> -0.3010
-0.3010 COUNTER CLOCKWISE 0.0000
-0.3010 COUNTER-CLOCKWISE </s> -0.3010
-0.3010 COUNTERCLOCKWISE </s> -0.3010
-1.5798 COURSE </s> -0.3010
-0.3245 COURSE FOR -0.0223
-1.2553 CUT </s> -0.3010
-0.3522 CUT POWER -0.0414
-0.6021 DAMAGE </s> -0.3010
-0.6021 DAMAGE REPORT 0.0000
-0.6021 DEACTIVATE </s> -0.3010
-0.6021 DEACTIVATE DOCKING -0.0669
-0.3010 DECREASE </s> -0.3010
-0.3010 DEENERGIZE </s> -0.3010
-1.2041 DEGREES </s> -0.3010
-1.2041 DEGREES ANTI 0.0000
-1.2041 DEGREES CLOCKWISE 0.0000
-1.2041 DEGREES COUNTER 0.0000
-1.2041 DEGREES DOWN 0.0000
-1.2041 DEGREES LEFT 0.0000
-1.2041 DEGREES RIGHT 0.0000
-1.2041 DEGREES UP 0.0000
-0.7782 DEPLOY </s> -0.3010
-0.4771 DEPLOY THE -0.2897
-0.3010 DERELICT </s> -0.3010
-0.3010 DESCRIBE </s> -0.3010
-0.3010 DESTRUCT </s> -0.3010
-0.3010 DETAIL </s> -0.3010
-0.3010 DETAILS </s> -0.3010
-0.3010 DISABLE </s> -0.3010
-0.6021 DISENGAGE </s> -0.3010
-0.6021 DISENGAGE DOCKING -0.0669
-1.1461 DISTANCE </s> -0.3010
-0.3680 DISTANCE TO -0.1669
-1.0792 DOCKING </s> -0.3010
-0.3802 DOCKING SYSTEM 0.0000
-0.3010 DOWN </s> -0.3010
-0.5051 DRIVE </s> -0.3010
-1.2041 DRIVE COOLANT -0.0607
-1.2041 DRIVE POWER -0.0414
-1.2041 DRIVE TO -0.1806
-0.3010 DURING </s> -0.3010
-0.3010 EIGHT </s> -0.3010
-0.3010 EIGHTEEN </s> -0.3010
-0.4771 EIGHTY </s> -0.3010
-0.7782 EIGHTY PERCENT 0.0000
-0.6021 EJECT </s> -0.3010
-0.6021 EJECT THE -0.2982
-0.3010 ELEVEN </s> -0.3010
-0.3010 ENEMY </s> -0.3010
-0.7782 ENERGIZE </s> -0.3010
-0.7782 ENERGIZE DOCKING -0.0669
-0.7782 ENERGIZE WARP -0.1461
-0.3010 ENERGY </s> -0.3010
-0.7782 ENGAGE </s> -0.3010
-0.7782 ENGAGE DOCKING -0.0669
-0.7782 ENGAGE WARP -0.1461
-0.7782 ENGINEERING </s> -0.3010
-0.7782 ENGINEERING ON -0.0512
-0.7782 ENGINEERING SCREEN 0.0000
-0.3010 ENGINES </s> -0.3010
-0.3010 ENTER STANDARD -0.0969
-0.3010 EVERYTHING </s> -0.3010
-0.3010 EXCEPT </s> -0.3010
-0.3010 FACTOR </s> -0.3010
-0.6021 FIFTEEN </s> -0.3010
-0.6021 FIFTEEN PERCENT 0.0000
-0.4771 FIFTY </s> -0.3010
-0.7782 FIFTY PERCENT 0.0000
-0.7782 FIGURE </s> -0.3010
-0.4771 FIGURE THE -0.2840
-0.7782 FIVE </s> -0.3010
-0.4771 FIVE PERCENT 0.0000
-1.5798 FOR </s> -0.3010
-0.3245 FOR THE -0.1907
-0.6021 FORTY </s> -0.3010
-0.6021 FORTY PERCENT 0.0000
-0.3010 FORWARD </s> -0.3010
-0.3010 FOUR </s> -0.3010
-0.3010 FOURTEEN </s> -0.3010
-0.3010 FROM </s> -0.3010
-0.3010 FUEL </s> -0.3010
-1.5563 FULL </s> -0.3010
-1.2553 FULL IMPULSE 0.0000
-0.6021 FULL POWER 0.0000
-1.5563 FULL REVERSE -0.2430
-1.2553 FULL SPEED 0.0000
-1.5563 FULL STOP -0.1249
-1.5563 FULL THROTTLE -0.1249
-1.5563 FULL VELOCITY 0.0000
-0.3010 GATE </s> -0.3010
-0.3010 HALF </s> -0.3010
-0.3010 HOLE </s> -0.3010
-0.3010 HULL </s> -0.3010
-0.3802 HUNDRED </s> -0.3010
-1.0792 HUNDRED PERCENT 0.0000
-0.6435 IMPULSE </s> -0.3010
-0.5643 IMPULSE DRIVE 0.0000
-1.1461 IN </s> -0.3010
-0.3680 IN A -0.0223
-1.0000 INCREASE </s> -0.3010
-0.6990 INCREASE COOLANT -0.0607
-0.6990 INCREASE POWER -0.0414
-0.3010 INSIDE </s> -0.3010
-0.3010 IT </s> -0.3010
-0.7782 LAUNCH </s> -0.3010
-0.4771 LAUNCH THE -0.2897
-1.1461 LAY </s> -0.3010
-0.3680 LAY IN -0.0580
-0.6021 LEAVE ORBIT 0.0000
-0.6021 LEAVE STANDARD -0.0969
-0.3010 LEFT </s> -0.3010
-0.3010 LEVEL </s> -0.3010
-0.9031 LONG </s> -0.3010
-0.4260 LONG RANGE 0.0000
-0.6021 LOWER </s> -0.3010
-0.6021 LOWER SHIELDS -0.1761
-0.3010 MAGNETS </s> -0.3010
-0.7782 MAIN </s> -0.3010
-0.4771 MAIN VIEW -0.1249
-0.4771 MANEUVERING </s> -0.3010
-1.0792 MANEUVERING COOLANT -0.0607
-1.0792 MANEUVERING POWER -0.0414
-0.3010 MANUEVERING </s> -0.3010
-1.0000 MAX </s> -0.3010
-0.6990 MAX COOLANT 0.0000
-0.6990 MAX POWER 0.0000
-0.8451 MAXIMUM </s> -0.3010
-0.8451 MAXIMUM COOLANT 0.0000
-0.6690 MAXIMUM POWER 0.0000
-0.3010 ME ABOUT 0.0000
-1.0000 MINING </s> -0.3010
-0.6990 MINING BOT 0.0000
-0.6990 MINING ROBOT 0.0000
-0.3010 NAVIGATE </s> -0.3010
-0.7782 NAVIGATION </s> -0.3010
-0.7782 NAVIGATION ON -0.0512
-0.7782 NAVIGATION SCREEN 0.0000
-1.3424 NEARBY </s> -0.3010
-1.0414 NEARBY ASTEROID 0.0000
-1.0414 NEARBY DERELICT 0.0000
-1.0414 NEARBY NEBULA 0.0000
-1.0414 NEARBY PLANET 0.0000
-1.0414 NEARBY SHIP 0.0000
-1.8573 NEAREST </s> -0.3010
-1.0792 NEAREST ASTEROID 0.0000
-1.5563 NEAREST DERELICT 0.0000
-1.0792 NEAREST NEBULA 0.0000
-0.9542 NEAREST PLANET 0.0000
-1.2553 NEAREST SHIP 0.0000
-1.3802 NEAREST STAR -0.0969
-1.3802 NEAREST WARP -0.2553
-1.3802 NEAREST WORM 0.0000
-0.3010 NEBULA </s> -0.3010
-0.3010 NINE </s> -0.3010
-0.3010 NINETEEN </s> -0.3010
-0.3979 NINETY </s> -0.3010
-1.0000 NINETY PERCENT 0.0000
-0.3010 OF </s> -0.3010
-0.3010 OFF </s> -0.3010
-1.2041 ON </s> -0.3010
-0.3590 ON SCREEN 0.0000
-1.2041 ONE </s> -0.3010
-1.2041 ONE HALF 0.0000
-0.6021 ONE HUNDRED 0.0000
-1.2041 ONE QUARTER 0.0000
-1.2041 ONE THIRD 0.0000
-0.3010 ONTO </s> -0.3010
-0.3010 OR </s> -0.3010
-0.3010 ORBIT </s> -0.3010
-0.3010 OUT </s> -0.3010
-0.3010 OUTSIDE </s> -0.3010
-0.3010 PATH </s> -0.3010
-0.3010 PERCENT </s> -0.3010
-0.7782 PHASER </s> -0.3010
-0.7782 PHASER COOLANT -0.0607
-0.7782 PHASER POWER -0.0414
-0.3010 PHASERS </s> -0.3010
-1.1461 PITCH </s> -0.3010
-1.1461 PITCH BACK 0.0000
-1.1461 PITCH BACKWARD 0.0000
-1.1461 PITCH BACKWARDS 0.0000
-1.1461 PITCH DOWN 0.0000
-1.1461 PITCH FORWARD 0.0000
-1.1461 PITCH UP 0.0000
-0.3010 PLANET </s> -0.3010
-1.1461 PLOT </s> -0.3010
-0.3680 PLOT A -0.0223
-0.3010 POLARITY </s> -0.3010
-0.3010 PORT </s> -0.3010
-1.3010 POWER </s> -0.3010
-0.3468 POWER TO -0.0263
-0.3010 QUARTER </s> -0.3010
-0.3010 QUARTERS </s> -0.3010
-0.3010 QUICKLY </s> -0.3010
-0.3010 RADIATION </s> -0.3010
-0.6021 RAISE </s> -0.3010
-0.6021 RAISE SHIELDS -0.1761
-0.6021 RAMMING SPEED -0.1249
-0.6021 RAMMING VELOCITY 0.0000
-0.6690 RANGE </s> -0.3010
-0.8451 RANGE SCAN -0.2717
-0.8451 RANGE SCANNER 0.0000
-0.3010 RAPIDLY </s> -0.3010
-0.9031 RED </s> -0.3010
-0.4260 RED ALERT 0.0000
-0.3010 REPORT </s> -0.3010
-0.9031 REVERSE </s> -0.3010
-0.9031 REVERSE ENGINES 0.0000
-0.9031 REVERSE THE -0.2982
-0.9031 REVERSE THRUSTERS 0.0000
-0.3010 RIGHT </s> -0.3010
-0.3010 ROBOT </s> -0.3010
-1.0792 ROLL </s> -0.3010
-1.0792 ROLL ANTI 0.0000
-1.0792 ROLL CLOCKWISE 0.0000
-1.0792 ROLL COUNTER 0.0000
-1.0792 ROLL LEFT 0.0000
-1.0792 ROLL RIGHT 0.0000
-0.3010 ROTATE </s> -0.3010
-0.3010 ROUTE </s> -0.3010
-1.1856 SCAN </s> -0.3010
-0.3617 SCAN THE -0.0669
-0.3010 SCANNER </s> -0.3010
-0.3010 SCANNERS </s> -0.3010
-0.7782 SCIENCE </s> -0.3010
-0.7782 SCIENCE ON -0.0512
-0.7782 SCIENCE SCREEN 0.0000
-0.3010 SCREEN </s> -0.3010
-1.6232 SELECT </s> -0.3010
-0.3222 SELECT THE -0.0669
-0.3010 SELF </s> -0.3010
-0.7782 SENSOR </s> -0.3010
-0.7782 SENSOR COOLANT -0.0607
-0.7782 SENSOR POWER -0.0414
-0.3010 SENSORS </s> -0.3010
-0.3010 SEQUENCE </s> -0.3010
-1.7634 SET </s> -0.3010
-0.9853 SET A -0.0223
-1.4624 SET COMMS -0.2041
-1.4624 SET COMMUNICATIONS -0.2041
-1.2863 SET IMPULSE -0.1627
-1.4624 SET MANEUVERING -0.2218
-1.4624 SET PHASER -0.1249
-1.4624 SET SENSOR -0.1249
-1.2863 SET SHIELDS -0.2304
-1.7634 SET THROTTLE -0.2218
-1.4624 SET TRACTOR -0.0792
-1.2863 SET WARP -0.1461
-0.3010 SEVEN </s> -0.3010
-0.3010 SEVENTEEN </s> -0.3010
-0.4771 SEVENTY </s> -0.3010
-0.7782 SEVENTY PERCENT 0.0000
-0.3010 SHIELD </s> -0.3010
-0.6021 SHIELDS </s> -0.3010
-1.3010 SHIELDS COOLANT -0.0607
-1.3010 SHIELDS DOWN 0.0000
-1.3010 SHIELDS POWER -0.0414
-1.3010 SHIELDS TO -0.1806
-1.3010 SHIELDS UP 0.0000
-0.3010 SHIP </s> -0.3010
-0.9031 SHORT </s> -0.3010
-0.4260 SHORT RANGE 0.0000
-0.3010 SHUT </s> -0.3010
-0.3010 SHUTDOWN </s> -0.3010
-0.3010 SIX </s> -0.3010
-0.3010 SIXTEEN </s> -0.3010
-0.4771 SIXTY </s> -0.3010
-0.7782 SIXTY PERCENT 0.0000
-0.3010 SLOWLY </s> -0.3010
-0.3010 SOLAR </s> -0.3010
-0.3010 SPACE </s> -0.3010
-0.4771 SPEED </s> -0.3010
-0.7782 SPEED AHEAD 0.0000
-0.9031 STANDARD </s> -0.3010
-0.4260 STANDARD ORBIT 0.0000
-0.9031 STAR </s> -0.3010
-0.4260 STAR BASE 0.0000
-0.3010 STARBOARD </s> -0.3010
-0.3010 START </s> -0.3010
-0.3010 STATION </s> -0.3010
-0.6021 STATUS </s> -0.3010
-0.6021 STATUS REPORT 0.0000
-0.4771 STOP </s> -0.3010
-0.7782 STOP RED -0.0969
-0.3010 SWIFTLY </s> -0.3010
-0.3010 SYSTEM </s> -0.3010
-0.3010 TARGET </s> -0.3010
-0.3010 TELL ME 0.0000
-0.6021 TEN </s> -0.3010
-0.6021 TEN PERCENT 0.0000
-2.1931 THE </s> -0.3010
-1.8921 THE ASTEROID 0.0000
-1.1931 THE CLOSEST -0.0378
-1.8921 THE DERELICT 0.0000
-1.4150 THE DISTANCE -0.0580
-1.5911 THE MINING -0.0792
-1.1931 THE NEARBY -0.0378
-0.6491 THE NEAREST -0.0119
-1.8921 THE NEBULA 0.0000
-1.8921 THE PLANET 0.0000
-2.1931 THE POLARITY 0.0000
-1.8921 THE SHIP 0.0000
-2.1931 THE WARP -0.2863
-0.3010 THEM </s> -0.3010
-0.3010 THEN </s> -0.3010
-0.3010 THIRD </s> -0.3010
-0.3010 THIRDS </s> -0.3010
-0.3010 THIRTEEN </s> -0.3010
-0.4771 THIRTY </s> -0.3010
-0.7782 THIRTY PERCENT 0.0000
-0.3010 THOUSAND </s> -0.3010
-0.6021 THREE </s> -0.3010
-0.6021 THREE QUARTERS 0.0000
-0.4771 THROTTLE </s> -0.3010
-0.7782 THROTTLE TO -0.1806
-0.3010 THROUGH </s> -0.3010
-0.3010 THROUGHOUT </s> -0.3010
-0.3010 THRUSTER </s> -0.3010
-0.3010 THRUSTERS </s> -0.3010
-0.6158 TO </s> -0.3010
-2.1072 TO A -0.2894
-2.1072 TO EIGHTY -0.1249
-1.4082 TO IMPULSE 0.0000
-1.6301 TO MANEUVERING -0.1249
-1.8062 TO NINETY -0.0792
-1.8062 TO ONE -0.1761
-1.8062 TO PHASERS 0.0000
-1.6301 TO SENSORS 0.0000
-2.1072 TO SEVENTY -0.1249
-1.8062 TO SHIELDS -0.1761
-2.1072 TO SIXTY -0.1249
-1.6301 TO THE -0.1907
-1.8062 TO TRACTOR -0.0792
-1.6301 TO WARP -0.1027
-1.8062 TO ZERO 0.0000
-0.3010 TORPEDO </s> -0.3010
-0.3010 TOWARD </s> -0.3010
-0.3010 TOWARDS </s> -0.3010
-1.0000 TRACTOR </s> -0.3010
-0.3979 TRACTOR BEAM 0.0000
-1.2553 TURN </s> -0.3010
-1.2553 TURN ANTI 0.0000
-1.2553 TURN CLOCKWISE 0.0000
-1.2553 TURN COUNTER 0.0000
-1.2553 TURN DOWN 0.0000
-1.2553 TURN LEFT 0.0000
-1.2553 TURN RIGHT 0.0000
-1.2553 TURN TOWARDS 0.0000
-1.2553 TURN UP 0.0000
-0.3010 TWELVE </s> -0.3010
-0.6021 TWENTY </s> -0.3010
-0.9031 TWENTY FIVE -0.1249
-0.9031 TWENTY PERCENT 0.0000
-0.6021 TWO </s> -0.3010
-0.6021 TWO THIRDS 0.0000
-0.3010 UNDER </s> -0.3010
-0.3010 UNTIL </s> -0.3010
-0.3010 UP </s> -0.3010
-0.3010 VELOCITY </s> -0.3010
-0.7782 VIEW </s> -0.3010
-0.7782 VIEW ON -0.0512
-0.7782 VIEW SCREEN 0.0000
-1.1761 WARP </s> -0.3010
-1.4771 WARP CORE 0.0000
-0.5229 WARP DRIVE 0.0000
-1.0000 WARP GATE 0.0000
-0.3010 WAVELENGTH </s> -0.3010
-0.3010 WEAPON SCREEN 0.0000
-0.6021 WEAPONS </s> -0.3010
-0.6021 WEAPONS ON -0.0512
-0.3010 WITH </s> -0.3010
-0.3010 WORM HOLE 0.0000
-0.3010 YAW </s> -0.3010
-0.3010 ZERO </s> -0.3010
-1.1461 ZOOM </s> -0.3010
-1.1461 ZOOM FIFTY -0.1249
-1.1461 ZOOM NINETY -0.0792
-1.1461 ZOOM ONE -0.1761
-1.1461 ZOOM THIRTY -0.1249
-1.1461 ZOOM TWENTY -0.1761
-1.1461 ZOOM ZERO 0.0000

\3-grams:
-0.3010 <s> ABOARD </s>
-0.3010 <s> ABOVE </s>
-0.3010 <s> ACROSS </s>
-0.3010 <s> ACTIVATE WARP
-0.7782 <s> ACTUATE </s>
-0.7782 <s> ACTUATE DOCKING
-0.7782 <s> ACTUATE WARP
-0.3010 <s> AFTER </s>
-0.3010 <s> ALERT </s>
-0.3010 <s> ALL </s>
-0.3010 <s> ALONGSIDE </s>
-0.3010 <s> AN </s>
-0.3010 <s> AND </s>
-0.3010 <s> ANTI-CLOCKWISE </s>
-0.3010 <s> ANTICLOCKWISE </s>
-0.3010 <s> AROUND </s>
-0.3010 <s> ASTEROID </s>
-0.3010 <s> AT </s>
-0.3010 <s> ATOP </s>
-0.3010 <s> BASE </s>
-0.3010 <s> BEAM </s>
-0.3010 <s> BEFORE </s>
-0.3010 <s> BEHIND </s>
-0.3010 <s> BELOW </s>
-0.3010 <s> BENEATH </s>
-0.3010 <s> BESIDE </s>
-0.3010 <s> BESIDES </s>
-0.3010 <s> BETWEEN </s>
-0.3010 <s> BOOST </s>
-0.3010 <s> BOT </s>
-0.3010 <s> BY </s>
-0.7782 <s> CALCULATE </s>
-0.4771 <s> CALCULATE THE
-0.3010 <s> CANCEL RED
-0.3010 <s> CHARGE </s>
-0.3010 <s> CLOCKWISE </s>
-0.3010 <s> CLOSE </s>
-0.3010 <s> CLOSEST </s>
-0.3010 <s> CODE </s>
-0.7782 <s> COMMS </s>
-0.7782 <s> COMMS ON
-0.7782 <s> COMMS SCREEN
-0.7782 <s> COMMUNICATIONS </s>
-0.7782 <s> COMMUNICATIONS ON
-0.7782 <s> COMMUNICATIONS SCREEN
-0.7782 <s> COMPUTE </s>
-0.4771 <s> COMPUTE THE
-0.3010 <s> COMPUTER </s>
-1.0000 <s> COOLANT </s>
-0.3979 <s> COOLANT TO
-0.3010 <s> COOLING </s>
-0.3010 <s> CORE </s>
-0.3010 <s> COUNTER-CLOCKWISE </s>
-0.3010 <s> COUNTERCLOCKWISE </s>
-0.3010 <s> COURSE </s>
-1.2553 <s> CUT </s>
-0.3522 <s> CUT POWER
-0.6021 <s> DAMAGE </s>
-0.6021 <s> DAMAGE REPORT
-0.6021 <s> DEACTIVATE </s>
-0.6021 <s> DEACTIVATE DOCKING
-0.3010 <s> DECREASE </s>
-0.3010 <s> DEENERGIZE </s>
-1.2041 <s> DEGREES </s>
-1.2041 <s> DEGREES ANTI
-1.2041 <s> DEGREES CLOCKWISE
-1.2041 <s> DEGREES COUNTER
-1.2041 <s> DEGREES DOWN
-1.2041 <s> DEGREES LEFT
-1.2041 <s> DEGREES RIGHT
-1.2041 <s> DEGREES UP
-0.7782 <s> DEPLOY </s>
-0.4771 <s> DEPLOY THE
-0.3010 <s> DERELICT </s>
-0.3010 <s> DESCRIBE </s>
-0.3010 <s> DESTRUCT </s>
-0.3010 <s> DETAIL </s>
-0.3010 <s> DETAILS </s>
-0.3010 <s> DISABLE </s>
-0.6021 <s> DISENGAGE </s>
-0.6021 <s> DISENGAGE DOCKING
-0.3010 <s> DISTANCE </s>
-0.3010 <s> DOCKING </s>
-0.3010 <s> DOWN </s>
-0.3010 <s> DRIVE </s>
-0.3010 <s> DURING </s>
-0.3010 <s> EIGHT </s>
-0.3010 <s> EIGHTEEN </s>
-0.6021 <s> EIGHTY </s>
-0.6021 <s> EIGHTY PERCENT
-0.6021 <s> EJECT </s>
-0.6021 <s> EJECT THE
-0.3010 <s> ELEVEN </s>
-0.3010 <s> ENEMY </s>
-0.7782 <s> ENERGIZE </s>
-0.7782 <s> ENERGIZE DOCKING
-0.7782 <s> ENERGIZE WARP
-0.3010 <s> ENERGY </s>
-0.7782 <s> ENGAGE </s>
-0.7782 <s> ENGAGE DOCKING
-0.7782 <s> ENGAGE WARP
-0.7782 <s> ENGINEERING </s>
-0.7782 <s> ENGINEERING ON
-0.7782 <s> ENGINEERING SCREEN
-0.3010 <s> ENTER STANDARD
-0.3010 <s> EVERYTHING </s>
-0.3010 <s> EXCEPT </s>
-0.3010 <s> FACTOR </s>
-0.6021 <s> FIFTEEN </s>
-0.6021 <s> FIFTEEN PERCENT
-0.6021 <s> FIFTY </s>
-0.6021 <s> FIFTY PERCENT
-0.7782 <s> FIGURE </s>
-0.4771 <s> FIGURE THE
-0.6021 <s> FIVE </s>
-0.6021 <s> FIVE PERCENT
-0.3010 <s> FOR </s>
-0.6021 <s> FORTY </s>
-0.6021 <s> FORTY PERCENT
-0.3010 <s> FOUR </s>
-0.3010 <s> FOURTEEN </s>
-0.3010 <s> FROM </s>
-0.3010 <s> FUEL </s>
-1.5563 <s> FULL </s>
-1.2553 <s> FULL IMPULSE
-0.6021 <s> FULL POWER
-1.5563 <s> FULL REVERSE
-1.2553 <s> FULL SPEED
-1.5563 <s> FULL STOP
-1.5563 <s> FULL THROTTLE
-1.5563 <s> FULL VELOCITY
-0.3010 <s> GATE </s>
-0.3010 <s> HULL </s>
-0.3010 <s> HUNDRED </s>
-0.3010 <s> IMPULSE </s>
-0.3010 <s> IN </s>
-1.0000 <s> INCREASE </s>
-0.6990 <s> INCREASE COOLANT
-0.6990 <s> INCREASE POWER
-0.3010 <s> INSIDE </s>
-0.3010 <s> IT </s>
-0.7782 <s> LAUNCH </s>
-0.4771 <s> LAUNCH THE
-1.1461 <s> LAY </s>
-0.3680 <s> LAY IN
-0.6021 <s> LEAVE ORBIT
-0.6021 <s> LEAVE STANDARD
-0.3010 <s> LEFT </s>
-0.3010 <s> LEVEL </s>
-0.9031 <s> LONG </s>
-0.4260 <s> LONG RANGE
-0.6021 <s> LOWER </s>
-0.6021 <s> LOWER SHIELDS
-0.3010 <s> MAGNETS </s>
-0.7782 <s> MAIN </s>
-0.4771 <s> MAIN VIEW
-0.3010 <s> MANEUVERING </s>
-0.3010 <s> MANUEVERING </s>
-1.0000 <s> MAX </s>
-0.6990 <s> MAX COOLANT
-0.6990 <s> MAX POWER
-0.8451 <s> MAXIMUM </s>
-0.8451 <s> MAXIMUM COOLANT
-0.6690 <s> MAXIMUM POWER
-0.3010 <s> MINING </s>
-0.3010 <s> NAVIGATE </s>
-0.7782 <s> NAVIGATION </s>
-0.7782 <s> NAVIGATION ON
-0.7782 <s> NAVIGATION SCREEN
-0.3010 <s> NEARBY </s>
-0.3010 <s> NEAREST </s>
-0.3010 <s> NEBULA </s>
-0.3010 <s> NINE </s>
-0.3010 <s> NINETEEN </s>
-0.6021 <s> NINETY </s>
-0.6021 <s> NINETY PERCENT
-0.3010 <s> OF </s>
-0.3010 <s> OFF </s>
-0.3010 <s> ON </s>
-1.0000 <s> ONE </s>
-1.0000 <s> ONE HALF
-1.0000 <s> ONE HUNDRED
-1.0000 <s> ONE QUARTER
-1.0000 <s> ONE THIRD
-0.3010 <s> ONTO </s>
-0.3010 <s> OR </s>
-0.3010 <s> ORBIT </s>
-0.3010 <s> OUT </s>
-0.3010 <s> OUTSIDE </s>
-0.3010 <s> PATH </s>
-0.3010 <s> PERCENT </s>
-0.3010 <s> PHASER </s>
-0.3010 <s> PHASERS </s>
-1.1461 <s> PITCH </s>
-1.1461 <s> PITCH BACK
-1.1461 <s> PITCH BACKWARD
-1.1461 <s> PITCH BACKWARDS
-1.1461 <s> PITCH DOWN
-1.1461 <s> PITCH FORWARD
-1.1461 <s> PITCH UP
-0.3010 <s> PLANET </s>
-1.1461 <s> PLOT </s>
-0.3680 <s> PLOT A
-0.3010 <s> PORT </s>
-1.1461 <s> POWER </s>
-0.3680 <s> POWER TO
-0.3010 <s> QUICKLY </s>
-0.3010 <s> RADIATION </s>
-0.6021 <s> RAISE </s>
-0.6021 <s> RAISE SHIELDS
-0.6021 <s> RAMMING SPEED
-0.6021 <s> RAMMING VELOCITY
-0.3010 <s> RANGE </s>
-0.3010 <s> RAPIDLY </s>
-0.6021 <s> RED </s>
-0.6021 <s> RED ALERT
-0.3010 <s> REPORT </s>
-0.7782 <s> REVERSE ENGINES
-0.7782 <s> REVERSE THE
-0.7782 <s> REVERSE THRUSTERS
-0.3010 <s> RIGHT </s>
-0.3010 <s> ROBOT </s>
-1.0792 <s> ROLL </s>
-1.0792 <s> ROLL ANTI
-1.0792 <s> ROLL CLOCKWISE
-1.0792 <s> ROLL COUNTER
-1.0792 <s> ROLL LEFT
-1.0792 <s> ROLL RIGHT
-0.3010 <s> ROTATE </s>
-0.3010 <s> ROUTE </s>
-1.6232 <s> SCAN </s>
-0.3222 <s> SCAN THE
-0.3010 <s> SCANNER </s>
-0.3010 <s> SCANNERS </s>
-0.7782 <s> SCIENCE </s>
-0.7782 <s> SCIENCE ON
-0.7782 <s> SCIENCE SCREEN
-0.3010 <s> SCREEN </s>
-1.6232 <s> SELECT </s>
-0.3222 <s> SELECT THE
-0.3010 <s> SELF </s>
-0.3010 <s> SENSOR </s>
-0.3010 <s> SEQUENCE </s>
-1.7634 <s> SET </s>
-0.9853 <s> SET A
-1.4624 <s> SET COMMS
-1.4624 <s> SET COMMUNICATIONS
-1.2863 <s> SET IMPULSE
-1.4624 <s> SET MANEUVERING
-1.4624 <s> SET PHASER
-1.4624 <s> SET SENSOR
-1.2863 <s> SET SHIELDS
-1.7634 <s> SET THROTTLE
-1.4624 <s> SET TRACTOR
-1.2863 <s> SET WARP
-0.3010 <s> SEVEN </s>
-0.3010 <s> SEVENTEEN </s>
-0.6021 <s> SEVENTY </s>
-0.6021 <s> SEVENTY PERCENT
-0.3010 <s> SHIELD </s>
-0.7782 <s> SHIELDS </s>
-0.7782 <s> SHIELDS DOWN
-0.7782 <s> SHIELDS UP
-0.3010 <s> SHIP </s>
-0.9031 <s> SHORT </s>
-0.4260 <s> SHORT RANGE
-0.3010 <s> SHUT </s>
-0.3010 <s> SHUTDOWN </s>
-0.3010 <s> SIX </s>
-0.3010 <s> SIXTEEN </s>
-0.6021 <s> SIXTY </s>
-0.6021 <s> SIXTY PERCENT
-0.3010 <s> SLOWLY </s>
-0.3010 <s> SOLAR </s>
-0.3010 <s> SPACE </s>
-0.6021 <s> STANDARD </s>
-0.6021 <s> STANDARD ORBIT
-0.3010 <s> STAR </s>
-0.3010 <s> STARBOARD </s>
-0.3010 <s> START </s>
-0.3010 <s> STATION </s>
-0.6021 <s> STATUS </s>
-0.6021 <s> STATUS REPORT
-0.6021 <s> STOP </s>
-0.6021 <s> STOP RED
-0.3010 <s> SWIFTLY </s>
-0.3010 <s> SYSTEM </s>
-0.3010 <s> TARGET </s>
-0.3010 <s> TELL ME
-0.6021 <s> TEN </s>
-0.6021 <s> TEN PERCENT
-1.0000 <s> THE </s>
-0.3979 <s> THE NEAREST
-0.3010 <s> THEM </s>
-0.3010 <s> THEN </s>
-0.3010 <s> THIRTEEN </s>
-0.6021 <s> THIRTY </s>
-0.6021 <s> THIRTY PERCENT
-0.3010 <s> THOUSAND </s>
-0.6021 <s> THREE </s>
-0.6021 <s> THREE QUARTERS
-0.3010 <s> THROTTLE </s>
-0.3010 <s> THROUGH </s>
-0.3010 <s> THROUGHOUT </s>
-0.3010 <s> THRUSTER </s>
-0.3010 <s> THRUSTERS </s>
-0.3010 <s> TO </s>
-0.3010 <s> TORPEDO </s>
-0.3010 <s> TOWARD </s>
-0.3010 <s> TOWARDS </s>
-0.3010 <s> TRACTOR </s>
-1.2553 <s> TURN </s>
-1.2553 <s> TURN ANTI
-1.2553 <s> TURN CLOCKWISE
-1.2553 <s> TURN COUNTER
-1.2553 <s> TURN DOWN
-1.2553 <s> TURN LEFT
-1.2553 <s> TURN RIGHT
-1.2553 <s> TURN TOWARDS
-1.2553 <s> TURN UP
-0.3010 <s> TWELVE </s>
-0.7782 <s> TWENTY </s>
-0.7782 <s> TWENTY FIVE
-0.7782 <s> TWENTY PERCENT
-0.6021 <s> TWO </s>
-0.6021 <s> TWO THIRDS
-0.3010 <s> UNDER </s>
-0.3010 <s> UNTIL </s>
-0.3010 <s> UP </s>
-0.3010 <s> VIEW </s>
-0.3010 <s> WARP </s>
-0.3010 <s> WAVELENGTH </s>
-0.3010 <s> WEAPON SCREEN
-0.6021 <s> WEAPONS </s>
-0.6021 <s> WEAPONS ON
-0.3010 <s> WITH </s>
-0.3010 <s> YAW </s>
-0.3010 <s> ZERO </s>
-1.1461 <s> ZOOM </s>
-1.1461 <s> ZOOM FIFTY
-1.1461 <s> ZOOM NINETY
-1.1461 <s> ZOOM ONE
-1.1461 <s> ZOOM THIRTY
-1.1461 <s> ZOOM TWENTY
-1.1461 <s> ZOOM ZERO
-0.3010 A COURSE FOR
-0.3010 A HUNDRED </s>
-0.3010 ACTIVATE WARP DRIVE
-0.3010 ACTUATE DOCKING SYSTEM
-0.3010 ACTUATE WARP DRIVE
-0.3010 ANTI CLOCKWISE </s>
-0.3010 BEAM COOLANT TO
-0.3010 BEAM POWER TO
-0.3010 CALCULATE THE DISTANCE
-0.3010 CANCEL RED ALERT
-0.3010 CLOSEST ASTEROID </s>
-0.3010 CLOSEST DERELICT </s>
-0.3010 CLOSEST NEBULA </s>
-0.3010 CLOSEST PLANET </s>
-0.3010 CLOSEST SHIP </s>
-0.3010 COMMS COOLANT TO
-0.3010 COMMS ON SCREEN
-0.3010 COMMS POWER TO
-0.3010 COMMS SCREEN </s>
-0.3010 COMMUNICATIONS COOLANT TO
-0.3010 COMMUNICATIONS ON SCREEN
-0.3010 COMMUNICATIONS POWER TO
-0.3010 COMMUNICATIONS SCREEN </s>
-0.3010 COMPUTE THE DISTANCE
-0.4901 COOLANT TO </s>
-1.5315 COOLANT TO A
-1.5315 COOLANT TO MANEUVERING
-1.5315 COOLANT TO NINETY
-1.5315 COOLANT TO ONE
-1.5315 COOLANT TO SENSORS
-1.5315 COOLANT TO ZERO
-0.3010 COUNTER CLOCKWISE </s>
-0.3010 COURSE FOR THE
-0.3010 CUT POWER TO
-0.3010 DAMAGE REPORT </s>
-0.3010 DEACTIVATE DOCKING SYSTEM
-0.3010 DEGREES ANTI CLOCKWISE
-0.3010 DEGREES CLOCKWISE </s>
-0.3010 DEGREES COUNTER CLOCKWISE
-0.3010 DEGREES DOWN </s>
-0.3010 DEGREES LEFT </s>
-0.3010 DEGREES RIGHT </s>
-0.3010 DEGREES UP </s>
-0.3010 DEPLOY THE MINING
-0.3010 DISENGAGE DOCKING SYSTEM
-0.6021 DISTANCE TO </s>
-0.6021 DISTANCE TO THE
-0.3010 DOCKING SYSTEM </s>
-0.3010 DRIVE COOLANT TO
-0.3010 DRIVE POWER TO
-0.3010 DRIVE TO </s>
-0.3010 EIGHTY PERCENT </s>
-0.3010 EJECT THE WARP
-0.3010 ENERGIZE DOCKING SYSTEM
-0.3010 ENERGIZE WARP DRIVE
-0.3010 ENGAGE DOCKING SYSTEM
-0.3010 ENGAGE WARP DRIVE
-0.3010 ENGINEERING ON SCREEN
-0.3010 ENGINEERING SCREEN </s>
-0.3010 ENTER STANDARD ORBIT
-0.3010 FIFTEEN PERCENT </s>
-0.3010 FIFTY PERCENT </s>
-0.3010 FIGURE THE DISTANCE
-0.3010 FIVE PERCENT </s>
-0.3010 FOR THE NEAREST
-0.3010 FORTY PERCENT </s>
-0.6021 FULL IMPULSE </s>
-0.6021 FULL IMPULSE DRIVE
-1.2553 FULL POWER </s>
-0.3522 FULL POWER TO
-0.3010 FULL REVERSE </s>
-0.6021 FULL SPEED </s>
-0.6021 FULL SPEED AHEAD
-0.3010 FULL STOP </s>
-0.3010 FULL THROTTLE </s>
-0.3010 FULL VELOCITY </s>
-0.3010 HUNDRED PERCENT </s>
-0.6021 IMPULSE DRIVE </s>
-1.0792 IMPULSE DRIVE COOLANT
-1.0792 IMPULSE DRIVE POWER
-1.0792 IMPULSE DRIVE TO
-0.3010 IN A COURSE
-0.3010 INCREASE COOLANT TO
-0.3010 INCREASE POWER TO
-0.3010 LAUNCH THE MINING
-0.3010 LAY IN A
-0.3010 LEAVE ORBIT </s>
-0.3010 LEAVE STANDARD ORBIT
-0.7782 LONG RANGE </s>
-0.7782 LONG RANGE SCAN
-0.7782 LONG RANGE SCANNER
-0.3010 LOWER SHIELDS </s>
-0.6021 MAIN VIEW ON
-0.6021 MAIN VIEW SCREEN
-0.3010 MANEUVERING COOLANT TO
-0.3010 MANEUVERING POWER TO
-0.6021 MAX COOLANT </s>
-0.6021 MAX COOLANT TO
-0.6021 MAX POWER </s>
-0.6021 MAX POWER TO
-0.6021 MAXIMUM COOLANT </s>
-0.6021 MAXIMUM COOLANT TO
-0.7782 MAXIMUM POWER </s>
-0.4771 MAXIMUM POWER TO
-0.3010 ME ABOUT </s>
-0.3010 MINING BOT </s>
-0.3010 MINING ROBOT </s>
-0.3010 NAVIGATION ON SCREEN
-0.3010 NAVIGATION SCREEN </s>
-0.3010 NEARBY ASTEROID </s>
-0.3010 NEARBY DERELICT </s>
-0.3010 NEARBY NEBULA </s>
-0.3010 NEARBY PLANET </s>
-0.3010 NEARBY SHIP </s>
-0.3010 NEAREST ASTEROID </s>
-0.3010 NEAREST DERELICT </s>
-0.3010 NEAREST NEBULA </s>
-0.3010 NEAREST PLANET </s>
-0.3010 NEAREST SHIP </s>
-0.3010 NEAREST STAR BASE
-0.3010 NEAREST WARP GATE
-0.3010 NEAREST WORM HOLE
-0.3010 NINETY PERCENT </s>
-0.3010 ON SCREEN </s>
-0.3010 ONE HALF </s>
-0.4260 ONE HUNDRED </s>
-0.9031 ONE HUNDRED PERCENT
-0.3010 ONE QUARTER </s>
-0.3010 ONE THIRD </s>
-0.3010 PHASER COOLANT TO
-0.3010 PHASER POWER TO
-0.3010 PITCH BACK </s>
-0.3010 PITCH BACKWARD </s>
-0.3010 PITCH BACKWARDS </s>
-0.3010 PITCH DOWN </s>
-0.3010 PITCH FORWARD </s>
-0.3010 PITCH UP </s>
-0.3010 PLOT A COURSE
-0.7782 POWER TO </s>
-1.8573 POWER TO EIGHTY
-1.1584 POWER TO IMPULSE
-1.5563 POWER TO MANEUVERING
-1.8573 POWER TO NINETY
-1.8573 POWER TO ONE
-1.5563 POWER TO PHASERS
-1.5563 POWER TO SENSORS
-1.8573 POWER TO SEVENTY
-1.5563 POWER TO SHIELDS
-1.8573 POWER TO SIXTY
-1.5563 POWER TO TRACTOR
-1.3802 POWER TO WARP
-1.8573 POWER TO ZERO
-0.3010 RAISE SHIELDS </s>
-0.3010 RAMMING SPEED </s>
-0.3010 RAMMING VELOCITY </s>
-0.3010 RANGE SCAN </s>
-0.3010 RANGE SCANNER </s>
-0.3010 RED ALERT </s>
-0.3010 REVERSE ENGINES </s>
-0.3010 REVERSE THE POLARITY
-0.3010 REVERSE THRUSTERS </s>
-0.3010 ROLL ANTI CLOCKWISE
-0.3010 ROLL CLOCKWISE </s>
-0.3010 ROLL COUNTER CLOCKWISE
-0.3010 ROLL LEFT </s>
-0.3010 ROLL RIGHT </s>
-1.6021 SCAN THE ASTEROID
-0.9031 SCAN THE CLOSEST
-1.6021 SCAN THE DERELICT
-0.9031 SCAN THE NEARBY
-0.9031 SCAN THE NEAREST
-1.6021 SCAN THE NEBULA
-1.6021 SCAN THE PLANET
-1.6021 SCAN THE SHIP
-0.3010 SCIENCE ON SCREEN
-0.3010 SCIENCE SCREEN </s>
-1.6021 SELECT THE ASTEROID
-0.9031 SELECT THE CLOSEST
-1.6021 SELECT THE DERELICT
-0.9031 SELECT THE NEARBY
-0.9031 SELECT THE NEAREST
-1.6021 SELECT THE NEBULA
-1.6021 SELECT THE PLANET
-1.6021 SELECT THE SHIP
-0.3010 SENSOR COOLANT TO
-0.3010 SENSOR POWER TO
-0.3010 SET A COURSE
-0.6021 SET COMMS COOLANT
-0.6021 SET COMMS POWER
-0.6021 SET COMMUNICATIONS COOLANT
-0.6021 SET COMMUNICATIONS POWER
-0.3010 SET IMPULSE DRIVE
-0.6021 SET MANEUVERING COOLANT
-0.6021 SET MANEUVERING POWER
-0.6021 SET PHASER COOLANT
-0.6021 SET PHASER POWER
-0.6021 SET SENSOR COOLANT
-0.6021 SET SENSOR POWER
-0.7782 SET SHIELDS COOLANT
-0.7782 SET SHIELDS POWER
-0.7782 SET SHIELDS TO
-0.3010 SET THROTTLE TO
-0.3010 SET TRACTOR BEAM
-0.3010 SET WARP DRIVE
-0.3010 SEVENTY PERCENT </s>
-0.3010 SHIELDS COOLANT TO
-0.3010 SHIELDS DOWN </s>
-0.3010 SHIELDS POWER TO
-0.3010 SHIELDS TO </s>
-0.3010 SHIELDS UP </s>
-0.7782 SHORT RANGE </s>
-0.7782 SHORT RANGE SCAN
-0.7782 SHORT RANGE SCANNER
-0.3010 SIXTY PERCENT </s>
-0.3010 SPEED AHEAD </s>
-0.3010 STANDARD ORBIT </s>
-0.3010 STAR BASE </s>
-0.3010 STATUS REPORT </s>
-0.3010 STOP RED ALERT
-0.3010 TELL ME ABOUT
-0.3010 TEN PERCENT </s>
-0.3010 THE ASTEROID </s>
-1.0000 THE CLOSEST ASTEROID
-1.0000 THE CLOSEST DERELICT
-1.0000 THE CLOSEST NEBULA
-1.0000 THE CLOSEST PLANET
-1.0000 THE CLOSEST SHIP
-0.3010 THE DERELICT </s>
-0.3010 THE DISTANCE TO
-0.6021 THE MINING BOT
-0.6021 THE MINING ROBOT
-1.0000 THE NEARBY ASTEROID
-1.0000 THE NEARBY DERELICT
-1.0000 THE NEARBY NEBULA
-1.0000 THE NEARBY PLANET
-1.0000 THE NEARBY SHIP
-1.0669 THE NEAREST ASTEROID
-1.5441 THE NEAREST DERELICT
-1.0669 THE NEAREST NEBULA
-0.9420 THE NEAREST PLANET
-1.2430 THE NEAREST SHIP
-1.3680 THE NEAREST STAR
-1.3680 THE NEAREST WARP
-1.3680 THE NEAREST WORM
-0.3010 THE NEBULA </s>
-0.3010 THE PLANET </s>
-0.3010 THE POLARITY </s>
-0.3010 THE SHIP </s>
-0.3010 THE WARP CORE
-0.3010 THIRTY PERCENT </s>
-0.3010 THREE QUARTERS </s>
-0.3010 THROTTLE TO </s>
-0.3010 TO A HUNDRED
-0.3010 TO EIGHTY </s>
-0.5229 TO IMPULSE </s>
-0.6990 TO IMPULSE DRIVE
-0.3010 TO MANEUVERING </s>
-0.3010 TO NINETY </s>
-0.3010 TO ONE HUNDRED
-0.3010 TO PHASERS </s>
-0.3010 TO SENSORS </s>
-0.3010 TO SEVENTY </s>
-0.3010 TO SHIELDS </s>
-0.3010 TO SIXTY </s>
-0.3010 TO THE NEAREST
-0.3010 TO TRACTOR BEAM
-0.7782 TO WARP </s>
-0.4771 TO WARP DRIVE
-0.3010 TO ZERO </s>
-0.6021 TRACTOR BEAM </s>
-0.9031 TRACTOR BEAM COOLANT
-0.9031 TRACTOR BEAM POWER
-0.3010 TURN ANTI CLOCKWISE
-0.3010 TURN CLOCKWISE </s>
-0.3010 TURN COUNTER CLOCKWISE
-0.3010 TURN DOWN </s>
-0.3010 TURN LEFT </s>
-0.3010 TURN RIGHT </s>
-0.3010 TURN TOWARDS </s>
-0.3010 TURN UP </s>
-0.3010 TWENTY FIVE PERCENT
-0.3010 TWENTY PERCENT </s>
-0.3010 TWO THIRDS </s>
-0.3010 VIEW ON SCREEN
-0.3010 VIEW SCREEN </s>
-0.3010 WARP CORE </s>
-0.4771 WARP DRIVE </s>
-1.2553 WARP DRIVE COOLANT
-1.2553 WARP DRIVE POWER
-1.2553 WARP DRIVE TO
-0.3010 WARP GATE </s>
-0.3010 WEAPON SCREEN </s>
-0.3010 WEAPONS ON SCREEN
-0.3010 WORM HOLE </s>
-0.3010 ZOOM FIFTY </s>
-0.3010 ZOOM NINETY </s>
-0.3010 ZOOM ONE HUNDRED
-0.3010 ZOOM THIRTY </s>
-0.3010 ZOOM TWENTY </s>
-0.3010 ZOOM ZERO </s>

\end\
