Language model created by QuickLM on Fri May 11 13:02:01 EDT 2018
Copyright (c) 1996-2010 Carnegie Mellon University and Alexander I. Rudnicky

The model is in standard ARPA format, designed by Doug Paul while he was at MITRE.

The code that was used to produce this language model is available in Open Source.
Please visit http://www.speech.cs.cmu.edu/tools/ for more information

The (fixed) discount mass is 0.5. The backoffs are computed using the ratio method.
This model based on a corpus of 537 sentences and 279 words

\data\
ngram 1=279
ngram 2=785
ngram 3=787

\1-grams:
-0.9538 </s> -0.3010
-0.9538 <s> -0.1704
-2.2524 A -0.2981
-3.6838 ABOARD -0.2498
-3.6838 ABOUT -0.2498
-3.6838 ABOVE -0.2498
-3.6838 ACROSS -0.2498
-3.6838 ACTIVATE -0.2997
-3.2066 ACTUATE -0.2477
-3.6838 AFRICAN -0.2498
-3.6838 AFTER -0.2498
-3.3827 AGAIN -0.2498
-3.6838 AHEAD -0.2498
-3.3827 AIRSPEED -0.3007
-2.7807 ALERT -0.2498
-3.6838 ALL -0.2498
-3.6838 ALONGSIDE -0.2498
-3.3827 AN -0.2496
-3.6838 AND -0.2498
-3.2066 ANTI -0.3001
-3.6838 ANTI-CLOCKWISE -0.2498
-3.6838 ANTICLOCKWISE -0.2498
-3.6838 AROUND -0.2498
-2.5376 ASTEROID -0.2498
-3.6838 AT -0.2498
-3.6838 ATOP -0.2498
-3.6838 BACK -0.2498
-3.6838 BACKWARD -0.2498
-3.6838 BACKWARDS -0.2498
-3.0817 BASE -0.2498
-3.6838 BE -0.2498
-2.7807 BEAM -0.2433
-3.6838 BEFORE -0.2498
-3.6838 BEHIND -0.2498
-3.6838 BELOW -0.2498
-3.6838 BENEATH -0.2498
-3.6838 BESIDE -0.2498
-3.6838 BESIDES -0.2498
-3.6838 BETWEEN -0.2498
-3.6838 BOOST -0.2498
-3.2066 BOT -0.2498
-3.6838 BY -0.2498
-2.9848 CALCULATE -0.2391
-3.6838 CANCEL -0.3003
-3.6838 CHARGE -0.2498
-2.6838 CLOCKWISE -0.2498
-3.6838 CLOSE -0.2498
-2.6424 CLOSEST -0.2430
-3.6838 CODE -0.2498
-3.6838 COME -0.3009
-2.9848 COMMS -0.2402
-2.9848 COMMUNICATIONS -0.2402
-3.2066 COMPUTE -0.2391
-3.6838 COMPUTER -0.2498
-2.3615 COOLANT -0.2426
-3.6838 COOLING -0.2498
-3.3827 CORE -0.2498
-3.2066 COUNTER -0.3001
-3.6838 COUNTER-CLOCKWISE -0.2498
-3.6838 COUNTERCLOCKWISE -0.2498
-2.2524 COURSE -0.2466
-2.6838 CUT -0.2454
-3.3827 DAMAGE -0.2495
-3.3827 DEACTIVATE -0.2492
-3.6838 DECREASE -0.2498
-3.6838 DEENERGIZE -0.2498
-2.7807 DEGREES -0.2459
-3.2066 DEPLOY -0.2391
-2.7295 DERELICT -0.2498
-3.6838 DESCRIBE -0.2498
-3.6838 DESTRUCT -0.2498
-3.6838 DETAIL -0.2498
-3.6838 DETAILS -0.2498
-3.6838 DID -0.3009
-3.6838 DISABLE -0.2498
-3.3827 DISENGAGE -0.2492
-2.6838 DISTANCE -0.2426
-3.0817 DO -0.2495
-2.9056 DOCKING -0.2492
-2.7807 DOWN -0.2382
-2.4796 DRIVE -0.2359
-3.6838 DURING -0.2498
-3.6838 EIGHT -0.2498
-3.6838 EIGHTEEN -0.2498
-3.2066 EIGHTY -0.2484
-3.3827 EJECT -0.2391
-3.6838 ELEVEN -0.2498
-3.6838 ENEMY -0.2498
-3.2066 ENERGIZE -0.2477
-3.6838 ENERGY -0.2498
-3.2066 ENGAGE -0.2477
-3.2066 ENGINEERING -0.2468
-3.6838 ENGINES -0.2498
-3.3827 ENOUGH -0.2494
-3.6838 ENTER -0.3007
-3.6838 EUROPEAN -0.2498
-3.6838 EVERYTHING -0.2498
-3.6838 EXCEPT -0.2498
-3.2066 EXTERIOR -0.2996
-3.6838 FACTOR -0.2498
-3.3827 FAR -0.2498
-3.3827 FIFTEEN -0.2484
-3.2066 FIFTY -0.2484
-3.2066 FIGURE -0.2391
-3.2066 FIVE -0.2484
-2.1786 FOR -0.2382
-3.3827 FORTY -0.2484
-3.6838 FORWARD -0.2498
-3.6838 FOUR -0.2498
-3.6838 FOURTEEN -0.2498
-3.6838 FROM -0.2498
-3.0817 FUEL -0.2494
-2.4050 FULL -0.2426
-2.9848 GATE -0.2498
-3.6838 HALF -0.2498
-3.0817 HAVE -0.2494
-2.9848 HEAD -0.2981
-3.2066 HOLE -0.2498
-3.2066 HOW -0.2495
-3.6838 HUH -0.2498
-3.6838 HULL -0.2498
-2.9056 HUNDRED -0.2484
-2.6424 IMPULSE -0.2482
-2.7295 IN -0.2471
-2.9848 INCREASE -0.2433
-3.6838 INSIDE -0.2498
-3.2066 IS -0.2391
-3.6838 IT -0.2498
-3.2066 LAUNCH -0.2391
-2.7295 LAY -0.2489
-3.3827 LEAVE -0.3002
-3.0817 LEFT -0.2498
-3.6838 LEVEL -0.2498
-2.9848 LIFE -0.3006
-2.4796 LIGHTS -0.2466
-3.0817 LONG -0.2491
-3.3827 LOWER -0.2488
-3.6838 MAGNETS -0.2498
-3.2066 MAIN -0.2495
-2.9056 MANEUVERING -0.2433
-3.6838 MANUEVERING -0.2498
-2.9848 MAX -0.2433
-2.8387 MAXIMUM -0.2433
-3.6838 ME -0.3009
-2.9848 MINING -0.2492
-3.6838 MUCH -0.3007
-3.3827 NAVIGATE -0.2426
-3.2066 NAVIGATION -0.2468
-2.6424 NEARBY -0.2430
-2.0710 NEAREST -0.2399
-2.5698 NEBULA -0.2498
-3.6838 NINE -0.2498
-3.6838 NINETEEN -0.2498
-2.9848 NINETY -0.2484
-3.3827 OF -0.2496
-2.6424 OFF -0.2363
-2.5077 ON -0.2347
-2.7807 ONE -0.2489
-3.6838 ONTO -0.2498
-3.6838 OR -0.2498
-2.9848 ORBIT -0.2498
-2.9056 OUT -0.2371
-3.6838 OUTSIDE -0.2498
-3.6838 PATH -0.2498
-2.5376 PERCENT -0.2498
-3.2066 PHASER -0.2433
-3.2066 PHASERS -0.2498
-2.8387 PITCH -0.2479
-2.4285 PLANET -0.2498
-2.7295 PLOT -0.2471
-3.6838 POLARITY -0.2498
-3.6838 PORT -0.2498
-2.0503 POWER -0.2426
-3.6838 QUARTER -0.2498
-3.6838 QUARTERS -0.2498
-3.6838 QUICKLY -0.2498
-3.6838 RADIATION -0.2498
-3.3827 RAISE -0.2488
-3.3827 RAMMING -0.3004
-2.8387 RANGE -0.2472
-3.6838 RAPIDLY -0.2498
-2.7807 RED -0.2490
-3.3827 REPEAT -0.2497
-3.2066 REPORT -0.2498
-3.0817 REVERSE -0.2388
-3.0817 RIGHT -0.2498
-3.2066 ROBOT -0.2498
-2.9056 ROLL -0.2474
-3.6838 ROTATE -0.2498
-3.6838 ROUTE -0.2498
-3.3827 SAY -0.2496
-2.3220 SCAN -0.2391
-3.2066 SCANNER -0.2498
-3.6838 SCANNERS -0.2498
-3.2066 SCIENCE -0.2468
-2.5077 SCREEN -0.2498
-2.3615 SELECT -0.2391
-2.6424 SELECTED -0.2951
-3.6838 SELECTION -0.2498
-3.6838 SELF -0.2498
-3.2066 SENSOR -0.2433
-3.2066 SENSORS -0.2498
-3.6838 SEQUENCE -0.2498
-2.1397 SET -0.2395
-3.6838 SEVEN -0.2498
-3.6838 SEVENTEEN -0.2498
-3.2066 SEVENTY -0.2484
-3.6838 SHIELD -0.2498
-2.6838 SHIELDS -0.2344
-2.5698 SHIP -0.2498
-3.0817 SHORT -0.2491
-2.9056 SHUT -0.2479
-3.6838 SHUTDOWN -0.2498
-3.6838 SIX -0.2498
-3.6838 SIXTEEN -0.2498
-3.2066 SIXTY -0.2484
-3.6838 SLOWLY -0.2498
-3.6838 SOLAR -0.2498
-3.6838 SPACE -0.2498
-3.2066 SPEED -0.2497
-3.0817 STANDARD -0.2493
-3.0817 STAR -0.2494
-3.6838 STARBOARD -0.2498
-3.6838 START -0.2498
-3.6838 STATION -0.2498
-3.3827 STATUS -0.2495
-3.2066 STOP -0.2490
-3.3827 SUFFICIENT -0.2494
-2.9848 SUPPORT -0.2433
-3.3827 SWALLOW -0.2498
-3.6838 SWIFTLY -0.2498
-2.9056 SYSTEM -0.2498
-2.8387 TARGET -0.2498
-3.6838 TELL -0.3009
-3.3827 TEN -0.2484
-3.6838 THAT -0.2498
-1.6626 THE -0.2285
-3.6838 THEM -0.2498
-3.6838 THEN -0.2498
-3.6838 THIRD -0.2498
-3.6838 THIRDS -0.2498
-3.6838 THIRTEEN -0.2498
-3.2066 THIRTY -0.2484
-3.6838 THOUSAND -0.2498
-3.3827 THREE -0.2497
-3.2066 THROTTLE -0.2426
-3.6838 THROUGH -0.2498
-3.6838 THROUGHOUT -0.2498
-3.6838 THRUSTER -0.2498
-3.3827 THRUSTERS -0.2498
-1.8325 TO -0.2271
-3.6838 TORPEDO -0.2498
-3.6838 TOWARD -0.2498
-3.3827 TOWARDS -0.2498
-2.7807 TRACTOR -0.2490
-2.2366 TURN -0.2424
-3.6838 TWELVE -0.2498
-3.0817 TWENTY -0.2481
-3.3827 TWO -0.2497
-3.6838 UNDER -0.2498
-3.3827 UNLADEN -0.3009
-3.6838 UNTIL -0.2498
-2.8387 UP -0.2391
-3.0817 VELOCITY -0.2496
-3.2066 VIEW -0.2468
-2.5077 WARP -0.2475
-3.6838 WAVELENGTH -0.2498
-2.7807 WAYPOINT -0.2498
-3.2066 WE -0.3007
-3.6838 WEAPON -0.2997
-3.3827 WEAPONS -0.2483
-2.9056 WHAT -0.2494
-3.6838 WILL -0.2498
-3.6838 WITH -0.2498
-3.2066 WORM -0.3008
-3.6838 YAW -0.2498
-3.6838 YOU -0.3009
-3.0817 ZERO -0.2498
-2.8387 ZOOM -0.2471

\2-grams:
-3.0310 <s> ABOARD 0.0000
-3.0310 <s> ABOVE 0.0000
-3.0310 <s> ACROSS 0.0000
-3.0310 <s> ACTIVATE 0.0000
-2.5539 <s> ACTUATE 0.0000
-3.0310 <s> AFRICAN 0.0000
-3.0310 <s> AFTER 0.0000
-3.0310 <s> AIRSPEED 0.0000
-3.0310 <s> ALERT 0.0000
-3.0310 <s> ALL 0.0000
-3.0310 <s> ALONGSIDE 0.0000
-3.0310 <s> AN -0.1761
-3.0310 <s> AND 0.0000
-3.0310 <s> ANTI-CLOCKWISE 0.0000
-3.0310 <s> ANTICLOCKWISE 0.0000
-3.0310 <s> AROUND 0.0000
-3.0310 <s> ASTEROID 0.0000
-3.0310 <s> AT 0.0000
-3.0310 <s> ATOP 0.0000
-3.0310 <s> BASE 0.0000
-3.0310 <s> BE 0.0000
-3.0310 <s> BEAM -0.0969
-3.0310 <s> BEFORE 0.0000
-3.0310 <s> BEHIND 0.0000
-3.0310 <s> BELOW 0.0000
-3.0310 <s> BENEATH 0.0000
-3.0310 <s> BESIDE 0.0000
-3.0310 <s> BESIDES 0.0000
-3.0310 <s> BETWEEN 0.0000
-3.0310 <s> BOOST 0.0000
-3.0310 <s> BOT 0.0000
-3.0310 <s> BY 0.0000
-2.3320 <s> CALCULATE 0.0000
-3.0310 <s> CANCEL 0.0000
-3.0310 <s> CHARGE 0.0000
-3.0310 <s> CLOCKWISE 0.0000
-3.0310 <s> CLOSE 0.0000
-3.0310 <s> CLOSEST -0.2808
-3.0310 <s> CODE 0.0000
-3.0310 <s> COME 0.0000
-2.5539 <s> COMMS -0.1461
-2.5539 <s> COMMUNICATIONS -0.1461
-2.5539 <s> COMPUTE 0.0000
-3.0310 <s> COMPUTER 0.0000
-2.3320 <s> COOLANT 0.0000
-3.0310 <s> COOLING 0.0000
-3.0310 <s> CORE 0.0000
-3.0310 <s> COUNTER-CLOCKWISE 0.0000
-3.0310 <s> COUNTERCLOCKWISE 0.0000
-3.0310 <s> COURSE -0.2929
-2.0310 <s> CUT 0.0000
-2.7300 <s> DAMAGE 0.0000
-2.7300 <s> DEACTIVATE 0.0000
-3.0310 <s> DECREASE 0.0000
-3.0310 <s> DEENERGIZE 0.0000
-2.1279 <s> DEGREES 0.0000
-2.5539 <s> DEPLOY 0.0000
-3.0310 <s> DERELICT 0.0000
-3.0310 <s> DESCRIBE 0.0000
-3.0310 <s> DESTRUCT 0.0000
-3.0310 <s> DETAIL 0.0000
-3.0310 <s> DETAILS 0.0000
-3.0310 <s> DISABLE 0.0000
-2.7300 <s> DISENGAGE 0.0000
-3.0310 <s> DISTANCE -0.2553
-2.5539 <s> DO 0.0000
-3.0310 <s> DOCKING -0.2632
-3.0310 <s> DOWN -0.1383
-3.0310 <s> DRIVE -0.1383
-3.0310 <s> DURING 0.0000
-3.0310 <s> EIGHT 0.0000
-3.0310 <s> EIGHTEEN 0.0000
-2.7300 <s> EIGHTY 0.0000
-2.7300 <s> EJECT 0.0000
-3.0310 <s> ELEVEN 0.0000
-3.0310 <s> ENEMY 0.0000
-2.5539 <s> ENERGIZE 0.0000
-3.0310 <s> ENERGY 0.0000
-2.5539 <s> ENGAGE 0.0000
-2.5539 <s> ENGINEERING 0.0000
-3.0310 <s> ENOUGH -0.1761
-3.0310 <s> ENTER 0.0000
-3.0310 <s> EUROPEAN 0.0000
-3.0310 <s> EVERYTHING 0.0000
-3.0310 <s> EXCEPT 0.0000
-3.0310 <s> FACTOR 0.0000
-3.0310 <s> FAR 0.0000
-2.7300 <s> FIFTEEN 0.0000
-2.7300 <s> FIFTY 0.0000
-2.5539 <s> FIGURE 0.0000
-2.7300 <s> FIVE 0.0000
-3.0310 <s> FOR -0.2942
-2.7300 <s> FORTY 0.0000
-3.0310 <s> FOUR 0.0000
-3.0310 <s> FOURTEEN 0.0000
-3.0310 <s> FROM 0.0000
-3.0310 <s> FUEL -0.0969
-1.7523 <s> FULL 0.0000
-3.0310 <s> GATE 0.0000
-3.0310 <s> HAVE -0.1761
-2.3320 <s> HEAD 0.0000
-2.5539 <s> HOW 0.0000
-3.0310 <s> HUH 0.0000
-3.0310 <s> HULL 0.0000
-3.0310 <s> HUNDRED -0.0669
-3.0310 <s> IMPULSE -0.1891
-3.0310 <s> IN -0.2762
-2.3320 <s> INCREASE 0.0000
-3.0310 <s> INSIDE 0.0000
-3.0310 <s> IT 0.0000
-2.5539 <s> LAUNCH 0.0000
-2.0768 <s> LAY 0.0000
-2.7300 <s> LEAVE 0.0000
-3.0310 <s> LEFT 0.0000
-3.0310 <s> LEVEL 0.0000
-3.0310 <s> LIFE 0.0000
-2.5539 <s> LIGHTS -0.2583
-2.4289 <s> LONG 0.0000
-2.7300 <s> LOWER 0.0000
-3.0310 <s> MAGNETS 0.0000
-2.5539 <s> MAIN 0.0000
-3.0310 <s> MANEUVERING -0.1249
-3.0310 <s> MANUEVERING 0.0000
-2.3320 <s> MAX 0.0000
-2.1859 <s> MAXIMUM 0.0000
-3.0310 <s> MINING -0.2553
-2.7300 <s> NAVIGATE 0.0000
-2.5539 <s> NAVIGATION 0.0000
-3.0310 <s> NEARBY -0.2808
-3.0310 <s> NEAREST -0.2957
-3.0310 <s> NEBULA 0.0000
-3.0310 <s> NINE 0.0000
-3.0310 <s> NINETEEN 0.0000
-2.7300 <s> NINETY 0.0000
-3.0310 <s> OF -0.1761
-3.0310 <s> OFF -0.2374
-3.0310 <s> ON -0.2553
-2.3320 <s> ONE 0.0000
-3.0310 <s> ONTO 0.0000
-3.0310 <s> OR 0.0000
-3.0310 <s> ORBIT 0.0000
-3.0310 <s> OUT -0.1761
-3.0310 <s> OUTSIDE 0.0000
-3.0310 <s> PATH 0.0000
-3.0310 <s> PERCENT 0.0000
-3.0310 <s> PHASER -0.2218
-3.0310 <s> PHASERS 0.0000
-2.1859 <s> PITCH -0.0000
-3.0310 <s> PLANET 0.0000
-2.0768 <s> PLOT 0.0000
-3.0310 <s> PORT 0.0000
-2.1859 <s> POWER 0.0000
-3.0310 <s> QUICKLY 0.0000
-3.0310 <s> RADIATION 0.0000
-2.7300 <s> RAISE 0.0000
-2.7300 <s> RAMMING 0.0000
-3.0310 <s> RANGE -0.1963
-3.0310 <s> RAPIDLY 0.0000
-2.7300 <s> RED 0.0000
-2.7300 <s> REPEAT 0.0000
-3.0310 <s> REPORT 0.0000
-2.5539 <s> REVERSE -0.0969
-3.0310 <s> RIGHT 0.0000
-3.0310 <s> ROBOT 0.0000
-2.2529 <s> ROLL 0.0000
-3.0310 <s> ROTATE 0.0000
-3.0310 <s> ROUTE 0.0000
-3.0310 <s> SAY -0.1761
-1.7088 <s> SCAN 0.0000
-3.0310 <s> SCANNER 0.0000
-3.0310 <s> SCANNERS 0.0000
-2.5539 <s> SCIENCE 0.0000
-3.0310 <s> SCREEN 0.0000
-1.7088 <s> SELECT 0.0000
-2.3320 <s> SELECTED -0.0378
-3.0310 <s> SELF 0.0000
-3.0310 <s> SENSOR -0.2218
-3.0310 <s> SEQUENCE 0.0000
-1.4869 <s> SET 0.0000
-3.0310 <s> SEVEN 0.0000
-3.0310 <s> SEVENTEEN 0.0000
-2.7300 <s> SEVENTY 0.0000
-3.0310 <s> SHIELD 0.0000
-2.5539 <s> SHIELDS -0.1139
-3.0310 <s> SHIP 0.0000
-2.4289 <s> SHORT 0.0000
-2.2529 <s> SHUT 0.0000
-3.0310 <s> SHUTDOWN 0.0000
-3.0310 <s> SIX 0.0000
-3.0310 <s> SIXTEEN 0.0000
-2.7300 <s> SIXTY 0.0000
-3.0310 <s> SLOWLY 0.0000
-3.0310 <s> SOLAR 0.0000
-3.0310 <s> SPACE 0.0000
-2.7300 <s> STANDARD 0.0000
-3.0310 <s> STAR -0.2430
-3.0310 <s> STARBOARD 0.0000
-3.0310 <s> START 0.0000
-3.0310 <s> STATION 0.0000
-2.7300 <s> STATUS 0.0000
-2.7300 <s> STOP 0.0000
-3.0310 <s> SUFFICIENT -0.1761
-3.0310 <s> SWIFTLY 0.0000
-3.0310 <s> SYSTEM 0.0000
-3.0310 <s> TARGET 0.0000
-3.0310 <s> TELL 0.0000
-2.7300 <s> TEN 0.0000
-2.3320 <s> THE -0.2067
-3.0310 <s> THEM 0.0000
-3.0310 <s> THEN 0.0000
-3.0310 <s> THIRTEEN 0.0000
-2.7300 <s> THIRTY 0.0000
-3.0310 <s> THOUSAND 0.0000
-2.7300 <s> THREE 0.0000
-3.0310 <s> THROTTLE -0.1249
-3.0310 <s> THROUGH 0.0000
-3.0310 <s> THROUGHOUT 0.0000
-3.0310 <s> THRUSTER 0.0000
-3.0310 <s> THRUSTERS 0.0000
-3.0310 <s> TO -0.1862
-3.0310 <s> TORPEDO 0.0000
-3.0310 <s> TOWARD 0.0000
-3.0310 <s> TOWARDS 0.0000
-3.0310 <s> TRACTOR -0.2730
-1.5838 <s> TURN 0.0000
-3.0310 <s> TWELVE 0.0000
-2.5539 <s> TWENTY 0.0000
-2.7300 <s> TWO 0.0000
-3.0310 <s> UNDER 0.0000
-3.0310 <s> UNLADEN 0.0000
-3.0310 <s> UNTIL 0.0000
-3.0310 <s> UP -0.0580
-3.0310 <s> VIEW -0.2218
-3.0310 <s> WARP -0.2711
-3.0310 <s> WAVELENGTH 0.0000
-3.0310 <s> WAYPOINT 0.0000
-3.0310 <s> WEAPON 0.0000
-2.7300 <s> WEAPONS 0.0000
-2.2529 <s> WHAT 0.0000
-3.0310 <s> WILL 0.0000
-3.0310 <s> WITH 0.0000
-3.0310 <s> YAW 0.0000
-3.0310 <s> ZERO 0.0000
-2.1859 <s> ZOOM -0.0000
-0.3174 A COURSE -0.0158
-1.7324 A HUNDRED -0.0669
-0.3010 ABOARD </s> -0.3010
-0.3010 ABOUT </s> -0.3010
-0.3010 ABOVE </s> -0.3010
-0.3010 ACROSS </s> -0.3010
-0.3010 ACTIVATE WARP -0.1461
-0.7782 ACTUATE </s> -0.3010
-0.7782 ACTUATE DOCKING -0.0669
-0.7782 ACTUATE WARP -0.1461
-0.3010 AFRICAN </s> -0.3010
-0.3010 AFTER </s> -0.3010
-0.3010 AGAIN </s> -0.3010
-0.3010 AHEAD </s> -0.3010
-0.3010 AIRSPEED VELOCITY 0.0000
-0.3010 ALERT </s> -0.3010
-0.3010 ALL </s> -0.3010
-0.3010 ALONGSIDE </s> -0.3010
-0.6021 AN </s> -0.3010
-0.6021 AN UNLADEN 0.0000
-0.3010 AND </s> -0.3010
-0.3010 ANTI CLOCKWISE 0.0000
-0.3010 ANTI-CLOCKWISE </s> -0.3010
-0.3010 ANTICLOCKWISE </s> -0.3010
-0.3010 AROUND </s> -0.3010
-0.3010 ASTEROID </s> -0.3010
-0.3010 AT </s> -0.3010
-0.3010 ATOP </s> -0.3010
-0.3010 BACK </s> -0.3010
-0.3010 BACKWARD </s> -0.3010
-0.3010 BACKWARDS </s> -0.3010
-0.3010 BASE </s> -0.3010
-0.3010 BE </s> -0.3010
-0.4260 BEAM </s> -0.3010
-1.2041 BEAM COOLANT -0.0580
-1.2041 BEAM POWER -0.0386
-0.3010 BEFORE </s> -0.3010
-0.3010 BEHIND </s> -0.3010
-0.3010 BELOW </s> -0.3010
-0.3010 BENEATH </s> -0.3010
-0.3010 BESIDE </s> -0.3010
-0.3010 BESIDES </s> -0.3010
-0.3010 BETWEEN </s> -0.3010
-0.3010 BOOST </s> -0.3010
-0.3010 BOT </s> -0.3010
-0.3010 BY </s> -0.3010
-1.0000 CALCULATE </s> -0.3010
-0.3979 CALCULATE THE -0.2820
-0.3010 CANCEL RED -0.0512
-0.3010 CHARGE </s> -0.3010
-0.3010 CLOCKWISE </s> -0.3010
-0.3010 CLOSE </s> -0.3010
-1.3424 CLOSEST </s> -0.3010
-1.0414 CLOSEST ASTEROID 0.0000
-1.0414 CLOSEST DERELICT 0.0000
-1.0414 CLOSEST NEBULA 0.0000
-1.0414 CLOSEST PLANET 0.0000
-1.0414 CLOSEST SHIP 0.0000
-0.3010 CODE </s> -0.3010
-0.3010 COME AGAIN 0.0000
-1.0000 COMMS </s> -0.3010
-1.0000 COMMS COOLANT -0.0580
-1.0000 COMMS ON -0.1856
-1.0000 COMMS POWER -0.0386
-1.0000 COMMS SCREEN 0.0000
-1.0000 COMMUNICATIONS </s> -0.3010
-1.0000 COMMUNICATIONS COOLANT -0.0580
-1.0000 COMMUNICATIONS ON -0.1856
-1.0000 COMMUNICATIONS POWER -0.0386
-1.0000 COMMUNICATIONS SCREEN 0.0000
-0.7782 COMPUTE </s> -0.3010
-0.4771 COMPUTE THE -0.2820
-0.3010 COMPUTER </s> -0.3010
-1.1461 COOLANT </s> -0.3010
-0.3680 COOLANT TO -0.1310
-0.3010 COOLING </s> -0.3010
-0.3010 CORE </s> -0.3010
-0.3010 COUNTER CLOCKWISE 0.0000
-0.3010 COUNTER-CLOCKWISE </s> -0.3010
-0.3010 COUNTERCLOCKWISE </s> -0.3010
-1.7324 COURSE </s> -0.3010
-0.3174 COURSE FOR -0.0134
-1.3010 CUT </s> -0.3010
-0.3468 CUT POWER -0.0386
-0.6021 DAMAGE </s> -0.3010
-0.6021 DAMAGE REPORT 0.0000
-0.6021 DEACTIVATE </s> -0.3010
-0.6021 DEACTIVATE DOCKING -0.0669
-0.3010 DECREASE </s> -0.3010
-0.3010 DEENERGIZE </s> -0.3010
-1.2041 DEGREES </s> -0.3010
-1.2041 DEGREES ANTI 0.0000
-1.2041 DEGREES CLOCKWISE 0.0000
-1.2041 DEGREES COUNTER 0.0000
-1.2041 DEGREES DOWN -0.1383
-1.2041 DEGREES LEFT 0.0000
-1.2041 DEGREES RIGHT 0.0000
-1.2041 DEGREES UP -0.0580
-0.7782 DEPLOY </s> -0.3010
-0.4771 DEPLOY THE -0.2927
-0.3010 DERELICT </s> -0.3010
-0.3010 DESCRIBE </s> -0.3010
-0.3010 DESTRUCT </s> -0.3010
-0.3010 DETAIL </s> -0.3010
-0.3010 DETAILS </s> -0.3010
-0.3010 DID YOU 0.0000
-0.3010 DISABLE </s> -0.3010
-0.6021 DISENGAGE </s> -0.3010
-0.6021 DISENGAGE DOCKING -0.0669
-1.0000 DISTANCE </s> -0.3010
-0.3979 DISTANCE TO -0.1616
-0.9031 DO </s> -0.3010
-0.4260 DO WE 0.0000
-1.0792 DOCKING </s> -0.3010
-0.3802 DOCKING SYSTEM 0.0000
-0.5051 DOWN </s> -0.3010
-1.2041 DOWN RED -0.0512
-0.9031 DOWN THE -0.2863
-0.5051 DRIVE </s> -0.3010
-1.2041 DRIVE COOLANT -0.0580
-1.2041 DRIVE POWER -0.0386
-1.2041 DRIVE TO -0.1862
-0.3010 DURING </s> -0.3010
-0.3010 EIGHT </s> -0.3010
-0.3010 EIGHTEEN </s> -0.3010
-0.4771 EIGHTY </s> -0.3010
-0.7782 EIGHTY PERCENT 0.0000
-0.6021 EJECT </s> -0.3010
-0.6021 EJECT THE -0.2990
-0.3010 ELEVEN </s> -0.3010
-0.3010 ENEMY </s> -0.3010
-0.7782 ENERGIZE </s> -0.3010
-0.7782 ENERGIZE DOCKING -0.0669
-0.7782 ENERGIZE WARP -0.1461
-0.3010 ENERGY </s> -0.3010
-0.7782 ENGAGE </s> -0.3010
-0.7782 ENGAGE DOCKING -0.0669
-0.7782 ENGAGE WARP -0.1461
-0.7782 ENGINEERING </s> -0.3010
-0.7782 ENGINEERING ON -0.1856
-0.7782 ENGINEERING SCREEN 0.0000
-0.3010 ENGINES </s> -0.3010
-0.6021 ENOUGH </s> -0.3010
-0.6021 ENOUGH FUEL -0.0969
-0.3010 ENTER STANDARD -0.0969
-0.3010 EUROPEAN </s> -0.3010
-0.3010 EVERYTHING </s> -0.3010
-0.3010 EXCEPT </s> -0.3010
-0.3010 EXTERIOR LIGHTS -0.0746
-0.3010 FACTOR </s> -0.3010
-0.3010 FAR </s> -0.3010
-0.6021 FIFTEEN </s> -0.3010
-0.6021 FIFTEEN PERCENT 0.0000
-0.4771 FIFTY </s> -0.3010
-0.7782 FIFTY PERCENT 0.0000
-0.7782 FIGURE </s> -0.3010
-0.4771 FIGURE THE -0.2820
-0.7782 FIVE </s> -0.3010
-0.4771 FIVE PERCENT 0.0000
-1.8062 FOR </s> -0.3010
-0.3590 FOR THE -0.1883
-1.3291 FOR WAYPOINT 0.0000
-0.6021 FORTY </s> -0.3010
-0.6021 FORTY PERCENT 0.0000
-0.3010 FORWARD </s> -0.3010
-0.3010 FOUR </s> -0.3010
-0.3010 FOURTEEN </s> -0.3010
-0.3010 FROM </s> -0.3010
-0.4260 FUEL </s> -0.3010
-0.9031 FUEL DO -0.0969
-1.5798 FULL </s> -0.3010
-1.2788 FULL IMPULSE 0.0000
-0.5798 FULL POWER 0.0000
-1.5798 FULL REVERSE -0.2430
-1.2788 FULL SPEED 0.0000
-1.5798 FULL STOP -0.1249
-1.5798 FULL THROTTLE -0.1249
-1.5798 FULL VELOCITY -0.0969
-0.3010 GATE </s> -0.3010
-0.3010 HALF </s> -0.3010
-0.6021 HAVE </s> -0.3010
-0.9031 HAVE ENOUGH -0.1761
-0.9031 HAVE SUFFICIENT -0.1761
-0.3010 HEAD FOR -0.0512
-0.3010 HOLE </s> -0.3010
-0.7782 HOW </s> -0.3010
-0.7782 HOW FAR 0.0000
-0.7782 HOW MUCH 0.0000
-0.3010 HUH </s> -0.3010
-0.3010 HULL </s> -0.3010
-0.3802 HUNDRED </s> -0.3010
-1.0792 HUNDRED PERCENT 0.0000
-0.6435 IMPULSE </s> -0.3010
-0.5643 IMPULSE DRIVE 0.0000
-1.2553 IN </s> -0.3010
-0.3522 IN A -0.0158
-1.0000 INCREASE </s> -0.3010
-0.6990 INCREASE COOLANT -0.0580
-0.6990 INCREASE POWER -0.0386
-0.3010 INSIDE </s> -0.3010
-0.7782 IS </s> -0.3010
-0.4771 IS THE -0.2798
-0.3010 IT </s> -0.3010
-0.7782 LAUNCH </s> -0.3010
-0.4771 LAUNCH THE -0.2927
-1.2553 LAY </s> -0.3010
-0.3522 LAY IN -0.0458
-0.6021 LEAVE ORBIT 0.0000
-0.6021 LEAVE STANDARD -0.0969
-0.3010 LEFT </s> -0.3010
-0.3010 LEVEL </s> -0.3010
-0.3010 LIFE SUPPORT 0.0000
-0.3912 LIGHTS </s> -0.3010
-1.5051 LIGHTS OFF -0.2374
-1.5051 LIGHTS ON -0.2553
-1.5051 LIGHTS OUT -0.1761
-0.9031 LONG </s> -0.3010
-0.4260 LONG RANGE 0.0000
-0.6021 LOWER </s> -0.3010
-0.6021 LOWER SHIELDS -0.1761
-0.3010 MAGNETS </s> -0.3010
-0.7782 MAIN </s> -0.3010
-0.4771 MAIN VIEW -0.1249
-0.4771 MANEUVERING </s> -0.3010
-1.0792 MANEUVERING COOLANT -0.0580
-1.0792 MANEUVERING POWER -0.0386
-0.3010 MANUEVERING </s> -0.3010
-1.0000 MAX </s> -0.3010
-0.6990 MAX COOLANT 0.0000
-0.6990 MAX POWER 0.0000
-0.8451 MAXIMUM </s> -0.3010
-0.8451 MAXIMUM COOLANT 0.0000
-0.6690 MAXIMUM POWER 0.0000
-0.3010 ME ABOUT 0.0000
-1.0000 MINING </s> -0.3010
-0.6990 MINING BOT 0.0000
-0.6990 MINING ROBOT 0.0000
-0.3010 MUCH FUEL -0.2430
-0.6021 NAVIGATE </s> -0.3010
-0.6021 NAVIGATE TO -0.2823
-0.7782 NAVIGATION </s> -0.3010
-0.7782 NAVIGATION ON -0.1856
-0.7782 NAVIGATION SCREEN 0.0000
-1.3424 NEARBY </s> -0.3010
-1.0414 NEARBY ASTEROID 0.0000
-1.0414 NEARBY DERELICT 0.0000
-1.0414 NEARBY NEBULA 0.0000
-1.0414 NEARBY PLANET 0.0000
-1.0414 NEARBY SHIP 0.0000
-1.9138 NEAREST </s> -0.3010
-1.1357 NEAREST ASTEROID 0.0000
-1.6128 NEAREST DERELICT 0.0000
-1.1357 NEAREST NEBULA 0.0000
-0.9596 NEAREST PLANET 0.0000
-1.2148 NEAREST SHIP 0.0000
-1.4367 NEAREST STAR -0.0969
-1.4367 NEAREST WARP -0.2553
-1.4367 NEAREST WAYPOINT 0.0000
-1.4367 NEAREST WORM 0.0000
-0.3010 NEBULA </s> -0.3010
-0.3010 NINE </s> -0.3010
-0.3010 NINETEEN </s> -0.3010
-0.3979 NINETY </s> -0.3010
-1.0000 NINETY PERCENT 0.0000
-0.6021 OF </s> -0.3010
-0.6021 OF AN -0.1761
-0.8653 OFF </s> -0.3010
-1.3424 OFF EXTERIOR 0.0000
-1.3424 OFF LIGHTS -0.0746
-1.0414 OFF RED -0.0512
-0.7404 OFF THE -0.2798
-1.0000 ON </s> -0.3010
-1.4771 ON EXTERIOR 0.0000
-1.4771 ON LIGHTS -0.0746
-1.4771 ON RED -0.0512
-0.6320 ON SCREEN 0.0000
-1.1761 ON THE -0.2798
-1.2041 ONE </s> -0.3010
-1.2041 ONE HALF 0.0000
-0.6021 ONE HUNDRED 0.0000
-1.2041 ONE QUARTER 0.0000
-1.2041 ONE THIRD 0.0000
-0.3010 ONTO </s> -0.3010
-0.3010 OR </s> -0.3010
-0.3010 ORBIT </s> -0.3010
-0.6021 OUT </s> -0.3010
-1.0792 OUT EXTERIOR 0.0000
-1.0792 OUT LIGHTS -0.0746
-1.0792 OUT THE -0.2863
-0.3010 OUTSIDE </s> -0.3010
-0.3010 PATH </s> -0.3010
-0.3010 PERCENT </s> -0.3010
-0.7782 PHASER </s> -0.3010
-0.7782 PHASER COOLANT -0.0580
-0.7782 PHASER POWER -0.0386
-0.3010 PHASERS </s> -0.3010
-1.1461 PITCH </s> -0.3010
-1.1461 PITCH BACK 0.0000
-1.1461 PITCH BACKWARD 0.0000
-1.1461 PITCH BACKWARDS 0.0000
-1.1461 PITCH DOWN -0.1383
-1.1461 PITCH FORWARD 0.0000
-1.1461 PITCH UP -0.0580
-0.3010 PLANET </s> -0.3010
-1.2553 PLOT </s> -0.3010
-0.3522 PLOT A -0.0158
-0.3010 POLARITY </s> -0.3010
-0.3010 PORT </s> -0.3010
-1.3324 POWER </s> -0.3010
-0.3434 POWER TO -0.0408
-0.3010 QUARTER </s> -0.3010
-0.3010 QUARTERS </s> -0.3010
-0.3010 QUICKLY </s> -0.3010
-0.3010 RADIATION </s> -0.3010
-0.6021 RAISE </s> -0.3010
-0.6021 RAISE SHIELDS -0.1761
-0.6021 RAMMING SPEED -0.1249
-0.6021 RAMMING VELOCITY -0.0969
-0.6690 RANGE </s> -0.3010
-0.8451 RANGE SCAN -0.2717
-0.8451 RANGE SCANNER 0.0000
-0.3010 RAPIDLY </s> -0.3010
-1.2041 RED </s> -0.3010
-0.3590 RED ALERT 0.0000
-0.6021 REPEAT </s> -0.3010
-0.6021 REPEAT THAT 0.0000
-0.3010 REPORT </s> -0.3010
-0.9031 REVERSE </s> -0.3010
-0.9031 REVERSE ENGINES 0.0000
-0.9031 REVERSE THE -0.2990
-0.9031 REVERSE THRUSTERS 0.0000
-0.3010 RIGHT </s> -0.3010
-0.3010 ROBOT </s> -0.3010
-1.0792 ROLL </s> -0.3010
-1.0792 ROLL ANTI 0.0000
-1.0792 ROLL CLOCKWISE 0.0000
-1.0792 ROLL COUNTER 0.0000
-1.0792 ROLL LEFT 0.0000
-1.0792 ROLL RIGHT 0.0000
-0.3010 ROTATE </s> -0.3010
-0.3010 ROUTE </s> -0.3010
-0.6021 SAY </s> -0.3010
-0.6021 SAY AGAIN 0.0000
-1.1856 SCAN </s> -0.3010
-0.3617 SCAN THE -0.1249
-0.3010 SCANNER </s> -0.3010
-0.3010 SCANNERS </s> -0.3010
-0.7782 SCIENCE </s> -0.3010
-0.7782 SCIENCE ON -0.1856
-0.7782 SCIENCE SCREEN 0.0000
-0.3010 SCREEN </s> -0.3010
-1.6232 SELECT </s> -0.3010
-0.3222 SELECT THE -0.1249
-1.3424 SELECTED ASTEROID 0.0000
-1.3424 SELECTED GATE 0.0000
-1.0414 SELECTED PLANET 0.0000
-1.3424 SELECTED SHIP 0.0000
-0.6435 SELECTED TARGET 0.0000
-1.3424 SELECTED WAYPOINT 0.0000
-0.3010 SELECTION </s> -0.3010
-0.3010 SELF </s> -0.3010
-0.7782 SENSOR </s> -0.3010
-0.7782 SENSOR COOLANT -0.0580
-0.7782 SENSOR POWER -0.0386
-0.3010 SENSORS </s> -0.3010
-0.3010 SEQUENCE </s> -0.3010
-1.8451 SET </s> -0.3010
-0.8451 SET A -0.0158
-1.5441 SET COMMS -0.2041
-1.5441 SET COMMUNICATIONS -0.2041
-1.3680 SET IMPULSE -0.1627
-1.5441 SET LIFE 0.0000
-1.5441 SET MANEUVERING -0.2218
-1.5441 SET PHASER -0.1249
-1.5441 SET SENSOR -0.1249
-1.3680 SET SHIELDS -0.2304
-1.8451 SET THROTTLE -0.2218
-1.5441 SET TRACTOR -0.0512
-1.3680 SET WARP -0.1461
-0.3010 SEVEN </s> -0.3010
-0.3010 SEVENTEEN </s> -0.3010
-0.4771 SEVENTY </s> -0.3010
-0.7782 SEVENTY PERCENT 0.0000
-0.3010 SHIELD </s> -0.3010
-0.6021 SHIELDS </s> -0.3010
-1.3010 SHIELDS COOLANT -0.0580
-1.3010 SHIELDS DOWN -0.1383
-1.3010 SHIELDS POWER -0.0386
-1.3010 SHIELDS TO -0.1862
-1.3010 SHIELDS UP -0.0580
-0.3010 SHIP </s> -0.3010
-0.9031 SHORT </s> -0.3010
-0.4260 SHORT RANGE 0.0000
-1.0792 SHUT </s> -0.3010
-0.7782 SHUT DOWN -0.2109
-0.6021 SHUT OFF -0.1627
-0.3010 SHUTDOWN </s> -0.3010
-0.3010 SIX </s> -0.3010
-0.3010 SIXTEEN </s> -0.3010
-0.4771 SIXTY </s> -0.3010
-0.7782 SIXTY PERCENT 0.0000
-0.3010 SLOWLY </s> -0.3010
-0.3010 SOLAR </s> -0.3010
-0.3010 SPACE </s> -0.3010
-0.4771 SPEED </s> -0.3010
-0.7782 SPEED AHEAD 0.0000
-0.9031 STANDARD </s> -0.3010
-0.4260 STANDARD ORBIT 0.0000
-0.9031 STAR </s> -0.3010
-0.4260 STAR BASE 0.0000
-0.3010 STARBOARD </s> -0.3010
-0.3010 START </s> -0.3010
-0.3010 STATION </s> -0.3010
-0.6021 STATUS </s> -0.3010
-0.6021 STATUS REPORT 0.0000
-0.4771 STOP </s> -0.3010
-0.7782 STOP RED -0.0512
-0.6021 SUFFICIENT </s> -0.3010
-0.6021 SUFFICIENT FUEL -0.0969
-0.5229 SUPPORT </s> -0.3010
-1.0000 SUPPORT COOLANT -0.0580
-1.0000 SUPPORT POWER -0.0386
-0.3010 SWALLOW </s> -0.3010
-0.3010 SWIFTLY </s> -0.3010
-0.3010 SYSTEM </s> -0.3010
-0.3010 TARGET </s> -0.3010
-0.3010 TELL ME 0.0000
-0.6021 TEN </s> -0.3010
-0.6021 TEN PERCENT 0.0000
-0.3010 THAT </s> -0.3010
-2.3222 THE </s> -0.3010
-2.3222 THE AIRSPEED 0.0000
-2.0212 THE ASTEROID 0.0000
-1.3222 THE CLOSEST -0.0378
-2.0212 THE DERELICT 0.0000
-1.3680 THE DISTANCE 0.0000
-1.4771 THE LIGHTS -0.0746
-1.7202 THE MINING -0.0792
-1.3222 THE NEARBY -0.0378
-0.7202 THE NEAREST -0.0105
-2.0212 THE NEBULA 0.0000
-2.0212 THE PLANET 0.0000
-2.3222 THE POLARITY 0.0000
-1.5441 THE SELECTED -0.1047
-2.3222 THE SELECTION 0.0000
-2.0212 THE SHIP 0.0000
-2.3222 THE TARGET 0.0000
-1.8451 THE TRACTOR -0.0512
-2.3222 THE WARP -0.2863
-0.3010 THEM </s> -0.3010
-0.3010 THEN </s> -0.3010
-0.3010 THIRD </s> -0.3010
-0.3010 THIRDS </s> -0.3010
-0.3010 THIRTEEN </s> -0.3010
-0.4771 THIRTY </s> -0.3010
-0.7782 THIRTY PERCENT 0.0000
-0.3010 THOUSAND </s> -0.3010
-0.6021 THREE </s> -0.3010
-0.6021 THREE QUARTERS 0.0000
-0.4771 THROTTLE </s> -0.3010
-0.7782 THROTTLE TO -0.1862
-0.3010 THROUGH </s> -0.3010
-0.3010 THROUGHOUT </s> -0.3010
-0.3010 THRUSTER </s> -0.3010
-0.3010 THRUSTERS </s> -0.3010
-0.6338 TO </s> -0.3010
-2.1523 TO A -0.2929
-2.1523 TO EIGHTY -0.1249
-1.4533 TO IMPULSE 0.0000
-1.8513 TO LIFE 0.0000
-1.6752 TO MANEUVERING -0.1249
-1.8513 TO NINETY -0.0792
-1.8513 TO ONE -0.1761
-1.8513 TO PHASERS 0.0000
-1.6752 TO SENSORS 0.0000
-2.1523 TO SEVENTY -0.1249
-1.8513 TO SHIELDS -0.1761
-2.1523 TO SIXTY -0.1249
-1.3741 TO THE -0.1937
-1.8513 TO TRACTOR -0.0512
-1.6752 TO WARP -0.1027
-1.8513 TO ZERO 0.0000
-0.3010 TORPEDO </s> -0.3010
-0.3010 TOWARD </s> -0.3010
-0.3010 TOWARDS </s> -0.3010
-1.2041 TRACTOR </s> -0.3010
-0.3590 TRACTOR BEAM 0.0000
-1.7482 TURN </s> -0.3010
-1.7482 TURN ANTI 0.0000
-1.7482 TURN CLOCKWISE 0.0000
-1.7482 TURN COUNTER 0.0000
-1.4472 TURN DOWN -0.0512
-1.7482 TURN LEFT 0.0000
-0.9700 TURN OFF 0.0000
-0.9700 TURN ON -0.1663
-1.1461 TURN OUT 0.0000
-1.7482 TURN RIGHT 0.0000
-1.7482 TURN TOWARDS 0.0000
-1.2711 TURN UP 0.0000
-0.3010 TWELVE </s> -0.3010
-0.6021 TWENTY </s> -0.3010
-0.9031 TWENTY FIVE -0.1249
-0.9031 TWENTY PERCENT 0.0000
-0.6021 TWO </s> -0.3010
-0.6021 TWO THIRDS 0.0000
-0.3010 UNDER </s> -0.3010
-0.3010 UNLADEN SWALLOW 0.0000
-0.3010 UNTIL </s> -0.3010
-0.3680 UP </s> -0.3010
-1.1461 UP THE -0.2863
-0.4260 VELOCITY </s> -0.3010
-0.9031 VELOCITY OF -0.1761
-0.7782 VIEW </s> -0.3010
-0.7782 VIEW ON -0.1856
-0.7782 VIEW SCREEN 0.0000
-1.1761 WARP </s> -0.3010
-1.4771 WARP CORE 0.0000
-0.5229 WARP DRIVE 0.0000
-1.0000 WARP GATE 0.0000
-0.3010 WAVELENGTH </s> -0.3010
-0.3010 WAYPOINT </s> -0.3010
-0.3010 WE HAVE 0.0000
-0.3010 WEAPON SCREEN 0.0000
-0.6021 WEAPONS </s> -0.3010
-0.6021 WEAPONS ON -0.1856
-0.7782 WHAT </s> -0.3010
-1.0792 WHAT DID 0.0000
-0.6021 WHAT IS 0.0000
-0.3010 WILL </s> -0.3010
-0.3010 WITH </s> -0.3010
-0.3010 WORM HOLE 0.0000
-0.3010 YAW </s> -0.3010
-0.3010 YOU SAY -0.1761
-0.3010 ZERO </s> -0.3010
-1.1461 ZOOM </s> -0.3010
-1.1461 ZOOM FIFTY -0.1249
-1.1461 ZOOM NINETY -0.0792
-1.1461 ZOOM ONE -0.1761
-1.1461 ZOOM THIRTY -0.1249
-1.1461 ZOOM TWENTY -0.1761
-1.1461 ZOOM ZERO 0.0000

\3-grams:
-0.3010 <s> ABOARD </s>
-0.3010 <s> ABOVE </s>
-0.3010 <s> ACROSS </s>
-0.3010 <s> ACTIVATE WARP
-0.7782 <s> ACTUATE </s>
-0.7782 <s> ACTUATE DOCKING
-0.7782 <s> ACTUATE WARP
-0.3010 <s> AFRICAN </s>
-0.3010 <s> AFTER </s>
-0.3010 <s> AIRSPEED VELOCITY
-0.3010 <s> ALERT </s>
-0.3010 <s> ALL </s>
-0.3010 <s> ALONGSIDE </s>
-0.3010 <s> AN </s>
-0.3010 <s> AND </s>
-0.3010 <s> ANTI-CLOCKWISE </s>
-0.3010 <s> ANTICLOCKWISE </s>
-0.3010 <s> AROUND </s>
-0.3010 <s> ASTEROID </s>
-0.3010 <s> AT </s>
-0.3010 <s> ATOP </s>
-0.3010 <s> BASE </s>
-0.3010 <s> BE </s>
-0.3010 <s> BEAM </s>
-0.3010 <s> BEFORE </s>
-0.3010 <s> BEHIND </s>
-0.3010 <s> BELOW </s>
-0.3010 <s> BENEATH </s>
-0.3010 <s> BESIDE </s>
-0.3010 <s> BESIDES </s>
-0.3010 <s> BETWEEN </s>
-0.3010 <s> BOOST </s>
-0.3010 <s> BOT </s>
-0.3010 <s> BY </s>
-1.0000 <s> CALCULATE </s>
-0.3979 <s> CALCULATE THE
-0.3010 <s> CANCEL RED
-0.3010 <s> CHARGE </s>
-0.3010 <s> CLOCKWISE </s>
-0.3010 <s> CLOSE </s>
-0.3010 <s> CLOSEST </s>
-0.3010 <s> CODE </s>
-0.3010 <s> COME AGAIN
-0.7782 <s> COMMS </s>
-0.7782 <s> COMMS ON
-0.7782 <s> COMMS SCREEN
-0.7782 <s> COMMUNICATIONS </s>
-0.7782 <s> COMMUNICATIONS ON
-0.7782 <s> COMMUNICATIONS SCREEN
-0.7782 <s> COMPUTE </s>
-0.4771 <s> COMPUTE THE
-0.3010 <s> COMPUTER </s>
-1.0000 <s> COOLANT </s>
-0.3979 <s> COOLANT TO
-0.3010 <s> COOLING </s>
-0.3010 <s> CORE </s>
-0.3010 <s> COUNTER-CLOCKWISE </s>
-0.3010 <s> COUNTERCLOCKWISE </s>
-0.3010 <s> COURSE </s>
-1.3010 <s> CUT </s>
-0.3468 <s> CUT POWER
-0.6021 <s> DAMAGE </s>
-0.6021 <s> DAMAGE REPORT
-0.6021 <s> DEACTIVATE </s>
-0.6021 <s> DEACTIVATE DOCKING
-0.3010 <s> DECREASE </s>
-0.3010 <s> DEENERGIZE </s>
-1.2041 <s> DEGREES </s>
-1.2041 <s> DEGREES ANTI
-1.2041 <s> DEGREES CLOCKWISE
-1.2041 <s> DEGREES COUNTER
-1.2041 <s> DEGREES DOWN
-1.2041 <s> DEGREES LEFT
-1.2041 <s> DEGREES RIGHT
-1.2041 <s> DEGREES UP
-0.7782 <s> DEPLOY </s>
-0.4771 <s> DEPLOY THE
-0.3010 <s> DERELICT </s>
-0.3010 <s> DESCRIBE </s>
-0.3010 <s> DESTRUCT </s>
-0.3010 <s> DETAIL </s>
-0.3010 <s> DETAILS </s>
-0.3010 <s> DISABLE </s>
-0.6021 <s> DISENGAGE </s>
-0.6021 <s> DISENGAGE DOCKING
-0.3010 <s> DISTANCE </s>
-0.7782 <s> DO </s>
-0.4771 <s> DO WE
-0.3010 <s> DOCKING </s>
-0.3010 <s> DOWN </s>
-0.3010 <s> DRIVE </s>
-0.3010 <s> DURING </s>
-0.3010 <s> EIGHT </s>
-0.3010 <s> EIGHTEEN </s>
-0.6021 <s> EIGHTY </s>
-0.6021 <s> EIGHTY PERCENT
-0.6021 <s> EJECT </s>
-0.6021 <s> EJECT THE
-0.3010 <s> ELEVEN </s>
-0.3010 <s> ENEMY </s>
-0.7782 <s> ENERGIZE </s>
-0.7782 <s> ENERGIZE DOCKING
-0.7782 <s> ENERGIZE WARP
-0.3010 <s> ENERGY </s>
-0.7782 <s> ENGAGE </s>
-0.7782 <s> ENGAGE DOCKING
-0.7782 <s> ENGAGE WARP
-0.7782 <s> ENGINEERING </s>
-0.7782 <s> ENGINEERING ON
-0.7782 <s> ENGINEERING SCREEN
-0.3010 <s> ENOUGH </s>
-0.3010 <s> ENTER STANDARD
-0.3010 <s> EUROPEAN </s>
-0.3010 <s> EVERYTHING </s>
-0.3010 <s> EXCEPT </s>
-0.3010 <s> FACTOR </s>
-0.3010 <s> FAR </s>
-0.6021 <s> FIFTEEN </s>
-0.6021 <s> FIFTEEN PERCENT
-0.6021 <s> FIFTY </s>
-0.6021 <s> FIFTY PERCENT
-0.7782 <s> FIGURE </s>
-0.4771 <s> FIGURE THE
-0.6021 <s> FIVE </s>
-0.6021 <s> FIVE PERCENT
-0.3010 <s> FOR </s>
-0.6021 <s> FORTY </s>
-0.6021 <s> FORTY PERCENT
-0.3010 <s> FOUR </s>
-0.3010 <s> FOURTEEN </s>
-0.3010 <s> FROM </s>
-0.3010 <s> FUEL </s>
-1.5798 <s> FULL </s>
-1.2788 <s> FULL IMPULSE
-0.5798 <s> FULL POWER
-1.5798 <s> FULL REVERSE
-1.2788 <s> FULL SPEED
-1.5798 <s> FULL STOP
-1.5798 <s> FULL THROTTLE
-1.5798 <s> FULL VELOCITY
-0.3010 <s> GATE </s>
-0.3010 <s> HAVE </s>
-0.3010 <s> HEAD FOR
-0.7782 <s> HOW </s>
-0.7782 <s> HOW FAR
-0.7782 <s> HOW MUCH
-0.3010 <s> HUH </s>
-0.3010 <s> HULL </s>
-0.3010 <s> HUNDRED </s>
-0.3010 <s> IMPULSE </s>
-0.3010 <s> IN </s>
-1.0000 <s> INCREASE </s>
-0.6990 <s> INCREASE COOLANT
-0.6990 <s> INCREASE POWER
-0.3010 <s> INSIDE </s>
-0.3010 <s> IT </s>
-0.7782 <s> LAUNCH </s>
-0.4771 <s> LAUNCH THE
-1.2553 <s> LAY </s>
-0.3522 <s> LAY IN
-0.6021 <s> LEAVE ORBIT
-0.6021 <s> LEAVE STANDARD
-0.3010 <s> LEFT </s>
-0.3010 <s> LEVEL </s>
-0.3010 <s> LIFE SUPPORT
-0.7782 <s> LIGHTS OFF
-0.7782 <s> LIGHTS ON
-0.7782 <s> LIGHTS OUT
-0.9031 <s> LONG </s>
-0.4260 <s> LONG RANGE
-0.6021 <s> LOWER </s>
-0.6021 <s> LOWER SHIELDS
-0.3010 <s> MAGNETS </s>
-0.7782 <s> MAIN </s>
-0.4771 <s> MAIN VIEW
-0.3010 <s> MANEUVERING </s>
-0.3010 <s> MANUEVERING </s>
-1.0000 <s> MAX </s>
-0.6990 <s> MAX COOLANT
-0.6990 <s> MAX POWER
-0.8451 <s> MAXIMUM </s>
-0.8451 <s> MAXIMUM COOLANT
-0.6690 <s> MAXIMUM POWER
-0.3010 <s> MINING </s>
-0.6021 <s> NAVIGATE </s>
-0.6021 <s> NAVIGATE TO
-0.7782 <s> NAVIGATION </s>
-0.7782 <s> NAVIGATION ON
-0.7782 <s> NAVIGATION SCREEN
-0.3010 <s> NEARBY </s>
-0.3010 <s> NEAREST </s>
-0.3010 <s> NEBULA </s>
-0.3010 <s> NINE </s>
-0.3010 <s> NINETEEN </s>
-0.6021 <s> NINETY </s>
-0.6021 <s> NINETY PERCENT
-0.3010 <s> OF </s>
-0.3010 <s> OFF </s>
-0.3010 <s> ON </s>
-1.0000 <s> ONE </s>
-1.0000 <s> ONE HALF
-1.0000 <s> ONE HUNDRED
-1.0000 <s> ONE QUARTER
-1.0000 <s> ONE THIRD
-0.3010 <s> ONTO </s>
-0.3010 <s> OR </s>
-0.3010 <s> ORBIT </s>
-0.3010 <s> OUT </s>
-0.3010 <s> OUTSIDE </s>
-0.3010 <s> PATH </s>
-0.3010 <s> PERCENT </s>
-0.3010 <s> PHASER </s>
-0.3010 <s> PHASERS </s>
-1.1461 <s> PITCH </s>
-1.1461 <s> PITCH BACK
-1.1461 <s> PITCH BACKWARD
-1.1461 <s> PITCH BACKWARDS
-1.1461 <s> PITCH DOWN
-1.1461 <s> PITCH FORWARD
-1.1461 <s> PITCH UP
-0.3010 <s> PLANET </s>
-1.2553 <s> PLOT </s>
-0.3522 <s> PLOT A
-0.3010 <s> PORT </s>
-1.1461 <s> POWER </s>
-0.3680 <s> POWER TO
-0.3010 <s> QUICKLY </s>
-0.3010 <s> RADIATION </s>
-0.6021 <s> RAISE </s>
-0.6021 <s> RAISE SHIELDS
-0.6021 <s> RAMMING SPEED
-0.6021 <s> RAMMING VELOCITY
-0.3010 <s> RANGE </s>
-0.3010 <s> RAPIDLY </s>
-0.6021 <s> RED </s>
-0.6021 <s> RED ALERT
-0.6021 <s> REPEAT </s>
-0.6021 <s> REPEAT THAT
-0.3010 <s> REPORT </s>
-0.7782 <s> REVERSE ENGINES
-0.7782 <s> REVERSE THE
-0.7782 <s> REVERSE THRUSTERS
-0.3010 <s> RIGHT </s>
-0.3010 <s> ROBOT </s>
-1.0792 <s> ROLL </s>
-1.0792 <s> ROLL ANTI
-1.0792 <s> ROLL CLOCKWISE
-1.0792 <s> ROLL COUNTER
-1.0792 <s> ROLL LEFT
-1.0792 <s> ROLL RIGHT
-0.3010 <s> ROTATE </s>
-0.3010 <s> ROUTE </s>
-0.3010 <s> SAY AGAIN
-1.6232 <s> SCAN </s>
-0.3222 <s> SCAN THE
-0.3010 <s> SCANNER </s>
-0.3010 <s> SCANNERS </s>
-0.7782 <s> SCIENCE </s>
-0.7782 <s> SCIENCE ON
-0.7782 <s> SCIENCE SCREEN
-0.3010 <s> SCREEN </s>
-1.6232 <s> SELECT </s>
-0.3222 <s> SELECT THE
-1.0000 <s> SELECTED ASTEROID
-1.0000 <s> SELECTED GATE
-1.0000 <s> SELECTED PLANET
-1.0000 <s> SELECTED SHIP
-1.0000 <s> SELECTED TARGET
-0.3010 <s> SELF </s>
-0.3010 <s> SENSOR </s>
-0.3010 <s> SEQUENCE </s>
-1.8451 <s> SET </s>
-0.8451 <s> SET A
-1.5441 <s> SET COMMS
-1.5441 <s> SET COMMUNICATIONS
-1.3680 <s> SET IMPULSE
-1.5441 <s> SET LIFE
-1.5441 <s> SET MANEUVERING
-1.5441 <s> SET PHASER
-1.5441 <s> SET SENSOR
-1.3680 <s> SET SHIELDS
-1.8451 <s> SET THROTTLE
-1.5441 <s> SET TRACTOR
-1.3680 <s> SET WARP
-0.3010 <s> SEVEN </s>
-0.3010 <s> SEVENTEEN </s>
-0.6021 <s> SEVENTY </s>
-0.6021 <s> SEVENTY PERCENT
-0.3010 <s> SHIELD </s>
-0.7782 <s> SHIELDS </s>
-0.7782 <s> SHIELDS DOWN
-0.7782 <s> SHIELDS UP
-0.3010 <s> SHIP </s>
-0.9031 <s> SHORT </s>
-0.4260 <s> SHORT RANGE
-1.0792 <s> SHUT </s>
-0.7782 <s> SHUT DOWN
-0.6021 <s> SHUT OFF
-0.3010 <s> SHUTDOWN </s>
-0.3010 <s> SIX </s>
-0.3010 <s> SIXTEEN </s>
-0.6021 <s> SIXTY </s>
-0.6021 <s> SIXTY PERCENT
-0.3010 <s> SLOWLY </s>
-0.3010 <s> SOLAR </s>
-0.3010 <s> SPACE </s>
-0.6021 <s> STANDARD </s>
-0.6021 <s> STANDARD ORBIT
-0.3010 <s> STAR </s>
-0.3010 <s> STARBOARD </s>
-0.3010 <s> START </s>
-0.3010 <s> STATION </s>
-0.6021 <s> STATUS </s>
-0.6021 <s> STATUS REPORT
-0.6021 <s> STOP </s>
-0.6021 <s> STOP RED
-0.3010 <s> SUFFICIENT </s>
-0.3010 <s> SWIFTLY </s>
-0.3010 <s> SYSTEM </s>
-0.3010 <s> TARGET </s>
-0.3010 <s> TELL ME
-0.6021 <s> TEN </s>
-0.6021 <s> TEN PERCENT
-1.0000 <s> THE </s>
-0.3979 <s> THE NEAREST
-0.3010 <s> THEM </s>
-0.3010 <s> THEN </s>
-0.3010 <s> THIRTEEN </s>
-0.6021 <s> THIRTY </s>
-0.6021 <s> THIRTY PERCENT
-0.3010 <s> THOUSAND </s>
-0.6021 <s> THREE </s>
-0.6021 <s> THREE QUARTERS
-0.3010 <s> THROTTLE </s>
-0.3010 <s> THROUGH </s>
-0.3010 <s> THROUGHOUT </s>
-0.3010 <s> THRUSTER </s>
-0.3010 <s> THRUSTERS </s>
-0.3010 <s> TO </s>
-0.3010 <s> TORPEDO </s>
-0.3010 <s> TOWARD </s>
-0.3010 <s> TOWARDS </s>
-0.3010 <s> TRACTOR </s>
-1.7482 <s> TURN </s>
-1.7482 <s> TURN ANTI
-1.7482 <s> TURN CLOCKWISE
-1.7482 <s> TURN COUNTER
-1.4472 <s> TURN DOWN
-1.7482 <s> TURN LEFT
-0.9700 <s> TURN OFF
-0.9700 <s> TURN ON
-1.1461 <s> TURN OUT
-1.7482 <s> TURN RIGHT
-1.7482 <s> TURN TOWARDS
-1.2711 <s> TURN UP
-0.3010 <s> TWELVE </s>
-0.7782 <s> TWENTY </s>
-0.7782 <s> TWENTY FIVE
-0.7782 <s> TWENTY PERCENT
-0.6021 <s> TWO </s>
-0.6021 <s> TWO THIRDS
-0.3010 <s> UNDER </s>
-0.3010 <s> UNLADEN SWALLOW
-0.3010 <s> UNTIL </s>
-0.3010 <s> UP </s>
-0.3010 <s> VIEW </s>
-0.3010 <s> WARP </s>
-0.3010 <s> WAVELENGTH </s>
-0.3010 <s> WAYPOINT </s>
-0.3010 <s> WEAPON SCREEN
-0.6021 <s> WEAPONS </s>
-0.6021 <s> WEAPONS ON
-0.7782 <s> WHAT </s>
-1.0792 <s> WHAT DID
-0.6021 <s> WHAT IS
-0.3010 <s> WILL </s>
-0.3010 <s> WITH </s>
-0.3010 <s> YAW </s>
-0.3010 <s> ZERO </s>
-1.1461 <s> ZOOM </s>
-1.1461 <s> ZOOM FIFTY
-1.1461 <s> ZOOM NINETY
-1.1461 <s> ZOOM ONE
-1.1461 <s> ZOOM THIRTY
-1.1461 <s> ZOOM TWENTY
-1.1461 <s> ZOOM ZERO
-0.3010 A COURSE FOR
-0.3010 A HUNDRED </s>
-0.3010 ACTIVATE WARP DRIVE
-0.3010 ACTUATE DOCKING SYSTEM
-0.3010 ACTUATE WARP DRIVE
-0.6021 AIRSPEED VELOCITY </s>
-0.6021 AIRSPEED VELOCITY OF
-0.3010 AN UNLADEN SWALLOW
-0.3010 ANTI CLOCKWISE </s>
-0.3010 BEAM COOLANT TO
-0.3010 BEAM POWER TO
-0.3010 CALCULATE THE DISTANCE
-0.3010 CANCEL RED ALERT
-0.3010 CLOSEST ASTEROID </s>
-0.3010 CLOSEST DERELICT </s>
-0.3010 CLOSEST NEBULA </s>
-0.3010 CLOSEST PLANET </s>
-0.3010 CLOSEST SHIP </s>
-0.3010 COME AGAIN </s>
-0.3010 COMMS COOLANT TO
-0.3010 COMMS ON SCREEN
-0.3010 COMMS POWER TO
-0.3010 COMMS SCREEN </s>
-0.3010 COMMUNICATIONS COOLANT TO
-0.3010 COMMUNICATIONS ON SCREEN
-0.3010 COMMUNICATIONS POWER TO
-0.3010 COMMUNICATIONS SCREEN </s>
-0.3010 COMPUTE THE DISTANCE
-0.4771 COOLANT TO </s>
-1.5563 COOLANT TO A
-1.5563 COOLANT TO MANEUVERING
-1.5563 COOLANT TO NINETY
-1.5563 COOLANT TO ONE
-1.5563 COOLANT TO SENSORS
-1.5563 COOLANT TO ZERO
-0.3010 COUNTER CLOCKWISE </s>
-0.3543 COURSE FOR THE
-1.2389 COURSE FOR WAYPOINT
-0.3010 CUT POWER TO
-0.3010 DAMAGE REPORT </s>
-0.3010 DEACTIVATE DOCKING SYSTEM
-0.3010 DEGREES ANTI CLOCKWISE
-0.3010 DEGREES CLOCKWISE </s>
-0.3010 DEGREES COUNTER CLOCKWISE
-0.3010 DEGREES DOWN </s>
-0.3010 DEGREES LEFT </s>
-0.3010 DEGREES RIGHT </s>
-0.3010 DEGREES UP </s>
-0.3010 DEPLOY THE MINING
-0.3010 DID YOU SAY
-0.3010 DISENGAGE DOCKING SYSTEM
-0.7270 DISTANCE TO </s>
-0.5051 DISTANCE TO THE
-0.3010 DO WE HAVE
-0.3010 DOCKING SYSTEM </s>
-0.3010 DOWN RED ALERT
-0.3010 DOWN THE LIGHTS
-0.3010 DRIVE COOLANT TO
-0.3010 DRIVE POWER TO
-0.3010 DRIVE TO </s>
-0.3010 EIGHTY PERCENT </s>
-0.3010 EJECT THE WARP
-0.3010 ENERGIZE DOCKING SYSTEM
-0.3010 ENERGIZE WARP DRIVE
-0.3010 ENGAGE DOCKING SYSTEM
-0.3010 ENGAGE WARP DRIVE
-0.3010 ENGINEERING ON SCREEN
-0.3010 ENGINEERING SCREEN </s>
-0.3010 ENOUGH FUEL </s>
-0.3010 ENTER STANDARD ORBIT
-0.3010 EXTERIOR LIGHTS </s>
-0.3010 FIFTEEN PERCENT </s>
-0.3010 FIFTY PERCENT </s>
-0.3010 FIGURE THE DISTANCE
-0.3010 FIVE PERCENT </s>
-0.3865 FOR THE NEAREST
-1.2711 FOR THE SELECTED
-1.7482 FOR THE SELECTION
-1.7482 FOR THE TARGET
-0.3010 FOR WAYPOINT </s>
-0.3010 FORTY PERCENT </s>
-0.3010 FUEL DO WE
-0.6021 FULL IMPULSE </s>
-0.6021 FULL IMPULSE DRIVE
-1.3010 FULL POWER </s>
-0.3468 FULL POWER TO
-0.3010 FULL REVERSE </s>
-0.6021 FULL SPEED </s>
-0.6021 FULL SPEED AHEAD
-0.3010 FULL STOP </s>
-0.3010 FULL THROTTLE </s>
-0.3010 FULL VELOCITY </s>
-0.3010 HAVE ENOUGH FUEL
-0.3010 HAVE SUFFICIENT FUEL
-0.3010 HEAD FOR THE
-0.3010 HOW FAR </s>
-0.3010 HOW MUCH FUEL
-0.3010 HUNDRED PERCENT </s>
-0.6021 IMPULSE DRIVE </s>
-1.0792 IMPULSE DRIVE COOLANT
-1.0792 IMPULSE DRIVE POWER
-1.0792 IMPULSE DRIVE TO
-0.3010 IN A COURSE
-0.3010 INCREASE COOLANT TO
-0.3010 INCREASE POWER TO
-0.6021 IS THE AIRSPEED
-0.6021 IS THE DISTANCE
-0.3010 LAUNCH THE MINING
-0.3010 LAY IN A
-0.3010 LEAVE ORBIT </s>
-0.3010 LEAVE STANDARD ORBIT
-0.5229 LIFE SUPPORT </s>
-1.0000 LIFE SUPPORT COOLANT
-1.0000 LIFE SUPPORT POWER
-0.3010 LIGHTS OFF </s>
-0.3010 LIGHTS ON </s>
-0.3010 LIGHTS OUT </s>
-0.7782 LONG RANGE </s>
-0.7782 LONG RANGE SCAN
-0.7782 LONG RANGE SCANNER
-0.3010 LOWER SHIELDS </s>
-0.6021 MAIN VIEW ON
-0.6021 MAIN VIEW SCREEN
-0.3010 MANEUVERING COOLANT TO
-0.3010 MANEUVERING POWER TO
-0.6021 MAX COOLANT </s>
-0.6021 MAX COOLANT TO
-0.6021 MAX POWER </s>
-0.6021 MAX POWER TO
-0.6021 MAXIMUM COOLANT </s>
-0.6021 MAXIMUM COOLANT TO
-0.7782 MAXIMUM POWER </s>
-0.4771 MAXIMUM POWER TO
-0.3010 ME ABOUT </s>
-0.3010 MINING BOT </s>
-0.3010 MINING ROBOT </s>
-0.3010 MUCH FUEL DO
-0.3010 NAVIGATE TO THE
-0.3010 NAVIGATION ON SCREEN
-0.3010 NAVIGATION SCREEN </s>
-0.3010 NEARBY ASTEROID </s>
-0.3010 NEARBY DERELICT </s>
-0.3010 NEARBY NEBULA </s>
-0.3010 NEARBY PLANET </s>
-0.3010 NEARBY SHIP </s>
-0.3010 NEAREST ASTEROID </s>
-0.3010 NEAREST DERELICT </s>
-0.3010 NEAREST NEBULA </s>
-0.3010 NEAREST PLANET </s>
-0.3010 NEAREST SHIP </s>
-0.3010 NEAREST STAR BASE
-0.3010 NEAREST WARP GATE
-0.3010 NEAREST WAYPOINT </s>
-0.3010 NEAREST WORM HOLE
-0.3010 NINETY PERCENT </s>
-0.3010 OF AN UNLADEN
-0.3010 OFF EXTERIOR LIGHTS
-0.3010 OFF LIGHTS </s>
-0.3010 OFF RED ALERT
-0.6021 OFF THE LIGHTS
-0.6021 OFF THE TRACTOR
-0.3010 ON EXTERIOR LIGHTS
-0.3010 ON LIGHTS </s>
-0.3010 ON RED ALERT
-0.3010 ON SCREEN </s>
-0.6021 ON THE LIGHTS
-0.6021 ON THE TRACTOR
-0.3010 ONE HALF </s>
-0.4260 ONE HUNDRED </s>
-0.9031 ONE HUNDRED PERCENT
-0.3010 ONE QUARTER </s>
-0.3010 ONE THIRD </s>
-0.3010 OUT EXTERIOR LIGHTS
-0.3010 OUT LIGHTS </s>
-0.3010 OUT THE LIGHTS
-0.3010 PHASER COOLANT TO
-0.3010 PHASER POWER TO
-0.3010 PITCH BACK </s>
-0.3010 PITCH BACKWARD </s>
-0.3010 PITCH BACKWARDS </s>
-0.3010 PITCH DOWN </s>
-0.3010 PITCH FORWARD </s>
-0.3010 PITCH UP </s>
-0.3010 PLOT A COURSE
-0.7782 POWER TO </s>
-1.8921 POWER TO EIGHTY
-1.1931 POWER TO IMPULSE
-1.5911 POWER TO LIFE
-1.5911 POWER TO MANEUVERING
-1.8921 POWER TO NINETY
-1.8921 POWER TO ONE
-1.5911 POWER TO PHASERS
-1.5911 POWER TO SENSORS
-1.8921 POWER TO SEVENTY
-1.5911 POWER TO SHIELDS
-1.8921 POWER TO SIXTY
-1.5911 POWER TO TRACTOR
-1.4150 POWER TO WARP
-1.8921 POWER TO ZERO
-0.3010 RAISE SHIELDS </s>
-0.3010 RAMMING SPEED </s>
-0.3010 RAMMING VELOCITY </s>
-0.3010 RANGE SCAN </s>
-0.3010 RANGE SCANNER </s>
-0.3010 RED ALERT </s>
-0.3010 REPEAT THAT </s>
-0.3010 REVERSE ENGINES </s>
-0.3010 REVERSE THE POLARITY
-0.3010 REVERSE THRUSTERS </s>
-0.3010 ROLL ANTI CLOCKWISE
-0.3010 ROLL CLOCKWISE </s>
-0.3010 ROLL COUNTER CLOCKWISE
-0.3010 ROLL LEFT </s>
-0.3010 ROLL RIGHT </s>
-0.3010 SAY AGAIN </s>
-1.6021 SCAN THE ASTEROID
-0.9031 SCAN THE CLOSEST
-1.6021 SCAN THE DERELICT
-0.9031 SCAN THE NEARBY
-0.9031 SCAN THE NEAREST
-1.6021 SCAN THE NEBULA
-1.6021 SCAN THE PLANET
-1.6021 SCAN THE SHIP
-0.3010 SCIENCE ON SCREEN
-0.3010 SCIENCE SCREEN </s>
-1.6021 SELECT THE ASTEROID
-0.9031 SELECT THE CLOSEST
-1.6021 SELECT THE DERELICT
-0.9031 SELECT THE NEARBY
-0.9031 SELECT THE NEAREST
-1.6021 SELECT THE NEBULA
-1.6021 SELECT THE PLANET
-1.6021 SELECT THE SHIP
-0.3010 SELECTED ASTEROID </s>
-0.3010 SELECTED GATE </s>
-0.3010 SELECTED PLANET </s>
-0.3010 SELECTED SHIP </s>
-0.3010 SELECTED TARGET </s>
-0.3010 SELECTED WAYPOINT </s>
-0.3010 SENSOR COOLANT TO
-0.3010 SENSOR POWER TO
-0.3010 SET A COURSE
-0.6021 SET COMMS COOLANT
-0.6021 SET COMMS POWER
-0.6021 SET COMMUNICATIONS COOLANT
-0.6021 SET COMMUNICATIONS POWER
-0.3010 SET IMPULSE DRIVE
-0.3010 SET LIFE SUPPORT
-0.6021 SET MANEUVERING COOLANT
-0.6021 SET MANEUVERING POWER
-0.6021 SET PHASER COOLANT
-0.6021 SET PHASER POWER
-0.6021 SET SENSOR COOLANT
-0.6021 SET SENSOR POWER
-0.7782 SET SHIELDS COOLANT
-0.7782 SET SHIELDS POWER
-0.7782 SET SHIELDS TO
-0.3010 SET THROTTLE TO
-0.3010 SET TRACTOR BEAM
-0.3010 SET WARP DRIVE
-0.3010 SEVENTY PERCENT </s>
-0.3010 SHIELDS COOLANT TO
-0.3010 SHIELDS DOWN </s>
-0.3010 SHIELDS POWER TO
-0.3010 SHIELDS TO </s>
-0.3010 SHIELDS UP </s>
-0.7782 SHORT RANGE </s>
-0.7782 SHORT RANGE SCAN
-0.7782 SHORT RANGE SCANNER
-0.6021 SHUT DOWN RED
-0.6021 SHUT DOWN THE
-0.7782 SHUT OFF RED
-0.4771 SHUT OFF THE
-0.3010 SIXTY PERCENT </s>
-0.3010 SPEED AHEAD </s>
-0.3010 STANDARD ORBIT </s>
-0.3010 STAR BASE </s>
-0.3010 STATUS REPORT </s>
-0.3010 STOP RED ALERT
-0.3010 SUFFICIENT FUEL </s>
-0.3010 SUPPORT COOLANT TO
-0.3010 SUPPORT POWER TO
-0.3010 TELL ME ABOUT
-0.3010 TEN PERCENT </s>
-0.3010 THE AIRSPEED VELOCITY
-0.3010 THE ASTEROID </s>
-1.0000 THE CLOSEST ASTEROID
-1.0000 THE CLOSEST DERELICT
-1.0000 THE CLOSEST NEBULA
-1.0000 THE CLOSEST PLANET
-1.0000 THE CLOSEST SHIP
-0.3010 THE DERELICT </s>
-1.2553 THE DISTANCE </s>
-0.3522 THE DISTANCE TO
-0.3010 THE LIGHTS </s>
-0.6021 THE MINING BOT
-0.6021 THE MINING ROBOT
-1.0000 THE NEARBY ASTEROID
-1.0000 THE NEARBY DERELICT
-1.0000 THE NEARBY NEBULA
-1.0000 THE NEARBY PLANET
-1.0000 THE NEARBY SHIP
-1.1249 THE NEAREST ASTEROID
-1.6021 THE NEAREST DERELICT
-1.1249 THE NEAREST NEBULA
-0.9488 THE NEAREST PLANET
-1.2041 THE NEAREST SHIP
-1.4260 THE NEAREST STAR
-1.4260 THE NEAREST WARP
-1.4260 THE NEAREST WAYPOINT
-1.4260 THE NEAREST WORM
-0.3010 THE NEBULA </s>
-0.3010 THE PLANET </s>
-0.3010 THE POLARITY </s>
-1.0792 THE SELECTED PLANET
-0.4771 THE SELECTED TARGET
-1.0792 THE SELECTED WAYPOINT
-0.3010 THE SELECTION </s>
-0.3010 THE SHIP </s>
-0.3010 THE TARGET </s>
-0.3010 THE TRACTOR BEAM
-0.3010 THE WARP CORE
-0.3010 THIRTY PERCENT </s>
-0.3010 THREE QUARTERS </s>
-0.3010 THROTTLE TO </s>
-0.3010 TO A HUNDRED
-0.3010 TO EIGHTY </s>
-0.5229 TO IMPULSE </s>
-0.6990 TO IMPULSE DRIVE
-0.3010 TO LIFE SUPPORT
-0.3010 TO MANEUVERING </s>
-0.3010 TO NINETY </s>
-0.3010 TO ONE HUNDRED
-0.3010 TO PHASERS </s>
-0.3010 TO SENSORS </s>
-0.3010 TO SEVENTY </s>
-0.3010 TO SHIELDS </s>
-0.3010 TO SIXTY </s>
-0.6021 TO THE NEAREST
-0.6021 TO THE SELECTED
-0.3010 TO TRACTOR BEAM
-0.7782 TO WARP </s>
-0.4771 TO WARP DRIVE
-0.3010 TO ZERO </s>
-0.4472 TRACTOR BEAM </s>
-1.1461 TRACTOR BEAM COOLANT
-1.1461 TRACTOR BEAM POWER
-0.3010 TURN ANTI CLOCKWISE
-0.3010 TURN CLOCKWISE </s>
-0.3010 TURN COUNTER CLOCKWISE
-0.6021 TURN DOWN </s>
-0.6021 TURN DOWN THE
-0.3010 TURN LEFT </s>
-1.0792 TURN OFF </s>
-1.0792 TURN OFF EXTERIOR
-1.0792 TURN OFF LIGHTS
-1.0792 TURN OFF RED
-0.7782 TURN OFF THE
-1.0792 TURN ON </s>
-1.0792 TURN ON EXTERIOR
-1.0792 TURN ON LIGHTS
-1.0792 TURN ON RED
-0.7782 TURN ON THE
-0.9031 TURN OUT </s>
-0.9031 TURN OUT EXTERIOR
-0.9031 TURN OUT LIGHTS
-0.9031 TURN OUT THE
-0.3010 TURN RIGHT </s>
-0.3010 TURN TOWARDS </s>
-0.4771 TURN UP </s>
-0.7782 TURN UP THE
-0.3010 TWENTY FIVE PERCENT
-0.3010 TWENTY PERCENT </s>
-0.3010 TWO THIRDS </s>
-0.3010 UNLADEN SWALLOW </s>
-0.3010 UP THE LIGHTS
-0.3010 VELOCITY OF AN
-0.3010 VIEW ON SCREEN
-0.3010 VIEW SCREEN </s>
-0.3010 WARP CORE </s>
-0.4771 WARP DRIVE </s>
-1.2553 WARP DRIVE COOLANT
-1.2553 WARP DRIVE POWER
-1.2553 WARP DRIVE TO
-0.3010 WARP GATE </s>
-0.7782 WE HAVE </s>
-0.7782 WE HAVE ENOUGH
-0.7782 WE HAVE SUFFICIENT
-0.3010 WEAPON SCREEN </s>
-0.3010 WEAPONS ON SCREEN
-0.3010 WHAT DID YOU
-0.7782 WHAT IS </s>
-0.4771 WHAT IS THE
-0.3010 WORM HOLE </s>
-0.3010 YOU SAY </s>
-0.3010 ZOOM FIFTY </s>
-0.3010 ZOOM NINETY </s>
-0.3010 ZOOM ONE HUNDRED
-0.3010 ZOOM THIRTY </s>
-0.3010 ZOOM TWENTY </s>
-0.3010 ZOOM ZERO </s>

\end\
